-0.234173
-0.307713
-1.019691
-0.384153
-0.187649
-0.049686
-0.611462
-1.974780
-0.457570
-0.862655
-0.369759
-0.356948
-0.353066
-0.235228
-1.613238
-0.233323
0.404982
-0.198857
0.134639
-1.353401
0.050657
0.194845
-0.723620
-0.372905
0.201403
-1.852762
0.049975
-0.051780
0.327948
0.173556
-0.366923
-0.007586
-0.126521
0.252732
1.392238
-0.224706
-0.291164
0.330463
-0.111354
-0.191004
-0.453391
0.024678
-0.241220
0.395635
0.324519
0.355308
-0.670741
0.235292
1.233233
0.321191
0.937154
0.304136
0.162491
0.060846
0.203671
-0.803920
0.492733
-0.007212
0.350372
-0.280774
-0.246437
-3.579996
0.217524
-0.736116
0.283543
-0.605216
0.001682
-0.499478
-0.790959
0.396119
0.075653
-0.276083
-0.777148
0.462576
-0.374657
-0.243102
0.423557
-0.218726
-0.609793
0.165758
-0.391744
0.365761
-0.024315
-0.070174
-0.485095
-0.081502
-0.350491
-0.325343
0.417077
-0.586807
-0.009529
-0.319478
-0.361965
0.821461
-0.093090
0.912747
-0.789105
0.034208
0.336835
-0.513304
0.316293
-0.325532
0.213589
-0.251328
-0.343156
0.341400
0.011361
0.286113
-0.368213
0.015131
0.551815
-0.254166
-0.113317
0.435480
-0.083419
-0.530067
-0.140232
-0.317789
-0.073401
-0.918917
-0.306326
0.170930
0.205290
-0.261700
0.138576
-0.083110
-0.425387
0.449380
0.853809
0.417239
-0.744581
0.024956
-0.271453
-0.369256
0.380796
-1.689097
-1.823703
-1.584165
1.505591
-0.353477
0.416443
-0.064685
-0.101852
-0.191083
-0.612432
-0.195468
0.222087
0.242144
-0.000025
-0.334488
-1.164507
0.318316
0.331197
0.005310
-0.964855
-0.415065
-0.519358
-0.357190
-0.069265
-0.634542
-0.427077
0.375577
-0.020804
-1.222162
-1.331294
0.214223
-0.464288
0.039025
-0.368982
-0.121405
-0.287956
0.250710
0.316894
-0.197869
-0.068212
-0.308966
-0.875760
-0.541406
0.438969
0.172071
-0.259378
0.475331
-0.003823
-2.707428
0.226593
0.045739
0.030137
0.384988
0.212976
-0.904996
-0.408872
0.284607
0.480712
0.187034
1.390953
0.422448
-0.111969
-0.124392
0.482774
0.268319
-0.164680
-0.304586
0.362787
0.896871
0.311992
-1.763526
0.260225
0.365268
-0.243709
1.018036
1.327536
-0.081774
0.186106
-0.454959
-0.108292
-0.608623
0.115207
-0.376769
-0.370871
-0.269305
-0.195489
0.664411
-0.375628
-0.465211
-0.401218
-0.386262
1.440767
0.251567
-0.004864
0.471361
0.786083
-0.250125
-0.347202
-0.215311
0.269162
0.061176
-1.778520
0.025245
0.341583
0.281363
-0.225951
-0.097925
-0.316893
0.936893
-0.168206
0.381751
0.424890
-0.772359
-0.461599
-0.730506
-0.097958
1.078721
-0.081439
0.017362
-0.822930
0.023133
0.161267
-0.284735
-0.685264
-0.337806
-0.327351
0.321492
0.135161
0.437859
1.330975
0.731305
-0.192391
0.188971
0.993720
0.508021
3.172766
-0.354645
0.051221
1.009268
-0.167514
0.558689
0.456902
-0.221343
-0.107868
0.210235
0.059014
0.137167
0.412358
0.387689
-0.603204
0.154209
0.031722
0.169710
-1.205129
0.298570
1.734902
0.035488
0.116319
-0.259535
0.362982
1.166689
0.061772
-0.333153
-0.793712
-0.188886
-0.181914
0.454271
0.432195
0.365564
1.441909
0.067674
0.375774
-0.108672
0.675801
2.057259
0.394832
0.078853
-0.106826
-0.493566
-0.094714
-0.098585
-0.339328
-0.550406
-0.432416
0.153887
0.204083
-1.310706
-0.447665
-0.178767
-0.259831
0.411573
-0.603268
0.108052
-0.705033
0.155418
0.415422
-0.110980
-0.365863
-0.145702
-0.149519
-0.252079
0.418228
-0.392793
0.135506
0.472796
-0.473810
0.229583
-0.293201
-0.450647
0.232274
0.304040
0.866567
0.386282
0.395293
0.250186
-0.096871
-1.639274
0.055473
0.511141
0.040833
0.208801
-0.140450
0.162456
-0.003307
-0.069517
-0.130506
-0.085223
0.315759
0.736112
0.258926
-0.437145
0.633171
0.173410
-0.333681
0.100981
0.299480
-0.059783
-0.173180
0.157600
0.100643
-0.333810
-0.237803
-0.089606
0.017607
0.276883
-0.216014
1.013681
0.496482
-0.454165
1.826113
0.033571
-0.475434
-0.428149
-0.277155
-0.075421
0.232573
-0.623940
0.806428
-0.003513
-0.412880
0.087235
-0.061077
-0.443214
-0.243099
0.101499
1.238557
-0.119932
0.286521
0.477100
0.222755
-0.118274
-0.134927
0.120012
0.290071
0.462851
0.082217
0.032805
0.399239
-0.114110
-0.387596
-0.867782
0.418909
-0.456863
0.503922
0.022406
0.429584
0.279251
-0.133714
-0.023408
-0.721575
0.515266
0.462967
1.034718
0.237864
0.336259
-0.102112
-0.263257
0.547103
0.303366
-0.289901
-0.306449
-0.149291
-0.264938
0.309820
-2.149360
-0.345852
0.103817
-0.261811
-0.013259
0.081374
-0.890000
0.060948
-0.006653
-0.346234
0.758026
0.264843
0.314734
-0.800763
-0.488702
-0.393882
0.199487
0.337669
0.480994
-0.267333
-0.853776
-0.390973
0.880314
-0.143305
0.441270
-0.061959
0.633924
-0.710542
0.235038
0.294369
0.436903
0.620178
1.039642
-0.367613
-0.389660
-0.156908
0.116581
0.156733
-1.873381
-0.300380
0.274598
0.293719
0.265064
-0.513553
-0.162114
0.272619
0.148441
-1.178229
-0.190145
0.165212
0.158411
-0.103368
0.361225
0.810024
0.081127
0.207771
-0.282565
0.471354
0.317323
-0.722605
-0.164365
0.213537
0.413252
-0.563534
2.126598
-0.472332
0.926496
0.102929
0.106476
0.099163
0.311394
-0.834235
-0.110862
0.026680
0.269859
0.501003
-0.204445
-0.045923
0.219719
-0.357912
-1.549200
-0.665484
-0.581276
0.382297
0.312603
0.249434
-0.667570
-0.699876
-0.356625
-0.082565
-0.465971
-0.120853
-0.964913
0.356148
0.012811
-0.749973
0.453575
0.458086
0.774306
-0.099562
-0.146632
0.097733
0.369814
0.363229
-0.474750
-0.125934
0.158436
0.267401
0.401498
-0.092142
-0.523296
-0.453254
0.411493
-0.403271
0.458747
-0.344602
0.375732
0.074774
-0.134244
-0.657144
-0.478087
-1.257950
-0.145822
0.149403
-0.125046
0.445547
0.212567
-0.275221
1.128170
-0.458851
0.288372
-0.161140
0.039672
-0.061166
-4.712265
0.094671
0.049554
-0.503823
-1.406619
0.314853
-0.066838
-0.752045
0.391302
-0.128566
-0.444542
-0.513791
-0.529476
0.460894
-0.015771
0.235929
-0.458919
-0.055136
-0.386139
-0.075039
0.298869
0.018518
-0.206129
-0.333786
0.406452
-0.492118
-0.164514
0.224528
-0.165452
-0.931963
-0.309538
0.447205
-0.626368
-0.396183
0.950078
1.152090
-0.048591
-0.298222
-0.684728
0.369377
-0.329838
0.036767
0.278831
0.008615
0.041568
-0.207237
1.141430
0.098147
0.358311
-0.591648
-0.447188
0.186883
0.356857
0.060209
0.439708
0.293012
-0.157373
-0.350432
-0.119947
0.248774
-0.514242
0.358175
-0.007914
-0.053678
-0.049678
-0.239298
0.411470
0.928888
-0.007817
-1.100109
0.341821
0.124951
0.584217
0.152170
-0.477875
0.197868
-1.258770
-0.599996
-0.355834
0.297097
0.215524
-0.273319
0.013683
0.500764
-0.194205
-0.073814
-0.075201
0.354532
0.105006
-1.078490
0.212233
0.120918
0.298856
-0.616601
-0.096448
-0.134761
0.024428
-0.461884
-0.117278
-0.452899
-0.039403
-0.053613
-0.338267
-4.090694
-0.437703
-0.902080
-1.327738
-0.299765
0.216144
-0.494766
0.427298
-0.289596
-0.601650
-0.068140
0.257930
-0.868457
0.007850
-0.287568
-0.519592
-0.037682
-0.256119
0.222344
-3.771218
-0.353070
-0.258416
-0.255864
0.331635
0.040200
0.115718
-0.000476
0.116217
0.332237
-0.466464
-1.169278
-0.223043
-0.588814
-0.088438
-0.197772
-0.402010
0.373537
0.001368
0.500500
-0.767854
0.456892
-1.029085
0.265659
-0.496549
-0.286590
-0.988655
-1.966387
0.243085
-0.218622
0.265703
0.316349
-0.213576
0.281476
-0.440658
-0.244256
-0.118892
-0.388456
-0.918946
-0.502701
-0.218121
0.278986
-0.065166
-0.493494
0.375893
0.376099
0.417547
-1.095556
0.227990
-0.048458
-0.427685
0.239096
-0.617178
-0.382215
0.012159
-0.028615
0.118231
0.408554
0.017280
0.200512
-0.192863
-0.243869
-0.268857
-0.048941
-0.968390
-0.121790
-0.489924
0.002412
-0.365529
-0.128788
0.023397
-0.253144
-0.320100
-0.485764
0.312494
-1.159724
0.420039
0.262668
-0.360930
0.293980
-2.066572
-0.659752
0.199809
0.211754
0.067543
-0.643935
-0.431367
-1.515938
0.108716
0.257290
0.093562
0.079684
-2.762271
0.178076
0.175564
-0.469887
-0.237780
-0.068748
0.043669
-0.345693
0.463754
-0.318890
0.209322
-0.673104
-0.136936
-1.832043
-0.343031
-0.759428
0.451975
-0.194543
0.491731
-0.294693
0.606801
0.014689
0.426479
-0.613456
-0.054448
-0.351260
-0.235799
-0.693627
0.415448
0.257575
0.078118
-0.225139
0.230806
0.188487
-0.436870
-0.914021
-0.361408
-0.430684
-0.333830
0.203909
-0.081884
0.039874
-3.086291
0.290625
-0.082031
0.420355
-2.299815
0.184265
-0.263641
-0.707644
0.398990
0.181009
0.023283
-1.422592
0.082652
0.478253
-0.506954
-0.572416
-0.455171
0.371377
0.422216
0.132365
0.449341
0.162440
-0.576881
-0.261635
0.174303
0.435181
0.052933
0.349891
0.154634
-1.048843
-0.107126
0.288438
0.163083
-0.374837
-0.603759
-1.477371
-0.115201
0.089703
0.069515
0.227255
-0.157195
-0.229550
0.071561
-0.107180
-0.220294
0.074024
-0.376294
-0.187632
0.001355
-0.756758
0.454151
-0.039886
0.257556
-0.858206
-0.514587
-0.058723
0.471606
-0.465585
-0.573778
0.129532
0.288494
0.169675
-0.448026
-0.157384
0.015488
-0.094682
-0.501279
0.079723
-0.495561
-0.995179
-0.209377
0.018158
-0.611910
0.569532
-0.722297
-0.382464
-1.293416
-0.208423
0.115081
-0.422409
0.198210
0.078651
0.047123
0.482359
-0.042097
-0.235561
0.415879
-0.113060
-0.191808
-0.970443
-0.264949
-0.393815
0.438178
-0.470992
-0.215125
-0.194421
0.211179
-0.033642
-0.167222
0.226408
-0.278336
0.597944
-1.053686
-5.087441
0.364806
-0.301060
0.355146
-0.289548
0.168507
-0.493779
0.450952
0.475067
-0.869935
-0.267085
-0.190503
-0.656021
-0.131455
-0.265206
-0.497867
0.176140
-0.029906
-0.253398
-3.245382
-0.009904
-0.279763
-0.212669
-0.287484
-0.226940
-1.231618
0.181779
-0.492486
0.595820
0.168159
-0.877689
-0.267503
0.811031
0.106826
0.301466
0.387893
0.315754
-0.505064
-0.173188
-0.024530
0.276474
-1.258992
0.406739
-0.316886
0.387241
-0.537573
-1.325669
0.019296
0.130463
-0.049923
-0.127513
-0.284779
-0.488042
0.179804
-0.131826
-0.198018
-0.213494
-0.332272
-0.188631
-0.137006
0.042978
-0.096559
0.357217
0.489829
-0.480315
-0.049677
-0.015329
0.272606
-0.079853
0.086530
-0.162025
-0.516567
-0.348135
-0.263766
-0.102038
0.247369
0.584740
0.114196
-0.330216
0.207598
-0.448038
0.212965
0.047832
0.300454
-0.134857
-0.488715
-0.113837
-0.013031
-0.078406
0.205638
-0.510595
0.473991
-0.359254
0.269572
2.972869
-0.330150
-0.305217
0.390733
0.664071
2.123095
-0.116585
-0.546849
0.339805
-0.425638
0.731972
-1.440160
1.710155
-0.413920
0.358041
-0.267669
-0.244312
0.104435
1.495823
0.023511
-0.951753
-0.225065
0.291984
1.480657
-0.453750
-0.562885
1.026048
-0.197048
-0.424894
-0.238707
0.498273
-0.310939
-0.177804
-0.368706
-0.431725
-0.151920
0.244124
0.070957
0.189689
0.072409
0.081744
-0.205307
0.308076
-0.323027
0.083722
0.154598
0.696978
0.032112
-1.081418
-0.267700
0.371156
0.049982
0.430948
0.126999
0.484247
0.030447
0.353276
-0.395152
0.211006
-1.319424
-0.145431
0.527173
-0.270632
0.329349
0.265192
-0.217539
-1.062381
-0.002203
-0.320631
0.279248
0.812542
1.450426
-0.437578
0.355245
-0.598549
-0.083535
-0.135892
-0.114864
0.437058
-0.441726
0.105917
0.352347
0.126824
-0.409886
-0.082847
-0.176545
0.109042
-0.243542
0.818271
-0.193571
-0.290638
-0.314572
0.440327
-0.526345
0.473637
0.811141
0.280682
0.982909
-0.319722
-0.150471
0.154386
-0.272553
-0.254400
0.200482
-0.428827
0.135212
-0.389765
0.057978
1.077132
-0.464225
0.104733
-0.295126
1.932751
0.291741
-0.216531
-0.283237
0.308071
0.665571
-0.035845
-0.010619
-0.427355
0.248191
0.013740
0.421863
-0.253588
-0.210745
0.437868
-0.484424
-0.514162
0.479610
-0.552293
0.211429
-0.327370
1.805498
0.245484
0.291908
2.413207
0.099745
0.277993
-0.169064
0.124001
-0.128793
0.689813
0.507865
0.079726
0.296241
0.246349
-0.113460
1.091121
-0.418508
0.354140
0.330099
-0.449184
0.347048
1.126763
-0.446943
0.134097
0.322804
-0.439360
0.286971
-0.592410
-1.261237
0.738581
0.303756
0.558821
-1.121193
-0.297858
0.247120
0.137158
-1.282924
0.415870
0.988654
-0.309960
-0.083646
0.725325
0.307748
-0.298924
-0.197641
-0.417101
0.355272
-0.127668
-1.238023
0.098392
0.469080
-0.196689
0.085582
-0.279485
1.041559
-0.226932
-0.233889
0.005392
0.273204
0.194072
-0.260414
2.279936
-0.024638
-0.199712
0.209433
-0.364476
0.449218
-0.191950
1.133236
-0.289371
0.038793
-0.155095
0.384332
-0.166807
0.029006
-2.343858
-0.094417
-0.121784
0.035785
-0.162649
-0.922461
0.203243
0.074262
-0.005106
0.413580
1.207337
0.547974
-0.333169
-0.384282
0.269628
0.278489
-0.227359
-0.044710
-0.257668
0.083007
-0.951010
-0.221160
0.070254
0.425962
-0.280044
0.522785
-0.691811
0.083628
0.141977
0.066573
-0.216500
0.285018
1.433092
0.266545
-0.145116
-0.233316
-0.099202
1.056680
0.332586
0.114259
0.422142
-1.612460
0.427246
-0.398731
-0.029337
0.185355
0.382527
0.254478
-1.027914
-0.386660
-0.124486
-0.191086
0.262492
-1.109491
-0.171326
0.989568
0.192094
-0.333594
-0.604217
0.195497
-0.815426
-0.334134
-0.383536
0.347166
0.263252
-0.674122
0.639877
0.207017
0.102840
0.240014
-0.424254
-0.243757
0.508406
1.332894
0.005323
0.230851
0.420684
-0.245989
-0.651189
0.282918
-0.114555
-0.088252
0.542212
0.166039
-0.203624
1.109367
-0.211030
0.438849
0.619536
-0.268266
-0.288220
0.196882
-0.333953
-0.221377
-0.843471
0.367201
2.103429
-0.319630
0.703544
0.558247
0.236176
0.101845
-0.135884
0.329549
0.310261
0.235563
-0.341896
-0.785295
0.439990
-0.367858
-0.342141
-0.278821
0.059286
-0.348161
0.292389
0.306041
1.239990
0.433230
0.525287
0.595177
-0.384656
0.357428
0.553046
-0.094249
-0.373721
0.411944
-0.276669
0.200453
0.542694
0.773599
0.209401
0.363837
0.334780
0.822652
0.143765
0.078293
0.948402
0.255070
0.815038
0.046514
0.402608
0.560580
0.829698
-0.084546
-0.316403
-0.074037
-0.331307
-0.363128
-0.100060
0.314341
1.071917
-0.030298
0.122149
0.147768
0.321793
0.158958
0.473444
0.495504
-0.190209
0.065962
1.266262
0.257630
-0.119822
0.247036
0.443847
1.013963
-0.207164
0.104102
0.389780
-0.285034
-0.345273
0.398594
-0.253276
0.363829
1.404805
-0.119300
-0.005475
0.407555
0.685548
0.131796
0.240954
-0.248074
-0.310852
0.418502
-0.390073
0.369072
0.461071
0.231364
0.314955
-0.278759
0.312225
0.496938
-0.358809
0.078263
0.043762
0.535784
-0.526977
0.167841
0.089900
-0.366884
0.455452
-0.508899
-0.210496
0.530289
0.009214
-0.122819
-0.137056
0.290133
-0.041458
0.590381
0.351626
-0.343505
-0.410611
0.606553
-0.254509
0.312832
0.247542
0.535833
-0.175506
-0.788715
0.279055
-0.165313
-0.358368
0.448708
0.363329
-0.393970
0.119046
-0.183327
0.224250
-3.385384
-0.106234
-0.051547
0.288258
0.467148
-0.011515
-1.020917
-0.120770
0.300233
0.700432
0.715119
0.539395
-0.123436
2.050869
0.296229
0.295592
-0.227620
0.078719
0.534071
0.682080
-1.169868
0.537885
1.143075
0.073514
0.220013
0.168500
0.667521
0.610255
-0.220303
0.154276
-0.049672
0.028962
0.974558
0.408523
-0.224964
0.587155
-0.113487
-0.134613
-0.546012
-0.402000
-0.227404
0.458514
0.097845
1.855892
0.272287
-0.155546
-0.079076
2.053001
-0.003712
-0.170038
0.191985
0.252675
0.144114
0.435611
-0.250058
0.487895
-0.307627
0.519083
0.229355
0.229605
0.909924
-0.435688
0.178686
0.873558
0.836518
0.231784
1.111123
-0.228652
2.578755
-0.269137
-0.183312
0.617195
-0.360243
0.285523
0.190032
0.415698
-0.419644
-0.514078
0.225420
0.219484
0.309003
-0.850329
0.244771
0.034869
0.243323
-0.016747
-0.694945
-0.431197
-0.535850
-0.362505
-0.048482
-0.174233
-0.626350
0.232733
-0.140899
-0.216212
0.022950
-0.293289
0.752013
-0.027106
0.517625
0.233439
0.525293
-0.043851
-0.063321
-0.656021
-0.209108
-0.202612
-0.112617
-0.450881
-0.370346
0.186454
0.359331
-0.065152
-0.245869
-0.384537
0.309785
0.260082
-0.519841
0.209562
0.430384
-1.923923
0.464948
0.740912
-0.401717
-0.008276
0.708320
-0.015013
0.854188
0.206115
-0.340257
0.385499
-0.142732
0.342051
-1.013873
0.326756
-0.283661
0.220446
-0.349039
0.160015
0.302023
0.294618
-0.120723
-0.027317
0.439742
1.133628
-0.370869
0.282334
-0.040895
-0.235653
0.126680
-0.084234
0.000755
0.124436
0.120849
0.131846
0.689663
-0.521278
-0.181306
-0.119992
0.458529
0.011244
-0.149425
-1.144364
-0.117584
0.484962
-1.077453
0.155047
0.413679
0.531215
-0.180700
-0.184746
-0.445416
0.259954
-0.002228
0.466756
-0.041024
1.087170
0.290886
0.450889
0.628902
-0.058614
-0.094007
-0.137431
-0.401371
-0.440351
-0.283759
-0.443226
-0.627088
0.067743
-0.073285
0.321631
0.310678
0.257838
0.462161
0.005334
0.018165
0.462255
0.040363
-0.468604
-0.095437
0.681914
-0.120543
-0.150515
0.011019
0.881338
0.095720
0.386217
0.343082
-0.013946
0.350665
0.088009
0.220041
-0.197409
-0.198883
0.351478
-0.104953
0.723649
0.931482
-0.000966
-0.349284
-0.210016
-0.153597
-0.626621
-0.351647
-0.151559
0.355142
0.330762
-0.039426
-0.626160
0.263528
0.280874
0.093213
-0.326866
-0.254740
-0.168599
0.013697
-0.758494
-0.434801
0.498294
-0.452512
0.602739
0.423512
0.449338
0.278907
0.505737
-0.957316
0.311434
-0.035150
-0.358441
0.073311
0.148373
0.446504
0.143171
-0.523502
-0.372335
-2.994064
0.436990
0.484296
-0.075501
-0.499628
0.156133
-1.114951
0.264063
0.364734
0.144560
0.821717
-0.463396
-0.265504
0.960773
0.328495
-0.244832
-0.458222
0.286182
-0.471312
0.142415
-0.586585
0.186493
-0.834408
0.321595
-0.224492
-0.080663
0.126229
-0.784548
-0.343944
0.012081
-0.084925
-0.150016
0.196025
-0.192320
0.211517
0.070835
-0.344325
-0.080073
-0.180050
0.394162
-0.141414
-0.278933
0.424236
1.917728
-0.198951
0.285539
0.471613
-0.014065
-0.272405
-0.524640
0.545709
0.114916
0.527532
1.929759
-0.031817
-0.497242
-0.105186
-0.088389
-0.195573
0.955194
0.451337
0.254810
0.208287
0.978632
-0.244652
-0.172826
0.489247
-0.392035
0.788912
0.208294
-0.456355
0.863351
0.462168
-0.557518
-0.306126
-1.043970
0.260828
-0.359455
0.154970
-0.509294
-2.752360
-0.344533
0.533484
0.376180
-0.055507
-0.458387
-0.973632
-1.177727
-0.378088
-0.265279
-0.095163
0.232151
-2.938558
-0.453595
-0.081391
-0.247204
0.027919
-0.367509
-0.905791
0.254007
0.042566
-0.541569
0.106521
0.248709
-0.149774
-0.328833
-0.302600
-0.024221
0.370516
-0.565327
-0.215537
-0.398467
0.528208
-0.435749
-0.439982
-0.503687
-0.290155
-0.445932
-0.535837
-0.356828
-0.128906
-0.435820
-0.339343
-0.039260
0.223553
0.522505
-0.000504
-0.648103
-0.691889
-0.501793
-0.329912
-0.423059
-0.094067
0.129451
-4.837974
0.338481
-0.501359
-0.191591
-0.910314
-0.193327
-0.175505
0.156699
-0.009489
0.118578
0.093245
-1.610503
-0.872930
0.385394
0.269205
-0.496902
-0.123065
-0.238861
0.086923
0.119896
0.263884
-0.107220
-0.060899
0.004394
0.308860
0.311799
0.052238
-0.438748
-0.577486
-1.680966
0.267438
-0.076502
-0.717836
-0.296405
-0.068280
-0.955298
-0.544217
0.377783
-0.174394
-0.334613
0.387946
-0.058404
0.380524
-0.983900
-0.066088
0.232033
-0.750718
0.368533
-0.463061
0.013728
0.070733
0.383128
-0.323067
-0.966125
-0.220687
-0.431903
-0.344409
-0.362965
-0.775787
-0.291060
-0.207500
-0.348133
-0.127593
-0.131249
-1.264910
-0.574305
0.141450
-1.431107
0.385783
-3.017163
-0.204294
-0.085379
-0.814847
-0.377908
-0.011030
-0.507484
-0.781646
-1.330245
-0.043863
-0.333729
0.220346
-0.390825
-0.368297
0.063593
-0.501076
0.183833
-0.370015
-0.061089
0.402676
-0.977491
-0.517893
-0.222023
0.067644
0.112596
-0.272919
-0.975753
-0.055181
-0.047214
-0.368140
-0.085117
-0.475109
0.400743
0.171314
-5.182770
0.268881
-0.422900
-0.250707
0.234346
0.155531
-0.859239
-0.587676
-0.388986
-0.882412
-0.027362
-0.398233
-1.020854
-0.578517
-0.185944
0.246859
-0.387589
0.320303
0.311270
-2.196896
0.095465
0.008886
-0.182594
0.049593
0.357516
-0.092171
0.233822
-0.147273
-0.566696
-0.439703
-1.014016
-0.370487
0.047346
-0.448770
-0.579683
-0.398284
-0.359007
-0.250437
-0.507696
0.685748
0.270288
-0.825191
0.177018
0.326303
-0.516853
-0.302482
0.436937
-0.340549
-0.524015
0.049022
0.124797
0.286171
-0.538280
-0.524957
-0.333683
0.401073
-0.881724
-0.763528
-0.163428
-0.490770
-0.170913
-0.330931
0.008110
0.032590
-0.197397
-0.273786
-0.242263
0.255677
0.055537
-0.131536
-0.192120
-0.924449
0.532720
-0.548656
-0.183281
-0.448613
0.208835
-0.442674
0.062041
-0.004015
0.148398
-0.373285
0.139502
-0.352928
-0.191791
-1.540260
0.213667
-0.794938
-0.282919
-0.359701
-0.147284
0.128472
-0.043538
0.358558
-1.379365
0.341369
-0.335468
-0.385174
0.645821
-1.833397
0.417961
0.506852
-0.207192
-0.104726
-0.168950
1.445690
2.149944
0.119824
0.328606
0.423996
0.490288
0.242496
-0.043541
0.251510
-0.025996
0.022174
-0.282463
-3.080741
-0.504396
-0.210094
0.042326
0.275109
-0.283172
0.385874
1.599205
0.053369
0.614561
0.103177
0.177955
-0.074950
-0.084690
-0.068844
0.050961
0.217877
-0.351091
0.303308
-0.080533
0.457964
-0.406251
-0.242168
1.480381
-0.103964
-0.550444
-0.468215
-0.053194
-0.397258
0.042797
-0.282305
-0.002544
0.069082
-0.363002
0.426808
-0.357169
-2.045987
0.322502
0.375548
0.438272
-0.694558
-0.309008
0.125298
-0.776087
0.116061
0.156233
0.043319
-0.622760
-0.455960
-0.143614
0.272924
-0.651096
0.272558
-0.524829
0.446653
-0.321647
0.414574
0.488198
-0.046386
-0.292775
0.061676
-0.308790
0.326664
-0.359483
-0.127560
-0.872766
-0.210313
0.493641
0.469344
0.377502
-0.189229
-1.180081
-0.625581
-0.195416
-1.193470
0.204074
0.516907
0.130317
-0.442469
-0.521186
-0.494089
0.340214
-2.827684
0.278780
0.390489
0.112067
0.466893
0.314823
-0.436810
1.774760
-0.721665
0.134625
0.248756
0.256007
-0.625940
-0.403517
-0.083164
-0.596102
0.328425
0.409925
-0.007020
0.007711
0.482037
-1.038495
0.322054
-1.247974
0.153920
0.131047
-0.109533
0.470638
0.274484
0.348645
0.693836
0.737470
0.003872
0.090967
-0.448355
-0.019476
-0.084451
-0.270290
-0.911149
-0.042885
0.268978
0.636816
-0.266721
-0.579908
0.402826
0.149477
0.157746
0.272273
-0.562803
0.105418
-0.241519
0.060958
0.248383
-0.398824
0.139752
0.416559
0.433194
-1.918793
-0.157788
0.082032
-0.605488
-0.640876
0.550107
-0.138505
-0.167846
0.352762
0.137773
-0.305708
0.445840
-0.326917
-0.270554
0.224577
0.441801
0.268240
-0.202024
0.354387
-1.077340
0.447561
-1.751001
-0.438976
0.114092
0.373397
0.172198
-0.167391
0.473451
-0.287281
0.362632
-0.058511
0.095007
-0.266528
0.152476
0.188480
-0.261504
-0.164988
-0.204415
0.213068
0.467646
-0.107027
1.399587
-0.310838
0.038863
0.015511
0.941810
1.323005
-0.279461
-0.268767
-0.146104
0.227438
-0.163562
0.468812
0.122777
0.330206
-0.008013
-0.150971
-1.285281
0.335179
0.070160
-0.483209
0.223985
-0.921547
-0.287403
-0.113779
0.354432
2.012714
0.308302
-0.321491
0.157121
-0.485733
-0.266522
-0.070646
-0.258518
-0.370810
0.367465
0.067678
0.128941
-0.868590
1.557156
-0.534025
0.411239
0.202857
0.411091
0.167900
-0.287154
0.332653
0.494410
0.164087
0.211002
0.046538
0.190637
-0.044550
0.320154
2.110561
0.351430
0.203079
-0.072281
0.039781
2.825093
2.747780
1.149787
-0.017652
-0.372672
2.264975
0.045294
3.544412
-0.296986
-0.240244
0.169581
0.229447
0.957266
-0.448422
0.134778
-0.379925
0.308090
0.261191
2.517964
0.329284
-1.532362
1.229097
0.219804
-0.608041
-0.306590
1.935687
-0.441815
2.882995
0.384920
-0.048451
0.092116
0.241913
0.319424
-0.094224
-0.310094
0.358916
-0.201061
0.276849
-0.171102
0.487548
0.502250
1.609060
0.534229
-3.210332
0.100051
-0.096034
-2.005403
0.569399
1.083079
-0.011426
-0.331284
-0.102548
-0.273253
0.061719
-2.348037
-0.114410
0.557376
0.027081
2.397317
0.097166
0.439555
0.219757
-0.195275
-0.382740
-0.219244
-1.419350
-1.514677
0.045340
-0.297229
0.038801
0.460294
-0.357001
-0.313722
0.460168
-0.133924
0.251975
-0.365336
0.269684
-0.408593
-0.341838
-1.162031
-0.274232
0.126237
-2.383594
0.256172
0.479164
2.105844
-0.031582
-2.903824
0.082027
0.611296
-0.121361
1.426154
-0.198401
0.005160
-0.220287
0.227520
-0.733860
0.297726
0.395936
-1.169608
0.216637
0.532247
1.426634
0.142451
-0.136032
-0.093955
0.450850
0.378678
-0.036903
0.427651
-0.211154
0.241891
-0.085445
0.170575
-0.241082
-0.134365
-0.096462
0.179746
0.304720
-0.036132
1.311260
-0.350996
-1.050698
-0.107116
-1.008992
0.185140
0.015490
2.030272
2.590715
-2.305403
0.445824
-0.353190
0.127146
0.057149
0.254906
0.456759
1.428199
1.306564
0.521702
-0.142420
0.013607
-0.236433
2.070398
0.297891
0.412414
-0.180294
-0.821838
1.273328
1.055774
0.399536
0.211110
1.237591
0.509313
-0.360419
0.712146
-0.858844
3.326725
0.142119
0.503684
-1.009769
0.031261
0.483991
-1.017815
-0.161356
-0.101126
0.592069
0.326938
-0.286502
1.951393
-0.487455
0.036723
0.449965
0.481400
-0.019897
0.213501
-1.794925
0.087728
-0.314269
-0.368220
0.325261
0.173498
2.107328
0.161135
0.153329
-0.296822
0.251193
-1.731757
0.167737
0.059064
-0.426965
0.376965
-0.153992
0.486993
-0.301351
-1.152531
-0.978588
-0.259116
1.890204
-0.201296
0.272694
0.064527
0.874390
7.074101
-0.151145
-0.253178
-0.132086
0.030026
0.293777
-0.358123
-0.666425
-0.177048
0.252327
-0.403711
1.360560
-0.100006
0.512451
0.398413
0.045532
1.813139
0.507403
0.084213
-0.240031
-1.725570
-0.115234
0.152737
0.126588
-0.121524
-0.657811
-1.257045
0.321544
0.098069
0.281302
0.228368
-0.310854
-0.089467
0.572551
0.146615
0.060840
-1.752469
2.711657
0.435508
-0.336067
-0.059771
-1.580664
0.255951
0.341682
-2.949940
0.120010
-0.298615
0.033189
0.151803
0.251243
-0.512722
0.262099
-0.683892
0.140239
-0.668021
0.870880
-0.069429
-0.123393
-0.489084
-0.987717
-0.946268
0.205861
-0.287586
-0.097190
0.077680
-0.417756
0.283936
-0.832255
0.037916
0.269435
-0.135481
-0.411792
0.294357
-0.224511
-0.095249
0.559596
0.194495
0.383389
-1.968555
-0.269526
0.362776
-0.019545
-0.426120
0.410348
-0.332579
0.536130
0.122531
0.179299
0.213026
0.335982
0.254891
-0.539976
-0.209168
-0.451389
-0.390619
-0.414465
1.179931
-0.167284
0.012247
-0.383374
-0.588027
-0.679909
-0.190874
-0.440879
0.285843
-0.508897
-0.562704
-5.091843
-0.544173
0.029925
0.350816
-0.353552
-0.507261
-0.494112
0.237334
-0.258533
0.227102
-0.167966
-1.985929
-0.351915
-0.250678
0.338270
-0.204191
-0.548185
-0.499777
0.244446
-0.381344
-0.556487
-0.341531
-0.180703
-0.076546
-0.076767
-0.427714
0.711544
0.063661
-0.554416
-0.706011
0.082769
0.285917
-0.655821
-0.404946
-0.143396
0.011381
-0.868875
0.078864
0.356684
-0.008127
-0.458999
-0.514247
0.075252
0.616162
-0.173126
-0.005172
0.226096
-0.150497
0.044322
0.136995
0.049465
0.069141
0.303295
-0.225222
-1.046143
-0.192166
-0.343078
-0.530904
-0.773477
-0.322335
-0.563273
0.130240
0.318633
-0.558509
0.184459
-0.108390
0.280633
0.126152
-0.448220
-1.520907
0.053965
0.022807
-0.011089
-0.015706
-0.420661
0.975905
0.194945
-0.465213
-0.170092
-0.024856
-0.388801
-0.539320
-0.374409
-0.111200
-0.981561
-0.219200
-0.115059
-0.282594
-0.168539
-0.510801
0.042516
-0.150765
-0.382767
0.054297
0.327824
-1.024631
0.415373
-0.266028
-0.540345
-0.452278
0.249630
0.578205
-0.052700
-4.444298
-0.330455
-0.662464
-0.217557
-0.635004
0.457971
0.277238
0.072828
0.466849
-0.229009
0.566121
0.365211
-0.119616
-0.389106
-0.168542
-0.242573
0.138329
0.331814
0.381250
-5.672187
-0.482063
0.398325
0.008013
-0.396224
-0.098308
-0.302828
-0.198528
0.031457
0.339042
-0.111539
-1.174310
-0.417923
-0.597007
-0.438698
-0.023864
0.130160
0.425418
-0.218591
0.063782
-0.751619
-0.371331
-0.494689
0.054135
-0.396437
0.120433
-0.967560
-2.045143
-0.198094
0.380020
-0.096159
-0.015326
0.057282
0.390160
-0.343165
-0.229957
-0.076366
-0.432504
-0.978512
-0.514078
0.262285
0.338145
-0.500695
-1.481622
-0.132062
-0.358087
0.007168
-0.981801
-0.538577
0.345828
0.176571
0.125659
-0.693600
-0.299711
-0.229894
-0.260340
0.125346
0.286515
0.276752
-0.485881
0.440686
-0.296362
0.118273
0.898059
0.096299
0.293341
-0.198933
0.173331
-0.898148
-0.233447
0.228944
-0.014114
-0.313996
0.468221
0.384821
-0.404889
-0.308560
-0.050761
0.443010
-0.090579
-1.664389
0.047452
1.266475
0.013483
0.057927
-0.417744
0.137125
-2.374870
0.252653
0.178008
-0.248984
-0.311588
0.231480
-0.069328
-0.203421
-0.081798
0.467131
-0.218161
-0.963271
0.435640
-0.212417
0.459310
0.637933
0.195335
0.285866
-0.253021
0.113564
0.203194
0.450314
-0.009171
-0.425610
-0.239056
1.072990
0.550609
0.208682
-0.406159
-0.252735
-0.022612
0.170006
0.188891
-0.410348
0.793088
0.488882
0.737728
0.523904
0.200339
0.347226
0.271736
-0.789279
-0.232459
0.295186
-0.222325
-0.414908
-0.016018
-2.722437
0.305307
-0.005088
0.155126
-0.464136
0.362828
-0.418156
-0.034662
0.558028
0.482027
0.079707
-0.178129
0.408480
0.261227
-0.387390
0.386593
0.125240
-0.322078
0.435310
0.048378
-0.398606
0.393469
0.407019
-0.192587
0.253015
0.128237
-0.096652
-0.017543
0.331269
1.475484
0.393897
0.673475
-0.597623
0.306411
-1.174248
-0.419975
-0.333983
-0.009520
0.278140
0.095779
-0.025999
0.467186
-0.268999
0.675080
0.193719
-0.222133
-1.334125
-0.277835
-0.151359
0.791403
0.204799
-0.115709
-0.111450
-0.419563
-0.198190
-0.424179
-0.318191
-0.430575
-0.564485
0.456234
0.032332
-0.193142
0.273854
0.234802
0.218609
-0.317510
0.022653
0.772259
0.107226
-1.091769
-0.553213
0.070322
-0.062063
-0.316010
-0.870285
-0.285166
-0.111085
0.177172
0.064920
0.289417
0.268681
-0.296025
-0.392036
0.392862
0.184060
0.168180
-0.398437
0.267887
0.173953
-0.324478
0.264102
-0.361551
0.283295
0.013593
-0.505743
0.070312
0.088958
-0.235583
-0.450156
-0.369865
-0.391195
0.142132
0.240847
-1.481168
0.104313
-0.141471
-0.472413
0.096427
0.840248
-0.380628
0.715172
0.141582
0.592235
0.432984
0.044286
-0.271552
-0.293156
0.080105
-0.165533
0.519535
0.542714
0.532825
-2.330028
0.305056
-0.401631
0.383737
-0.027228
0.462506
-0.695760
0.219947
0.527202
-0.466987
0.681424
0.272301
0.364628
-0.880595
0.028873
0.496273
0.047778
-0.351961
0.127094
-0.774352
0.594136
-0.103854
1.845361
-0.289924
0.357410
-0.156290
0.936687
0.151743
-0.227491
0.201406
-0.407195
-0.174531
0.301393
-0.033646
-0.588429
0.291285
-0.163803
1.194078
-0.225418
-0.175427
-0.430818
-0.078069
-0.254304
-0.552880
0.424619
0.208825
0.296350
0.564603
0.421820
-0.140056
0.443929
0.082875
-0.422106
-0.644595
0.216019
-0.018397
0.299963
0.533299
0.041742
-0.892826
0.995974
0.009819
-0.210026
0.091158
-0.189394
-0.183513
-0.856505
-0.233374
0.038707
-0.013591
0.040420
-0.680348
0.342596
0.166061
-0.423655
0.064857
-0.190858
0.309194
0.503035
-0.204673
-2.199825
-0.773508
0.705619
0.227996
0.491379
-0.062131
-1.459255
-0.149364
0.195940
0.119694
0.251538
0.245798
-1.644572
0.369135
-0.026808
0.773134
-0.339582
0.458038
0.572581
-0.095395
0.867688
-0.279003
0.319458
-0.064894
-0.173641
0.862985
0.291282
0.505417
-0.015028
0.267919
0.259315
0.061967
0.021249
-0.046772
-0.236436
1.435187
0.235471
-0.118980
0.422439
-0.292382
0.474316
-2.216207
0.499540
0.933072
-0.035237
0.571763
-1.951017
-0.441346
2.693960
-0.229193
0.476989
-0.313474
0.431442
0.101648
-0.733927
-0.268934
-0.193332
-0.406799
3.053284
0.237172
0.322086
0.326513
-0.227260
1.250351
0.417489
0.357056
-0.360901
0.126562
0.364528
-0.281981
0.487394
0.449532
0.220303
0.460535
0.356559
-0.341333
0.490953
0.400379
0.231051
0.144542
-0.113852
0.181641
0.317205
-2.061622
-0.241936
-0.265327
-0.337038
0.010263
-0.692469
-0.035558
-0.352937
0.443806
0.890677
-0.032622
0.466022
-0.058486
0.450885
1.372367
-0.463285
0.289014
0.675428
0.502673
0.075060
0.231432
0.436809
-0.094779
-0.308624
0.907998
-0.734658
0.396028
-0.134728
-0.102410
2.265891
-0.356458
-0.079316
0.458577
-0.288904
0.148446
-0.152348
-0.167183
0.163580
-0.752052
-0.249776
0.893906
0.338848
0.289584
-0.195591
-0.082593
1.248880
1.739487
0.196352
0.043573
0.094273
-0.361820
0.278939
0.004684
0.017002
0.960212
0.319704
0.269805
0.313545
-0.105649
-0.361478
-0.497705
0.181432
0.035281
-0.405046
0.522434
-0.397903
-0.706437
-0.327452
0.294510
0.786760
-0.104083
0.455716
-0.010079
0.522079
0.130098
-0.053081
0.642414
-0.735449
0.292078
0.354896
0.726668
-3.551625
-0.001947
-1.494909
0.232513
-0.151671
-0.410869
0.563874
-0.364525
0.406704
-0.029572
-0.052506
0.061738
-2.178595
-0.051353
-0.461746
-0.403141
0.325587
0.047618
-0.862906
0.069004
0.417593
0.506895
-0.170841
-0.076376
-0.186692
0.889293
-0.099353
-0.089452
0.093181
0.174247
-0.424337
0.493888
-0.905187
-0.280938
-0.518627
0.278862
0.062505
0.104062
0.285313
1.129412
-0.468474
-0.190966
0.477122
0.644213
0.576090
-0.147807
-0.204360
0.315949
0.493708
0.487943
0.579226
0.264606
0.218068
-0.197479
-0.293187
3.382192
0.385663
0.081061
0.005856
0.228119
0.107206
-0.061609
-0.315329
-0.466918
0.581725
0.985509
0.196920
-0.333867
0.440545
0.308333
0.098621
2.014567
2.575200
0.133602
0.436841
0.740805
0.899001
0.495286
0.451208
0.205049
1.203038
-0.108967
-0.054994
0.424978
0.167155
0.165641
0.117903
-0.805580
-0.279696
0.480632
0.494436
0.868319
-1.188952
-0.973996
0.693600
0.497279
-0.075960
-0.043247
-0.356736
-1.933009
-0.301391
0.192133
-0.222828
-0.356492
-0.104930
-0.460679
0.015772
0.788714
-0.351514
0.540826
-0.931905
0.527772
0.255193
-0.812851
0.207725
0.752762
0.222393
-1.425801
0.046238
0.524186
0.560524
-0.027695
0.114579
-0.115222
0.269209
-0.108184
-0.186311
0.167785
0.358890
-0.117666
-0.397624
0.301059
0.506098
-0.088115
0.533103
0.308639
-0.085609
0.374915
1.052482
-0.369966
-0.648730
0.236843
-0.046090
0.563975
0.293514
0.485024
-1.231413
-0.052382
0.375573
0.017118
-1.259475
0.556316
0.423628
0.543660
-0.127275
0.101888
-0.425039
1.414439
-0.353327
0.365481
0.432009
-0.166065
0.289132
0.466360
-0.120259
0.253866
0.437074
0.225763
0.058673
0.465654
-0.348098
-0.401564
0.265463
0.037443
-0.414959
0.587323
-0.046657
0.774326
0.022045
-0.050865
0.451454
0.312290
-0.468939
-0.125923
0.068320
0.241437
0.148599
0.154285
-0.208888
0.555396
-0.035684
-0.345248
-0.839861
-0.327840
0.456122
-0.318764
0.357656
0.324827
0.235510
-0.268524
0.450936
0.319043
-0.240724
-0.212128
-0.350674
-0.215051
0.078857
0.253072
-0.215925
-0.250909
0.205616
0.234524
-0.395468
0.109688
0.540232
0.466589
-0.467683
0.407798
-0.446635
-0.210806
-1.147848
-0.311883
-0.220067
0.133707
0.256591
-0.207485
0.449370
0.045878
0.548973
0.263783
-0.130228
0.202716
-0.132816
0.477990
0.418290
-0.575487
-0.385795
-0.067294
-0.308346
0.111354
-0.172189
-0.814300
0.496066
0.149591
-0.165213
0.467314
-0.234922
0.351962
0.621849
-2.380085
0.308617
0.071708
1.028798
-0.685061
0.233238
0.258010
0.644490
0.015881
-0.495727
-0.052357
0.492294
-0.233970
0.465631
-0.208891
0.184249
0.337957
0.309673
0.230084
-2.633283
0.443180
0.545492
0.245810
0.541794
0.419323
-0.901617
0.004701
0.318883
0.134708
0.784283
-0.636291
0.423394
1.607155
0.393055
0.405938
0.311829
0.009324
0.076704
-0.319514
-0.193479
0.224978
0.190627
0.187545
0.012235
-0.190253
0.792291
-0.226001
-0.395746
0.151589
0.289197
-0.188227
0.420772
0.212454
0.461204
0.079767
0.086260
-0.418657
-0.019367
-0.186079
0.109358
0.352439
0.015080
0.609460
0.019258
-0.160234
-0.154997
0.492016
0.159228
0.310287
-0.088266
-0.134663
-0.144860
1.007683
0.235848
0.410129
0.373984
0.534811
0.482215
-0.461616
0.174861
0.168888
0.529839
0.602184
-0.617705
0.353711
-0.681545
0.329192
2.355953
-0.374729
-0.430722
0.426251
0.409341
-0.045003
0.308334
0.253735
0.226394
-0.458083
-0.011879
-0.312526
2.148032
-0.398279
-0.451802
-0.317638
-0.201496
-0.398459
-2.244729
-3.115022
-0.260814
0.424994
0.710267
-0.104503
1.721181
0.834434
-0.668630
0.604094
0.159963
0.063931
-2.059373
0.029381
0.326963
-1.472112
-0.513280
-0.123023
-0.467240
-1.510604
0.253666
0.933938
0.286215
-0.260124
-0.416770
0.068138
-0.537918
0.089666
0.248588
-0.386385
-0.319201
0.270798
-0.151617
-0.248007
0.193880
-0.507938
-0.480860
-0.295216
-0.367670
-0.431806
-0.569177
-0.320207
-0.741599
0.120617
-0.182150
0.062697
-0.301743
-0.263647
-1.177258
-0.270772
0.342893
0.276894
0.059973
0.284328
-0.487691
0.281754
-0.149445
1.122047
0.227371
-2.428875
-1.023938
0.406258
0.366118
0.054589
-0.160897
0.244744
0.331074
-0.143669
0.294835
0.461492
-0.319642
0.342151
0.249961
0.178039
0.059401
-0.434101
-0.314830
0.777444
-0.180287
-0.637046
0.098938
-0.182174
-1.265669
-1.500153
-0.806916
-0.457667
1.787051
-0.051114
-0.604365
0.146068
0.044205
-0.959932
0.014143
-0.091589
0.561921
0.387606
0.464584
0.124794
-0.257975
0.257507
0.100675
0.259584
-0.858999
-0.151276
0.152415
-0.443310
-0.590729
0.389327
0.212101
0.291573
-0.353082
0.094829
-0.482982
-0.323058
-0.039796
-1.181657
-0.282637
-0.839907
0.268514
-0.622696
-0.819034
-0.568256
-0.469085
-0.996623
0.830060
-1.820806
-0.042746
0.003194
0.418724
0.197367
-0.241211
-0.840227
-0.792951
0.354623
0.364299
-0.367880
0.379010
-0.969366
-0.290339
0.119590
-0.496303
0.305224
-0.076050
-1.331806
0.029698
0.170799
-1.120388
0.230322
-0.452211
-0.394747
1.310982
-7.490232
0.412984
0.761970
-0.026668
-0.275041
-0.671162
-0.418751
-0.624379
0.020699
-1.271015
-0.237683
-0.348189
-0.951336
-0.224011
-0.485801
0.279545
0.469953
-0.212616
0.487294
0.198624
-0.731364
0.726677
0.162985
-0.164483
0.367836
-2.140161
0.024612
0.111073
0.154851
-1.394633
-0.417756
0.080014
-1.116555
-0.476768
-0.283316
0.164328
-0.715783
-0.191303
-0.468789
-1.156729
-0.403835
-2.632914
0.024967
0.054075
0.383686
-1.003647
0.504978
0.308709
0.322726
-0.183520
-0.652799
-0.228173
0.154618
-0.094255
0.075530
0.184399
-0.043790
0.790950
-0.370298
-0.289956
-0.232097
0.211139
1.313447
-0.019363
0.232458
-0.428518
-1.605047
-0.028684
-0.190297
-0.278094
0.313959
-0.291323
0.591978
-0.645113
0.455509
-0.040571
-0.584243
-0.194416
-1.099552
-0.021453
-0.000312
0.244778
0.048151
-1.577654
0.476629
-0.515631
0.270597
-0.786234
-0.262312
0.350938
1.128209
0.003678
0.147998
0.208431
2.641349
-0.121456
0.209437
-0.336072
1.360977
3.531837
-0.874754
0.338495
-0.080726
0.003681
-0.630248
-1.742200
-0.792801
0.470447
0.155652
0.841624
0.031962
-1.127759
1.037563
0.089732
0.077386
0.476624
0.279989
0.079760
0.148393
1.207128
-0.783288
0.345278
-0.275199
0.273921
-3.827818
-0.001978
-0.488430
0.361573
0.119654
0.451090
0.336506
0.019441
-0.001592
-0.286516
-0.097288
0.077708
0.044059
0.357119
0.015816
-0.342584
-2.682384
-0.371181
1.542796
0.533476
-0.180312
1.269678
-0.336793
-0.907019
-0.441669
0.073903
-0.193772
-0.315873
-0.423996
-0.618102
0.415879
-0.442255
-0.264003
-4.723593
0.531315
0.314548
0.226438
0.325526
0.109044
-0.121084
0.843329
0.211247
0.414329
-0.001522
-1.102566
-0.135576
-0.002341
0.519863
-0.049053
0.439425
0.511044
0.051005
0.226014
0.436554
-0.205820
0.551910
-0.031839
0.356915
-1.412091
-0.014231
0.076852
-2.045259
0.155511
-1.341738
0.553547
-0.175056
-0.235575
1.441416
-0.072238
0.141068
0.350629
-0.117819
1.029478
0.245974
0.338364
1.102596
-0.455209
-0.090334
-0.097666
-0.046557
-0.193204
0.013681
-0.952915
-1.347767
-0.092061
0.166749
0.190268
0.774946
-0.317434
0.031980
-1.207163
-0.062450
-0.252724
0.565837
0.387428
0.404030
-0.285873
-0.390442
-3.391903
0.295342
-0.194964
-0.617892
-0.373656
-1.216851
0.022022
-0.356482
-0.320586
0.366940
-0.118480
-0.335773
-0.221913
0.146021
1.108290
0.751432
0.094239
0.501256
-0.953279
-0.260930
-1.371165
-0.084619
0.231896
0.527748
0.239741
1.065397
-0.865473
0.155769
0.298610
-0.078643
0.229880
-0.367943
-0.599076
-0.267161
-6.313612
-0.161934
0.287975
0.232764
-0.481267
1.013088
0.241859
-0.739246
-0.521132
-3.448053
-0.076750
0.166959
-1.384171
0.945547
0.125919
0.497598
0.504730
-0.123611
-0.129316
1.638774
0.008262
-0.436832
0.244641
-0.303697
0.252497
-2.605901
-0.020424
-0.066767
0.236318
-0.595967
-0.833493
0.166531
0.015316
0.419245
0.220222
-0.337044
0.045142
0.098558
-0.342423
3.037248
0.212685
-0.661342
-0.015331
-0.063700
0.242899
-1.530016
-3.385777
0.197533
-0.097613
0.218864
-0.460346
-0.030806
0.315593
0.660154
0.643707
0.042919
0.165039
-1.366354
0.416733
0.099608
0.369676
0.003562
2.445051
0.222712
-0.119489
0.538217
0.507880
-0.333121
-0.041968
0.569018
0.503314
-0.009635
0.675966
-0.022840
0.021300
-0.290428
0.657063
0.395216
0.034374
0.637756
0.119074
-0.312315
-0.198967
-2.136970
-0.450626
-0.486512
0.302847
-2.297990
0.095635
0.246352
1.192812
-0.076985
-0.422280
0.392022
-1.169537
-0.084064
0.251496
0.343679
0.121857
-0.297604
-0.687998
0.198282
-0.246640
0.347328
-0.545948
-0.987541
-3.008140
-0.214927
0.059549
1.257312
-0.489870
0.106032
-0.801507
-0.299845
-0.457334
-0.511001
0.282501
-2.119382
-0.339302
0.153152
0.594079
0.631854
0.108109
0.332151
-1.251305
0.277697
1.879282
0.070298
0.139911
0.331515
0.256066
-0.096709
-0.128803
-0.472038
0.191725
-0.286980
0.278862
0.412941
-0.461832
-0.143053
0.475302
0.077107
0.551888
0.268466
-0.289205
-0.333447
-0.050495
-0.241026
0.417118
0.455234
-0.249668
0.171418
0.368676
-3.795808
0.022235
-0.412826
0.279747
0.030314
-0.228888
-0.059892
-0.167296
-0.454285
0.210682
-0.502848
-2.478878
-0.114170
-0.271293
0.389610
-0.150782
0.256930
-0.310186
-0.385896
-0.147427
0.222413
0.401105
-0.269231
0.038625
0.195642
-0.119481
0.247198
0.169412
0.223100
-2.993829
0.051426
0.501643
-0.106902
-0.247760
0.379775
-1.456768
-0.572839
0.412190
0.167273
0.106139
-0.037946
-0.283112
0.216886
1.122725
-0.013966
0.125032
-0.298242
-0.260404
0.408659
0.006311
0.110704
0.149608
-0.266924
-1.675863
-1.254302
0.447254
-0.005679
0.199583
-0.626617
-0.337757
0.382482
-0.287136
0.334129
0.106152
-0.372712
-0.193789
-0.344250
-0.322771
-0.263064
-3.380929
0.132412
0.140396
-0.183696
-0.204069
-1.403801
-1.386304
-2.030510
-0.013108
-0.148292
0.467222
-0.439907
0.480948
0.135365
0.381088
-0.021408
0.360670
-0.222506
-0.076735
0.073456
-0.788217
0.288387
-0.020194
-0.345070
-0.180023
-0.532024
-0.640257
0.465798
-0.221220
-0.346240
-0.282209
0.172802
-0.462818
-0.228000
-4.861536
0.298871
-0.109478
0.157216
0.303334
0.149619
0.025665
0.660884
-0.136062
-1.089669
0.127951
0.118214
-0.560139
-0.003168
0.414243
0.023518
0.473621
0.364010
-0.169560
-1.860980
-0.435058
-1.127638
0.135497
0.205514
0.474360
-1.933724
-0.071746
-0.285835
0.281879
0.366248
-0.202516
0.404429
2.273915
0.129283
-0.162675
0.024040
0.141725
-0.359536
-0.491346
-0.442094
0.443087
-0.375251
0.300422
0.359282
-0.203774
0.212622
-0.292770
-0.290489
0.115747
0.250025
0.237292
0.079174
0.258588
-0.168537
0.049206
0.302833
-0.123354
0.217275
-0.515815
0.405435
0.191700
-0.349218
3.324357
-0.141693
0.298601
-0.246804
0.771620
0.174299
-0.156741
0.022552
0.312252
-0.745440
-0.869683
0.118170
-0.317586
0.039877
0.424760
0.124283
-0.396638
0.378424
-0.201334
0.144212
0.899398
-1.559327
-0.444843
-0.623771
0.417704
0.787474
-0.472942
0.436116
-0.436542
0.237293
-0.313015
-0.254906
2.892223
0.504122
-0.052110
-0.369203
-0.920458
2.044185
-0.269408
0.683748
-0.366897
0.203696
-1.615545
-0.804180
-0.545282
0.229402
0.454587
-0.471749
0.323598
-0.740846
0.908391
0.196061
-0.434989
0.358353
0.246637
-1.577487
-0.246165
1.434720
1.401588
0.149064
0.107330
-0.006619
1.325167
0.180731
-0.858326
-0.391142
0.232821
0.551189
0.339837
-0.108985
0.070365
0.394233
0.297491
0.217643
-0.350422
0.405970
-0.144042
0.525458
0.259386
0.563736
1.386117
0.155128
0.173688
-0.206833
0.171428
-0.260203
-0.410936
0.109903
0.428562
-0.104562
-0.401972
-0.747166
0.310134
0.726854
0.501041
-0.929218
0.295603
0.154053
-0.725534
0.056733
0.060371
0.060203
-2.803677
-0.138114
-0.300860
-0.056869
0.084869
-0.028888
-0.364403
0.531100
-0.043858
0.101611
0.107522
0.200699
-0.255466
0.463590
0.560875
0.006006
-0.005214
0.242550
1.003801
0.020562
-0.130907
-0.730541
-0.292693
0.817119
-0.846510
1.167647
0.226515
0.594584
-0.097770
-0.198223
0.385944
0.195783
0.492074
0.483528
0.560208
0.675487
-0.101217
-0.128615
0.279884
0.276218
0.394289
-0.350416
2.878259
-0.531181
0.534467
0.104223
-0.263699
0.222822
-0.063754
0.229238
0.680693
0.087477
0.453603
1.477675
0.159939
-0.250514
0.153436
-0.192252
-1.177344
-0.128865
0.603192
0.118738
0.256906
0.288414
-0.751865
0.820219
0.946569
0.130211
-0.418719
-0.299698
-0.172277
0.396863
0.153285
1.199661
0.378273
-0.273060
-0.215320
0.540231
-0.014083
0.254127
0.186399
-0.087523
-0.677812
1.471441
-0.268025
0.344130
0.232074
-0.505453
0.573419
-0.271406
-0.951976
-0.548245
-0.426000
0.482279
0.102768
0.369654
0.735756
-0.268668
0.504360
0.613132
-0.175206
-1.041534
0.227859
-0.061240
-0.847526
0.571207
0.086993
0.174546
-0.230368
-0.392933
-0.150033
-0.092163
-0.041875
0.680499
-0.160809
0.217386
-0.200418
-1.003131
0.280764
-0.205954
-0.118290
0.368992
1.916011
0.116813
2.572616
-0.262915
-0.198113
-0.027018
-0.356523
0.038465
0.125832
-0.422015
0.524059
-1.471267
0.310703
-0.198260
0.256988
0.597615
0.068355
0.291989
-0.152649
-0.330882
0.223782
-0.002971
0.124570
0.960562
0.003134
0.486453
0.681646
1.114202
0.560785
0.546772
0.426972
0.252711
0.091714
0.207779
0.411089
0.398762
0.183935
-0.384544
-0.232183
-0.346376
-0.105673
0.715090
-0.333672
-0.327818
-0.063519
-0.264830
0.113011
-0.229462
1.031484
1.394468
-0.322165
0.272200
1.522989
-0.499211
0.221230
1.295969
0.158645
0.777655
0.099097
0.147901
0.153707
-0.052637
-0.230823
-0.466479
1.000352
-0.398441
0.262873
-0.445766
-0.587511
-0.327264
-0.976751
0.530505
-0.413553
0.069463
0.087559
-0.676364
-0.720451
-0.429233
0.121145
0.039434
0.215880
-0.662137
-0.171081
0.199441
0.322149
-0.415769
0.048011
-1.573685
0.110358
-0.321751
-0.052743
-0.287025
0.038216
-0.420345
-0.906943
-0.065213
-1.031345
0.334632
-0.044136
-0.247550
0.253459
0.126545
0.255344
0.306749
-0.508364
-0.078434
-0.282188
0.232919
-0.195630
0.305801
-0.275073
-0.357837
1.130687
0.356527
-0.442133
0.869117
0.257471
-0.934037
0.078113
-0.015198
0.157757
-0.111446
0.061442
-2.966544
-0.064910
-0.003282
-0.036944
-1.373495
-0.070570
0.385996
0.329892
-0.350268
-0.022393
0.003926
-0.104919
-0.327422
0.392334
-0.392021
-0.472299
-0.183765
0.428524
-0.011599
-0.074758
0.008592
-0.188229
-0.056533
0.305086
-0.313785
-0.410904
-0.125529
0.137860
0.182094
-0.463038
-0.339100
0.354693
-0.912290
0.255698
-0.341046
1.583851
-0.394476
0.525167
-0.394053
-0.231454
-0.107649
0.331894
-0.341288
0.364009
0.201599
-0.266465
-1.223674
0.474150
-0.418999
0.336019
-0.133765
0.056437
-0.029596
0.161682
-0.346918
0.123462
0.388759
0.145251
-0.309947
0.069298
-0.182430
-0.118658
-0.221662
-0.108178
-0.884474
-0.082490
0.482908
-0.249677
-0.090480
-0.803468
-0.124516
0.008243
-0.782976
-0.077594
-0.689661
-0.521563
-1.012641
-0.929204
0.208522
0.306430
-0.243196
-0.458400
-0.170290
0.261968
0.082334
0.124919
-0.215643
0.126139
-0.262248
-0.890381
-0.266994
0.021427
0.302118
0.134780
0.952129
-0.066623
0.362541
0.329844
0.668010
-0.257823
-0.392437
0.160565
0.613218
-5.546437
0.436063
-0.432656
0.682330
-0.151568
0.092834
-0.059284
0.014833
0.081916
-0.363988
0.318811
-0.251251
-0.725189
-0.136312
-0.000051
-0.425984
0.026937
0.446159
-0.226135
-0.891257
0.388529
0.101454
0.399699
0.029339
0.048280
0.081346
0.007735
0.254028
0.294025
0.201231
-0.298658
0.384100
-0.938602
0.424474
0.269336
-0.083168
-0.516431
-0.170063
0.121883
1.068598
0.398981
0.138878
0.525813
-0.223582
0.306525
-0.083650
1.003389
-0.154656
-0.094393
0.057699
-0.281801
-0.260240
-0.256561
-0.370845
0.149771
0.148445
0.199371
-0.796481
-0.020567
-0.062906
0.410801
-0.395286
-0.025950
0.166141
0.496031
0.562062
0.230682
-0.281598
-0.179004
0.477847
0.512050
-0.493548
0.194277
0.388938
-0.070205
-0.408088
0.248168
0.223076
-0.325316
0.037469
-0.317835
0.108260
0.112409
-1.525143
0.186445
-0.442686
-0.326141
0.303761
-0.049729
0.132877
0.359088
-0.172085
0.201286
-0.441285
0.049149
0.164161
-0.450226
0.487152
-0.124840
-0.907741
0.314487
1.099397
-0.008723
-0.425230
-0.238013
-0.671041
-1.535601
-0.308744
0.068388
-0.528573
0.423370
1.097920
0.149640
0.028765
-0.400049
0.187533
-0.298888
-1.997912
-0.455321
-0.346468
0.955910
0.324840
0.364362
0.074918
1.366165
0.340726
-0.653741
0.328751
0.285127
0.487669
-0.376386
0.353287
0.310259
0.072141
0.261500
-0.004149
-0.082693
0.153689
-0.309763
0.442945
0.453038
0.059362
-0.360533
-0.438426
-0.082546
-0.961443
-0.144654
-0.073889
-0.393800
0.208284
-0.440343
0.479850
-0.030852
-2.158573
0.011999
-0.682691
0.230943
1.326308
0.536274
-0.029758
0.070103
-0.382862
0.672660
-0.145010
-1.176165
-0.178769
0.308091
0.521085
0.035451
-0.100482
0.381822
-0.382317
0.416129
0.052126
-0.363494
-0.602170
-0.171077
0.300112
0.140629
-0.132574
-0.034354
-0.113859
-1.182528
0.394192
0.285402
0.519420
-0.398285
-0.258080
-1.401058
-1.077950
0.157281
0.459240
-0.330374
0.069084
-0.183175
0.273404
0.389596
-0.406652
0.251739
-2.822846
-0.061067
0.130267
-0.019187
-0.187689
-0.360357
-0.273550
-0.289826
-0.367864
0.483811
-0.433363
0.275439
-0.602615
0.181422
-0.437857
0.214125
-0.316654
0.318096
-1.142649
-0.129615
-0.303125
-1.036194
0.484916
-1.128976
0.066030
-0.352745
-0.269984
-0.370116
-1.109974
-0.118525
-0.676512
0.068552
0.368382
0.023638
0.088020
-0.362057
0.120530
0.636104
-0.038849
0.503596
0.212781
0.075999
0.236396
-0.971843
-0.273490
0.255677
-0.207863
-0.155110
0.249547
-0.262052
0.194740
0.185147
0.268126
0.135546
0.301107
-0.207627
-0.695472
-1.098376
0.031463
-0.066980
-0.677536
0.047289
0.645681
-0.627683
-0.100160
0.111117
0.304037
0.109868
-0.220305
-0.616891
-0.346753
0.449726
0.107702
-0.362120
0.483714
0.291462
-0.980523
-0.427644
-1.180967
-0.173111
0.256365
0.267807
-0.287324
0.107452
-0.138038
0.217364
0.260724
-0.580516
0.388223
0.713413
0.436405
-0.033937
0.282577
0.077516
0.369533
-0.256696
-0.050593
-0.131804
-1.322955
0.144031
-0.112294
-0.012107
0.351160
0.220591
-0.013503
-0.008030
0.201724
-0.287140
0.224966
0.274790
0.051965
-0.121474
-0.043084
0.099277
0.493797
0.319059
-0.176782
0.330152
-0.294666
-1.151041
-0.312104
-0.401012
0.077285
0.537319
0.455361
-0.081214
0.054233
-0.242851
-0.620081
-0.516470
0.222576
-0.410458
0.519210
0.057797
0.500847
-0.813436
1.451217
0.050268
0.407813
0.666130
-0.609136
0.052472
-0.551675
0.347914
-0.740841
0.290047
0.127535
-1.450521
0.077448
0.200057
-0.044484
-0.570559
0.256295
-0.495231
0.020818
0.444661
-2.012851
-0.651634
1.433051
-0.417713
0.041653
0.061975
-1.283022
-1.249350
-0.282953
-0.413867
-0.435391
-0.496193
1.575392
0.835132
-0.159241
0.226908
-0.092119
-0.149617
0.735457
0.000987
-0.290475
-0.160241
0.852871
0.280196
-0.319082
-0.435019
-0.187778
-0.781975
-0.077155
0.377038
0.201792
0.347648
0.904970
0.217305
-0.526066
-0.238326
0.051965
-0.352988
-0.426112
0.114973
-0.222856
-1.180705
0.396671
-0.650474
-0.406860
0.055676
-0.276501
-0.337665
-0.066393
-0.483083
-0.409995
-0.501814
-0.002271
-0.484720
-1.680140
0.222695
-0.154236
-0.469016
0.312071
0.393483
0.451820
0.708293
0.285130
0.741195
-0.286067
-2.107974
0.106798
0.309897
-0.505926
0.153346
0.160368
-0.014790
0.295833
0.101037
-0.117482
0.432971
-0.347751
0.044044
0.021989
-0.492332
0.065955
0.155992
-0.601271
-0.900041
0.208556
0.629847
0.117229
-0.320805
0.361679
-0.888296
-0.528177
0.339016
-0.389009
0.445805
0.351973
-0.006728
0.292867
-0.351642
-0.129027
0.330940
-1.134073
-0.448466
-0.309844
0.476800
0.196570
0.116672
0.297073
-1.025075
-0.427963
-0.136940
0.399397
0.353673
-0.501626
-0.506750
-0.455591
0.546567
0.305663
-0.498161
-0.995110
0.192859
0.251172
-1.484705
0.075873
-1.574587
-0.085337
-0.239271
-0.169328
-0.556830
0.406359
-0.774727
2.490313
-0.219099
-0.445520
-0.364765
0.196119
0.295049
0.295906
0.978511
0.275541
-0.455381
0.444250
0.003281
0.438229
-0.842863
0.167422
-0.469301
0.410902
0.791667
-1.515745
-0.584007
-0.246059
0.371707
-0.431650
0.372977
0.446217
0.698773
1.218200
-2.078156
0.040586
-0.222364
-0.163726
-0.176716
0.027883
-0.260825
0.173083
0.360747
-0.048316
0.046902
-0.104794
-0.518003
0.174769
-0.116546
0.403419
0.079711
-0.021248
0.114839
-2.457174
-0.246472
-0.708524
0.320557
-0.028828
-0.026140
-0.403384
0.252517
-0.108330
0.214683
-0.040963
0.250748
-0.217139
1.750934
-0.476312
0.387804
-0.118791
-0.322837
0.091225
-0.372212
-0.420146
-0.366306
-0.656815
-0.061194
-0.092935
-0.223670
0.253280
-0.925594
0.398784
-0.110991
-0.486807
0.151805
0.973903
-0.266887
-0.073627
-0.071528
0.225629
-0.586473
-0.644253
-0.313360
0.376898
-0.010518
-0.487555
-0.364764
-0.114975
-0.419868
-0.333409
0.728003
-0.234276
0.270784
0.778370
-0.204312
0.424488
1.125835
0.010779
-0.100586
0.447575
0.710251
0.303003
-0.157759
0.078034
0.285247
0.034058
-0.249779
-0.196130
-0.504556
0.032710
0.427041
-0.093822
0.194573
-0.329167
0.352229
-0.271947
-0.228806
-0.082798
-1.847299
-0.104675
0.096761
0.068379
0.898531
-0.089233
-0.216051
-1.035647
-0.095982
-0.270007
-0.021867
0.736369
-0.575910
0.163314
0.189197
-1.298901
0.373648
-1.580265
-0.892779
0.977762
0.081336
0.272646
-0.073667
0.117398
0.508122
-0.234459
0.765377
-0.323753
-0.171786
-0.304936
-1.246158
-0.361969
-2.427326
-0.347687
0.193337
-0.215592
0.050784
-0.332285
-0.194098
0.441730
-0.535581
-0.304030
0.276088
0.158332
0.403921
-0.047788
-1.457122
0.130917
-0.199438
0.020537
-0.022409
-0.410718
-0.633448
-0.343107
0.000640
-0.224840
-0.406781
-0.075538
-0.072662
-0.386113
0.106501
-0.234359
0.137857
-1.675669
-0.378623
-0.177673
-0.205281
0.159089
0.157536
0.228450
2.738001
1.304767
0.411348
-0.149238
0.196754
0.222026
0.149374
-0.082372
-0.160130
0.304125
0.425093
0.308613
0.069500
-0.307869
0.283240
-0.541519
-0.045781
0.302950
0.805975
0.367730
-0.044574
-0.816162
0.336793
0.438671
-1.892535
0.179588
-0.194339
-0.407515
0.091114
0.355269
-0.151133
-0.334212
0.158721
-0.244609
0.003477
-1.440996
0.456096
-0.219693
-0.801081
-0.217106
-0.428641
0.244581
-1.880559
-0.125302
0.423640
0.394915
0.171783
-0.563718
0.245231
-0.372784
-0.330802
-0.400424
-0.323923
-0.667789
-0.417089
-0.117390
1.099584
-0.124500
1.076965
-0.226491
-0.229695
0.249563
0.141872
-2.258419
-0.338390
-1.069963
0.830478
0.015917
-0.036414
-0.266613
0.285740
0.021874
0.680616
0.572833
-0.363411
0.375464
0.125607
0.307688
-0.635262
0.011416
0.409443
-0.066450
-0.116099
-0.768719
-0.238443
0.167758
-0.058014
-0.139982
-0.459870
-0.068059
0.155018
-0.542244
1.904970
0.158794
-0.282950
0.257606
0.375858
0.063605
0.203895
1.446708
0.307392
-0.453925
0.279730
0.277221
-0.187653
0.492722
0.139612
-0.256447
0.207133
0.353718
0.241897
-1.821995
0.046258
-0.334797
0.174898
0.224396
0.481431
-1.679681
-0.362547
0.498544
0.029121
-0.183056
-0.909803
-0.244719
0.388511
-0.104978
0.059721
0.065023
0.544734
-0.132994
0.108360
0.967311
0.446959
-0.094009
0.063505
-0.089402
0.044689
-0.162828
-2.929394
-0.340990
-0.469310
-0.129442
0.403653
-0.615874
0.184231
0.086016
0.529141
0.267445
0.264666
-0.993351
0.138061
-0.444699
-0.294885
0.328825
-0.664083
0.428065
-0.289225
0.369063
-0.290901
-0.315281
-0.301907
-0.131556
0.450827
-0.134081
1.143703
0.030295
0.030160
-0.037119
0.140977
-0.334858
-0.228719
0.328446
0.061513
0.004669
0.986718
-0.911013
0.470586
-0.007497
0.326983
0.547554
-0.399967
-0.046618
-0.559807
-0.207924
-0.138791
0.435377
0.228378
0.058912
0.266463
0.267496
0.232769
1.221064
1.144324
0.679060
0.570391
0.482030
-0.128738
0.686392
2.734655
0.392012
0.233229
-0.092917
0.038690
-1.247137
0.341550
-0.186556
0.470944
0.058502
0.039081
-2.995038
0.560655
0.506968
-0.326564
-0.331186
0.618275
0.418322
-0.613400
0.599042
0.551435
0.593763
0.259981
0.498490
0.438690
0.006613
0.047714
0.402524
-0.043167
0.167004
-0.116554
0.424219
0.235849
0.510118
1.388899
0.421367
-0.208860
-0.078515
-0.184838
0.347091
0.745936
0.306295
0.062542
0.327529
-0.166244
-0.380351
-0.189162
-0.879805
0.431420
0.986914
-0.373235
-0.894412
0.140516
0.278155
1.173019
-0.027350
0.469634
0.053781
-1.018378
0.098246
-0.385772
0.045507
-0.041741
-0.049629
0.141241
0.019400
-0.234818
-0.017462
0.334328
-0.199301
0.320310
0.101202
-0.251916
-0.206595
-0.177826
0.048470
0.439494
0.041626
-0.101215
0.010519
0.588379
-0.464008
-0.301594
1.009487
-0.309256
0.220132
0.488431
-0.121366
0.127585
-0.349509
-0.845598
0.093728
0.089441
1.730916
0.479071
0.431952
0.052023
-0.362304
-0.192067
0.482760
2.113536
0.652157
-0.022595
0.213037
-0.308576
0.488858
0.581764
-0.125740
-0.617000
-0.023821
-0.118042
0.559507
0.388767
-0.021359
-0.562534
0.472955
-0.249118
0.032300
0.108450
0.571939
0.215176
0.596487
-0.889616
2.508879
0.025868
-0.025314
0.359782
-0.131222
0.005825
0.561158
-0.730603
-0.822916
0.476288
0.115830
0.061011
0.558525
0.378759
0.052464
-0.171142
-0.276170
1.011918
0.960351
0.304313
0.204297
0.476343
0.096546
0.071520
-0.077769
0.293096
1.637360
1.320355
0.092280
0.049489
1.144638
-0.207406
-0.687853
0.369721
-0.403340
0.035508
0.240374
-0.132426
0.198287
0.312493
0.802955
-0.292440
0.487080
0.552264
-0.196702
-0.067013
-1.615081
-0.153636
0.846883
0.181489
0.041511
0.346257
0.884982
-0.319033
-0.189605
0.447415
-0.646311
1.434407
-0.259682
-0.081634
0.586784
0.518523
-0.378980
-0.504080
-0.335143
0.405644
0.513259
0.210459
-1.851605
-0.177097
-0.378879
-0.099716
0.597349
1.193696
-0.262499
0.120648
-0.172765
-0.135499
0.888932
-0.030805
-0.053326
-0.153423
-0.210378
-0.094357
1.004295
-0.087267
0.066378
0.058903
-0.184335
0.507176
-0.340186
-0.204108
0.097662
-0.275012
-0.032786
0.170406
-0.367679
0.528556
0.489081
1.088925
-0.487821
-0.211967
0.451862
-0.396476
-0.323603
0.271722
-0.010541
-0.118596
0.098739
0.809080
1.615741
0.171892
0.737832
0.367936
0.845925
0.067620
-0.348580
0.014702
0.519967
-0.194593
-0.243867
0.194563
-0.005257
0.261682
-0.436869
0.687347
-3.117408
-0.748792
0.625036
-0.006717
0.372894
-0.458540
0.017880
-1.045710
0.063779
0.250484
0.267367
0.108643
-3.106451
-0.569100
-0.209099
0.101940
0.351232
0.079325
-1.341953
0.525217
0.211533
-0.032230
0.208720
0.717393
0.311525
-1.310205
0.420465
0.111099
0.119351
0.454852
-0.373766
0.416138
0.111173
0.478094
-0.119323
-0.405652
0.429590
0.526693
0.253352
-0.345936
0.248432
-0.123730
0.527586
1.377254
0.275473
0.162749
1.014037
-0.620959
0.129137
0.382321
0.094434
0.516489
-0.111612
-0.277587
-0.876385
-0.328780
-0.479608
0.334520
-1.224784
0.172990
0.259373
-0.030741
0.060385
1.028340
-0.117246
1.117780
0.325866
-0.216399
0.410266
0.321127
0.216920
0.124613
-0.272610
0.215762
-0.132215
0.474120
-0.089312
0.282799
0.043336
-0.382618
0.624987
-0.390973
-0.381330
2.501289
-0.195003
0.878714
-0.858030
-0.141364
0.675065
-1.050687
0.070757
0.053077
0.130228
0.034523
-0.038381
-0.149509
-0.081904
0.418698
0.116351
-0.200382
0.352126
-0.206476
0.400829
-0.223612
0.480542
-0.260130
-0.169288
1.443162
0.727871
0.345305
-0.318282
0.101557
0.850031
-0.241899
0.068883
-0.276149
-0.252715
0.178685
-0.487452
-0.459011
-0.320258
-0.872744
0.065322
0.865403
0.371178
0.489871
-0.071471
0.060677
-0.645849
-0.949994
-0.793940
0.181635
-0.189393
0.043959
0.493154
-0.237596
0.255084
-0.177164
-0.978371
0.220265
-0.388317
-0.282243
-0.204252
-0.150193
0.209071
0.333216
-0.318378
0.298700
0.380477
-0.367924
0.439856
0.134155
-1.011271
-0.019094
0.252888
-0.000424
-0.094463
-1.240000
0.016895
0.194045
-0.116497
-0.524483
0.174473
0.249544
0.077057
0.119940
-0.316306
0.081096
0.265903
-0.121218
-0.291901
0.348842
-0.025060
-0.142566
0.328624
-0.344733
-3.211853
0.682779
0.183582
0.082335
0.137779
0.465246
-1.301533
0.270358
-0.087065
0.687162
0.821265
0.393807
-0.389501
1.686618
0.260173
-0.207793
0.005684
0.143976
0.255777
0.040375
-0.190053
-0.046993
-1.324065
-0.025516
-0.050683
0.089374
0.452855
1.705781
0.466575
-0.405537
0.520952
-0.322557
-0.158389
-0.453659
0.330405
0.327334
0.508195
0.050204
-0.371784
-0.132966
0.248919
-0.245035
-0.300091
-0.386754
0.100624
0.431337
-0.345320
-0.281168
-0.330855
0.321169
-0.245084
0.401982
-0.075037
-0.016866
-0.501497
0.164922
-0.242097
0.268363
0.054220
-0.897878
1.368067
0.009842
-0.330295
1.394904
0.500963
0.279764
-0.467580
-0.005489
1.507580
0.169304
0.316004
-0.185409
0.395525
0.464300
-0.434751
-0.596861
0.366893
-0.369359
-0.023439
-0.416152
1.271041
-0.013012
0.927411
-0.360245
-0.177532
-0.791185
0.190902
-0.487636
0.208416
-0.222204
0.162019
0.027257
1.002522
0.458710
0.232816
-0.006068
0.056965
-0.245609
-0.937498
-0.388970
0.706832
0.119140
-0.012174
0.433951
0.028579
-0.891749
-0.299607
0.194142
0.103001
0.187875
-0.064557
0.036989
0.221377
-0.133450
0.187664
0.042082
-0.046326
-0.025482
-0.266692
-0.542381
0.263235
0.038388
0.024838
0.630102
0.226080
0.263958
0.108696
-0.267251
-0.391513
0.100699
-0.084082
0.189486
-0.335077
0.307754
-3.773898
0.204477
0.129551
0.172878
-0.686696
0.398390
-0.127751
0.088235
-0.053700
0.572592
0.360012
-0.570188
0.080839
-0.175392
0.130324
0.204076
0.011649
-0.078168
0.081950
-0.452592
0.461424
-0.181048
-0.031488
0.312823
0.123840
-0.128832
0.265717
-0.449322
-0.441732
0.253138
0.373707
0.073165
-0.285583
-0.330904
-0.071032
-0.722219
-0.624079
0.112179
0.110365
0.035627
-0.154877
0.387619
0.191433
0.817240
-0.280341
-0.167321
-1.270373
0.245718
0.248080
-0.153913
0.304047
0.220425
-0.122129
0.790941
-0.239682
-0.487368
0.273689
0.479533
-0.788638
0.356185
0.090796
0.493913
-0.088259
0.417458
-0.127567
0.151671
-0.123168
0.023814
-0.225229
-1.055976
0.258485
0.398364
-0.193559
0.154676
-0.758419
-0.110489
1.684508
0.571461
-0.206314
0.079708
0.457856
-0.391345
-0.188945
-0.139464
-0.192763
0.366145
-0.129799
-0.134536
0.351245
-0.134787
-0.337108
-0.041683
-0.074867
0.271149
-0.607500
-0.186389
-0.251853
0.274449
0.091152
0.028864
-0.310192
0.124650
0.064643
-2.292215
-0.412245
0.324806
-0.407453
0.325437
0.158627
0.054534
0.085401
0.135725
-0.074560
0.457806
0.364347
-0.900704
0.257893
-0.254531
-0.195337
0.076574
0.211743
-0.021523
-4.197051
-0.481823
-0.998503
-0.063360
0.233925
-0.165980
-0.710903
0.058623
0.378780
0.073465
-0.336547
-0.045735
0.444156
0.204880
0.213102
-0.493247
-0.301748
-0.256622
-0.126043
0.559949
-0.152769
0.360737
2.088158
0.154993
0.370540
-0.217932
0.725387
0.134754
0.320992
0.134046
0.174597
0.334434
0.710828
0.260470
0.028270
0.133333
-0.330988
0.269861
-0.552884
-0.504888
-0.439189
-0.212932
-0.419931
-1.240701
0.065937
0.304092
-0.434242
0.897671
-0.422965
-0.081561
0.153785
0.344030
-0.098453
-0.121628
0.212619
-0.329367
-0.128780
0.166840
-0.120397
-0.790188
0.235728
-0.483824
-0.311079
1.361541
0.517158
0.080487
0.150405
0.439995
-0.003977
0.070603
0.451838
0.054144
0.368592
-0.378626
-0.105333
-1.223019
0.436387
-0.060851
-0.184164
1.352422
-0.406507
0.490751
0.018660
-0.330471
0.424578
-0.279581
-0.545022
-1.294287
0.427253
0.228757
-0.460049
0.445907
2.310653
0.772593
-0.213660
0.288598
-0.142859
-0.094718
-0.050278
0.079833
0.638652
-0.852956
0.032049
0.385784
0.082338
-0.587491
-0.177311
-0.705434
0.061205
0.065091
-0.103415
-0.143720
-0.431768
-0.304056
-0.047625
-0.469382
0.099755
0.230023
-0.098849
-0.263232
-0.114653
1.500178
-0.106742
-1.225007
0.085908
-0.327294
-0.109168
0.281393
-1.403848
-0.339023
-0.123986
0.006597
0.121877
-0.326683
-2.014572
-0.369155
-0.026387
0.048970
-0.677603
0.286663
0.540393
0.509566
0.569509
0.236145
0.477756
-1.203616
0.075539
0.004077
-0.394961
0.606784
0.371254
0.047772
0.036364
-0.308922
-0.052621
0.548838
-0.420230
0.530906
0.345018
0.398814
-0.315052
-0.352403
-0.410009
0.660309
-0.249001
0.012502
1.223580
-0.023543
0.364292
-2.930834
-0.343110
0.500284
1.177938
-0.314239
-0.315122
0.309991
0.060776
-0.308187
-0.267238
0.092381
-0.885084
0.538453
0.435897
0.075582
-0.343903
-0.190158
0.113566
-0.437725
-0.304785
-0.114851
-0.212936
-0.187673
-0.683905
0.045606
0.405848
0.592005
0.530195
0.056780
0.614511
0.490086
0.136978
-1.185523
0.416936
-1.027181
-0.253335
0.292824
-0.863177
0.236416
-0.708960
-0.566713
0.487641
-0.911700
-0.162012
-0.362771
-0.313491
-0.079349
-0.126363
-0.075026
-0.086690
0.067516
0.538356
0.524785
0.304331
-0.363485
-0.005298
0.138822
0.487676
0.220952
-1.181146
0.236124
-0.131886
0.185712
0.178849
-0.287681
-0.418509
-0.257663
0.090078
-4.437839
0.414289
0.403425
0.275824
-0.826711
-0.523448
0.127653
-0.659174
-0.216230
-0.241079
0.004521
0.460296
0.033796
0.566390
0.425217
0.309695
0.206674
-0.223984
-0.269038
-1.277241
-0.727064
-0.182211
-0.211733
0.570980
0.403670
-1.355380
0.534391
0.541851
0.524491
-0.694831
-0.063819
-0.418479
2.294042
0.239772
0.021449
-0.424097
-0.184693
-0.274070
-0.725386
-1.428794
-0.222371
-0.886844
0.480869
0.565560
-0.011664
0.084009
-0.984618
-0.457753
0.535233
0.458582
-0.359040
-0.099191
-0.005863
0.194852
-0.299989
-0.339957
0.393665
-0.869347
-0.207210
-0.205103
-0.270027
-0.113107
-0.608610
-0.309746
0.553231
0.277057
-0.162117
0.340157
0.403495
-0.254450
0.305561
-0.376155
0.436353
-0.013247
-0.400952
-0.269288
-0.155674
0.335769
-1.252790
0.703327
0.133512
0.025623
0.072222
-0.158971
0.519753
0.187700
-0.116544
0.892301
0.181063
0.084615
0.407769
0.337601
0.390180
0.298444
0.824433
0.369977
-0.023992
-0.452380
0.610094
-0.386661
-0.780275
-0.422896
-0.159677
0.525458
-0.694833
-0.165657
-1.413857
0.080449
-0.380830
-0.201291
0.251429
-0.072335
0.737209
-0.011674
0.273190
0.278939
-0.446738
-1.754369
-0.420974
0.547288
-0.268077
0.120062
-0.409748
-0.001132
-1.701232
-0.193955
-1.898898
0.280339
-0.193679
0.441523
0.539064
-0.079693
-0.248671
-0.167957
-0.537922
-0.141153
0.150636
0.132398
0.284663
0.222461
0.556697
0.325186
0.184427
0.250762
-0.364473
-0.177319
-0.659863
-0.930985
-0.218733
0.014039
0.380052
0.389886
-0.426928
-0.644176
-0.158521
-0.439532
0.017774
-3.374080
-0.395402
0.275445
-0.089672
-0.403682
-0.516708
0.219285
-0.834021
0.203109
0.530788
0.484308
-0.858818
0.367590
0.136131
-0.276983
0.145432
0.544749
0.426435
0.073462
-0.300639
-0.138552
-0.422163
0.135225
0.328143
0.461355
0.718606
0.348070
-0.183143
-0.829281
-0.327671
-0.559822
-2.619820
-0.405199
-0.181808
0.427963
-0.221443
0.078936
-0.257938
0.112229
-0.801474
-0.267140
0.049194
-0.182302
0.545753
-0.338725
-0.196180
0.143841
-0.341320
0.018060
1.321580
-1.394964
0.332164
-0.014335
0.196637
-0.302159
-0.151134
0.425187
-0.416792
-0.077510
-0.052127
-0.192580
0.465237
0.038851
-1.339966
-0.263915
-2.268208
0.383423
0.331815
-0.436781
0.015634
0.016722
-0.728565
0.450656
-0.088065
-0.067082
-0.367207
0.388022
0.529415
-0.255871
-0.126052
-0.340402
0.007483
-0.356442
0.153772
-0.345932
-0.770463
-0.322914
0.534619
-0.424476
-0.016948
0.252975
-0.531904
-0.029876
0.426655
-0.677652
0.161680
0.440939
-0.278522
-0.325098
-3.710064
0.114876
-0.192005
0.139030
-0.146863
0.122973
0.163264
-0.071687
-0.286410
-1.162653
0.432283
0.067775
-1.020338
0.156539
0.163989
-0.377130
-0.061802
-0.174177
-0.247388
-0.584146
-0.173124
0.525316
0.360070
0.373848
-0.319721
-1.878880
-0.433405
0.291801
0.279505
-0.778999
-0.366370
0.188782
0.120307
-0.302690
-0.321455
-0.228960
-0.244947
-0.446118
0.031806
1.414561
0.411289
-1.519101
-0.204863
-0.340830
0.498246
0.361207
-0.510427
-0.166218
-0.309739
-0.060610
0.074106
-0.108640
-0.350454
0.209367
-0.018181
-0.295300
-0.279602
-0.425069
0.526938
0.217245
-0.040543
-0.442402
-0.807517
-0.355896
-0.292437
0.067920
0.038988
0.225902
-0.003578
-0.044567
-0.061980
0.184573
0.042905
0.147391
-0.028381
0.336376
0.339181
0.179037
-0.263936
0.837099
-0.435064
0.398017
-0.227563
-1.061649
-0.116165
-0.237088
-0.112218
-0.791141
0.228720
-0.120400
0.388366
-0.359167
-0.176206
-0.057698
-0.170875
-0.015986
0.384842
0.004214
0.539650
2.294636
0.456995
0.797174
0.146942
0.008726
0.198626
-1.220600
-0.629486
0.271404
0.182270
-0.676288
0.087297
-2.778070
-0.936244
-0.331606
0.936862
0.117979
0.398364
1.043266
-0.414469
-0.327379
-0.946218
-0.098618
0.060728
0.281424
-0.589765
0.363477
-1.719145
0.063111
-0.125818
-0.071994
0.403521
-0.244825
-0.469925
0.056954
-0.083971
-0.255412
0.134662
0.377544
0.366122
-0.176578
-2.047470
-0.100773
-0.774481
0.102830
0.406973
-0.051147
-0.101676
0.261996
0.450040
-0.180677
-0.091211
-0.092327
0.056265
-1.307382
-0.304415
-0.724567
0.457406
-0.685032
0.296670
-0.160851
0.935109
0.206681
1.454792
0.443899
-0.767265
0.767826
-0.305022
0.411279
0.676758
-0.307150
-0.039068
-0.317927
0.098567
-0.237035
0.291395
-0.216267
-0.418102
-0.474814
-0.148188
-0.776023
-0.149000
0.028132
-0.825205
0.406290
0.471619
0.510902
-0.360151
0.599152
-0.844418
0.135096
-0.327302
-0.168987
0.156182
0.165022
-0.486482
0.432799
-0.253343
-0.264875
0.350569
-0.908030
-0.085672
-0.401747
0.140413
-0.480614
-0.132291
-0.084773
-1.701439
-0.094189
-0.053095
0.406943
0.001019
-0.401778
0.180527
0.460102
0.537633
0.049109
0.121260
0.254752
-0.117342
0.262914
1.179330
0.061848
-1.642829
-0.370682
-1.245839
-0.294213
-0.362059
-0.824721
-0.299225
0.153201
-1.682648
-0.005160
-0.123214
0.273854
0.020717
0.250986
0.557132
-1.395982
-0.286425
0.148969
0.064997
0.223623
-0.752401
0.176301
0.187678
-0.316477
0.340135
0.592107
-0.531040
0.121050
-0.415166
0.545732
-0.301550
0.423859
0.416249
0.860805
0.521042
0.276695
-0.156418
0.333010
-1.135995
0.003746
-0.819341
-0.331766
-0.486872
0.440194
-0.306527
-0.297246
0.330707
-0.270213
0.358214
0.470058
-0.356376
-0.175440
0.152850
1.096103
0.241740
0.960954
-0.256830
0.073914
0.018783
-1.662597
-0.045872
0.214663
-0.422930
0.068569
-1.649005
0.470773
3.082929
-0.365936
0.340669
0.160746
-0.496912
-0.288104
-1.306255
1.865925
-0.389668
0.679590
0.077325
-0.408754
0.230753
-0.427766
-4.119441
0.352084
0.273081
0.226997
0.146772
0.081284
0.124730
0.258673
0.329537
-0.311966
-0.504046
-0.865120
0.371157
-0.163235
-0.341814
0.441389
-1.264239
0.263705
-0.418056
-0.345131
-0.345249
-0.050665
-0.120424
0.420868
0.283773
-0.511806
1.393826
-0.077057
0.093998
0.095125
0.707388
0.163569
-1.310070
-0.644504
-0.136457
-0.285873
-0.818338
-2.113424
-0.388026
-0.032834
-0.310652
-0.103996
-0.339480
-0.387461
-0.457206
-0.174803
-0.451385
0.464865
-0.155074
-0.362950
-0.367455
0.066565
-0.111882
2.111885
-0.492755
0.307626
0.521503
0.486746
0.031801
-0.104635
-0.706082
0.199424
-0.203373
-0.247252
-0.098248
-1.685707
-0.418780
-0.546737
0.109168
-0.089723
-0.389869
-0.775905
0.184118
0.080866
0.308855
-0.091473
0.029713
-0.465212
-2.173895
0.210715
0.073670
-0.155870
-0.249967
0.219907
0.335495
0.211664
-0.331195
0.329751
-0.316536
0.416480
-0.075505
0.347345
-0.145490
0.193875
0.440170
0.404724
0.627492
-0.344143
-0.148416
-0.685402
-0.057385
-1.472953
0.500912
-0.304243
-0.004281
0.487037
-0.031230
-2.990678
0.494626
0.058488
0.259483
-1.573541
0.498193
0.483555
0.172348
0.306441
0.438683
0.373937
-2.450367
-0.214633
0.263169
0.506192
-0.099137
-0.174629
0.153756
-0.255406
-0.297152
0.516951
-0.126796
-0.411533
-0.422071
0.384843
0.057118
-0.180892
-0.446648
0.514732
-0.949780
-0.004170
-0.234387
0.891435
-0.350108
0.001594
-1.546977
-0.618169
0.265474
1.289661
0.400032
-0.474544
0.177917
-0.018271
0.527106
-0.082385
-0.039326
0.068276
0.211963
-0.393753
-0.227977
0.387564
-0.404049
-0.016641
-0.812347
-1.182437
-0.159045
0.228728
-0.329021
-0.530199
0.227070
-0.344836
0.385222
0.275466
-0.393273
0.653624
0.057385
-0.356987
0.092927
-0.204389
-1.260984
0.296878
-0.062135
-0.097607
-0.067470
-0.512545
0.159657
-0.727056
-0.140287
0.168971
0.391571
0.344386
0.029287
0.460275
0.251125
0.021274
-0.420340
0.114206
-0.351985
-0.286519
-0.024712
-0.397799
-0.148692
0.262413
0.177794
0.586115
-0.306003
-0.119442
0.046554
0.084431
0.142977
-0.033700
0.071871
0.005761
-5.064296
0.467395
0.513582
1.161967
-0.031230
0.219719
0.151216
0.566377
-0.121464
-1.488186
0.239253
0.035138
-0.299353
0.196688
-0.377904
-0.313731
0.298628
-0.451133
-0.238777
-2.547508
0.249505
-0.169509
0.018977
-0.049361
-0.062294
-1.879083
-0.358928
-0.440620
0.145707
0.123429
0.507671
-0.005941
0.236658
0.166239
-0.039464
-0.105058
-0.574217
-0.431264
0.433728
-0.574234
-0.321024
-0.627661
0.326271
0.463681
-0.417202
0.231218
-1.177596
0.280195
0.442739
-0.144136
0.351634
0.398274
-0.086988
0.050217
-0.265360
0.482402
0.044548
-0.099365
0.355603
0.424234
0.438415
0.284078
1.202953
0.080638
-0.076930
0.370497
0.117027
-0.020444
0.365823
0.566063
0.225160
0.427421
-0.364521
0.021543
0.453171
-0.058312
0.334172
-0.436483
0.091716
0.387389
-0.188682
-0.309008
0.185849
0.642405
0.112347
-0.377566
0.058417
-0.753037
-0.144281
-0.118514
0.137054
-0.233114
-0.365566
-0.196392
0.342052
0.030258
-0.399305
0.232192
0.135481
3.713772
0.718285
1.996271
0.429575
0.470731
0.239287
-0.679291
-0.278800
0.207409
0.376065
-0.352111
-0.483872
-0.903054
-0.241057
-0.806690
1.399526
-0.125686
-0.299833
-1.317834
-0.100941
-0.567830
-1.448826
-0.297581
0.038021
0.467246
-1.869602
0.061306
-0.758298
0.188937
-0.224579
-0.065999
0.110130
0.201486
-0.387520
0.021628
-0.331151
-0.097717
-0.140950
-0.314286
-0.616273
-0.282963
-0.573118
-0.372360
-1.596258
0.064244
-0.486101
0.719944
0.226471
-0.542891
0.339608
-0.198538
0.382999
0.172233
0.104939
-0.178630
0.121588
-0.462727
-0.322675
-1.094934
0.363277
-0.066229
1.141285
-0.044670
1.263078
0.142570
-0.643282
-0.588763
-0.473225
-0.200147
-0.349503
-0.402259
0.329178
-0.471913
-0.292696
0.404942
0.074254
-0.396536
-0.246813
-0.023342
0.233937
-0.480641
0.260043
0.032636
1.135191
-0.153860
-0.207533
0.254960
0.020480
-2.234874
-4.226464
-0.824335
0.288024
1.484218
0.302933
-0.410416
0.012625
0.243736
-1.305945
0.034230
-0.474488
-0.723274
0.100986
0.006248
-0.923780
0.290212
-0.106887
0.422261
-0.918800
-0.305917
-0.119159
0.367570
0.184863
-1.453637
-0.051648
-0.104155
-0.079908
0.144255
0.210338
0.447325
0.498509
-0.410310
-0.970408
0.268456
-1.612982
-0.421853
-0.199518
-0.626653
0.328606
-1.283757
1.471480
0.371756
-2.389480
0.040446
-0.193006
0.093152
-0.187419
0.182029
0.797398
-1.790417
-0.207826
0.360099
-0.220263
0.448125
-0.412852
0.225981
-0.163272
-0.102380
0.886679
0.055750
-0.621250
-0.167410
-0.399399
-1.179090
-0.413503
-0.457731
1.217733
1.778003
-3.780870
-0.023427
0.927403
-0.720799
-0.821497
0.503672
-0.190610
-0.949034
0.008545
-0.982882
-0.205698
-0.460507
-0.248035
-0.385268
0.381515
0.440580
-0.054834
0.328266
0.148484
1.352998
-0.422063
0.945386
0.301339
0.022059
-0.202923
-3.139416
-0.379922
-0.138032
0.360286
0.001774
-1.716879
-0.158153
-0.223896
0.452925
0.241713
0.003000
0.219016
0.163947
-1.778590
-0.227160
0.380685
-0.643537
-0.016420
0.026421
0.249473
-0.857834
-4.561322
-0.411974
-0.342795
-0.421533
0.222125
0.593346
-0.457046
0.003231
0.345609
-0.060078
-0.378181
-0.928443
0.165844
-0.118515
0.220587
0.360678
-2.023881
0.446269
0.295526
-0.080450
-2.091736
0.197481
-0.425239
0.091244
-0.424096
-0.246950
0.857885
-0.216722
-0.055152
-0.059144
0.508016
0.378067
-3.194261
-1.426466
0.305753
0.003561
-0.992888
-0.446710
-0.335568
-1.088317
-0.236026
-1.766668
-0.327381
0.424221
-1.394207
0.375129
0.235744
0.196465
0.325245
0.013192
-0.392722
-0.302164
-0.680153
-2.352796
-0.496270
0.112912
-0.416748
-0.162591
0.904735
-1.414138
-2.374597
0.309928
-0.133223
0.693881
0.463740
-0.788948
0.866935
-0.391770
-0.435565
0.471293
-0.014948
-0.771919
0.117692
0.198709
-0.026435
0.101078
-0.010931
-0.398237
-1.282596
-0.218114
1.543351
-0.067720
-0.019757
0.315064
0.096762
-0.196899
-0.333665
0.180533
0.500510
-0.469355
-0.308924
-0.280559
0.267380
0.058373
1.485091
0.234538
1.272675
-0.115125
-0.424288
1.928939
-0.715887
0.617137
0.041629
0.474899
-0.373422
0.407660
0.096668
-1.539547
-0.490069
-0.478445
0.410817
0.426031
-0.139280
-0.113089
-0.153568
0.458002
-0.218418
0.060654
2.569128
0.375324
0.091819
0.330651
-0.375447
-0.053587
-0.084352
0.253368
-0.318529
-0.267124
-0.361238
0.108459
-0.197332
-0.004030
0.169869
0.223185
-0.028611
0.362907
3.283970
-0.425173
-0.046394
-0.611478
-0.496734
-1.653798
0.999780
-0.381198
0.215327
0.631109
-0.176973
-0.300193
-0.113414
0.462602
0.266144
0.484789
0.293772
0.395369
-0.074143
-0.316165
0.225540
0.107848
-0.082769
-0.210816
1.479542
0.331589
0.285674
-0.038360
0.065755
1.070892
-0.240874
-0.180742
-0.204124
0.180874
-0.416788
-0.878091
-0.490710
-0.026387
-0.315782
0.225137
-0.020407
-0.532132
0.919304
0.085467
0.167533
0.595955
1.203884
-0.789476
0.600616
-0.407528
0.467058
0.203264
0.200840
-0.115191
0.774503
0.458915
-0.394253
0.279161
0.683386
0.177197
-0.938884
-0.285583
0.491799
-0.129287
0.068348
-0.633085
-0.157527
0.405621
0.049664
-0.658395
0.134971
0.349729
-0.369409
-0.470526
-2.050335
-0.075053
0.101856
-0.848215
-0.359653
-0.181946
-0.272666
-1.346206
-0.429164
-0.346417
0.216870
0.492986
-0.273124
0.209452
0.272667
-0.053711
-0.160116
0.310450
0.161226
-1.545999
-0.242698
1.168864
-0.134382
0.389506
-0.036302
0.010599
-0.199121
-0.404504
0.343138
0.569383
0.465970
-0.153893
-2.705670
-0.075587
0.050141
-0.128427
0.683596
0.347168
-0.158672
-0.444675
0.345555
-1.948510
0.214173
-0.162637
0.277299
0.630245
2.078969
-0.244310
-0.201671
-0.054372
-0.001441
0.055092
-0.496295
0.263489
-0.109054
-0.005453
0.861378
1.325652
0.063939
0.127366
-0.089464
-0.254001
1.761835
0.073938
0.170932
0.037671
0.628579
-0.107871
-0.127658
-0.015298
-0.309817
-0.574429
-0.536746
0.055450
0.056010
-0.117833
-0.164665
-0.153000
-0.644252
0.286610
0.257161
0.451337
-0.211000
-0.357981
0.311058
-0.101627
-0.240773
-0.277116
-0.359400
0.310247
0.215762
0.051655
-0.443944
-0.282013
0.336981
0.227507
0.243161
-0.441484
-0.598944
0.691132
-0.770644
-0.488978
-0.165040
-0.335796
-0.822706
0.289183
-1.798488
-0.124862
-0.267578
0.147991
-0.475569
-0.393891
-0.636394
-0.275476
-0.031279
0.305326
0.058321
-1.996727
-0.064418
0.677740
0.730828
0.361985
-0.399797
0.465482
0.258078
-0.121750
1.017064
0.184210
-0.048566
0.356505
0.314901
-0.276485
-0.361634
-0.335471
-0.272170
-0.331840
-0.429313
0.248143
-0.067907
-0.182223
-0.537484
0.070354
0.364478
0.313120
0.314544
-0.801551
-0.409242
0.121141
-0.237358
-0.416636
0.462442
-0.327949
0.291854
-2.194917
-0.347782
-0.312235
0.120439
0.216886
-0.068315
-0.412253
0.026569
-0.238745
-0.432080
0.337392
-1.572182
-0.494260
-0.479780
0.025808
-0.404180
0.096532
0.264888
0.411289
-0.318446
-0.275130
0.239077
0.358442
-0.083041
-0.113141
-0.365433
0.353816
-0.015108
-0.303726
-1.573230
-0.208682
0.024259
-0.831678
-0.461207
-0.159489
0.127950
-0.260490
-0.406198
0.395862
0.261069
-0.269970
0.035500
-0.283810
-0.009207
0.074189
0.256667
1.672815
-0.318411
0.129590
0.203523
-0.122189
0.369128
-0.139520
-0.442256
-0.830249
0.262008
-0.086720
-0.490308
-0.204179
0.039626
0.405366
0.056203
0.409368
0.467927
-0.436386
0.415422
0.419701
-1.016044
-0.476108
0.480307
0.453962
-0.001726
-0.252118
-0.479378
0.398916
-0.614048
-0.644505
0.328603
0.449293
0.043020
-0.325317
-0.158227
-0.073184
0.392922
0.885727
0.242240
-0.173492
-0.456410
0.254501
-0.357217
0.102730
0.186635
-0.315033
-0.391821
0.889675
-0.144407
-0.043143
0.103600
0.547438
-0.011898
-0.263923
-0.139012
-0.426129
-1.828049
-0.490520
0.347761
0.028842
0.567874
-0.058258
-0.321290
0.132656
-0.020362
-1.153752
0.469440
0.473365
-0.841665
0.430914
-0.185459
-0.294909
-0.039739
0.431954
0.322489
-3.676753
-0.513528
-0.135967
0.343557
0.467159
0.335448
-0.385827
0.437726
-0.154466
0.359900
0.306270
-0.347417
-0.352131
1.538553
0.305499
-0.151034
0.281508
-0.445662
0.014024
-0.031316
-0.629172
-0.464476
-0.548618
-0.048751
-0.307924
0.407189
0.591856
-0.967010
-0.143147
0.227081
-0.250904
0.102266
0.167079
0.127687
-0.033285
0.471777
0.137673
0.180652
0.977818
0.338007
0.126026
0.141758
-0.508060
3.662858
0.000354
0.312107
-0.292247
0.220913
0.366449
0.180890
0.235713
-0.168104
0.252571
-0.255343
0.350136
0.437930
0.238028
0.348365
-0.119709
0.515013
0.169541
0.119486
0.207834
0.230880
-1.261970
-0.359016
-0.443348
0.263129
-0.217539
0.426705
0.111457
0.336880
0.083131
0.161432
0.035482
-0.860328
-0.011792
0.202348
-0.051627
0.171593
-0.062365
-0.892732
0.390774
-0.356343
0.388228
-0.181623
-0.759313
-1.197691
-0.327457
-0.024540
0.201126
0.008585
0.043545
-0.326578
-0.049935
-0.070524
0.162191
0.404332
-1.467642
0.229392
0.511970
-0.051576
-0.104314
0.171596
-0.050898
-0.033993
0.056326
1.224159
0.126414
0.480347
-0.239064
0.499968
0.576035
0.478871
-0.380727
0.276372
-0.009158
-0.308825
-0.025285
-0.240215
0.142283
-0.813612
-0.349415
0.743196
0.216585
0.426291
-0.084892
-0.567553
-0.154626
-0.227043
-0.440537
0.112501
-0.439452
-0.030670
-2.034371
-0.014624
-0.272600
0.063536
-0.619765
0.498528
0.019620
0.207514
0.474143
0.534237
0.045141
-0.813008
-0.399430
0.511631
-0.264114
0.593881
0.127090
0.371421
0.502850
0.253323
0.065824
0.195083
0.173429
0.157231
-0.474846
-0.093065
0.724037
-0.439736
0.422220
-0.298365
0.008312
0.653021
-0.332106
0.380426
1.222915
0.161598
-0.510788
-0.463075
-0.125898
0.304392
-0.002404
0.356765
0.349103
0.623711
0.352154
-0.439363
-0.385521
-0.053219
0.390101
0.003382
-0.324248
-0.068427
-0.249381
-0.453022
-0.211851
-0.248580
-0.325878
0.445935
-0.700037
-0.355147
0.363692
0.452165
-0.377116
-0.257527
-0.353906
0.140189
0.470883
0.108581
0.152761
-0.162162
-0.315392
-0.205752
-0.605717
-0.344260
-0.470089
0.145371
-1.032529
-0.780197
-0.142961
0.464437
-0.415579
0.008438
-0.128343
-0.278225
-0.889272
-0.088244
0.037756
-0.046320
-0.174307
-0.485981
0.045896
-0.327322
0.047676
0.235788
-0.113515
-1.082797
-0.239736
-0.162671
-0.331375
0.385498
0.095483
0.441367
0.751556
-2.613405
0.335303
0.505589
-0.309769
0.259748
-0.045439
0.425551
0.372683
0.024523
-0.190630
-0.220146
0.286012
-0.464035
-0.154260
-0.200585
-0.434606
0.393418
-0.424201
0.086937
-2.492311
-0.029434
-0.503857
-0.115323
0.225561
-0.057076
-0.416650
-0.214944
-0.192756
-0.046642
-0.350798
-1.523981
0.453994
1.927159
-0.298807
0.025948
0.254191
0.034812
-0.069412
0.046940
-1.199725
0.319315
0.683256
0.353430
-0.040051
-0.187683
-0.367733
0.107758
-0.306714
-0.320061
-0.437060
-0.334220
0.436057
-0.254400
0.121874
0.047916
0.176430
-0.488982
-0.552924
0.447063
0.047371
0.250121
-0.286819
-0.310509
0.094673
-0.109978
0.506492
0.212931
0.482121
-0.115156
0.357971
-0.459427
-0.787630
0.914257
0.257453
0.114767
0.395571
0.498411
-0.393018
-0.924983
0.035480
-0.428644
-0.272976
0.832137
-0.756940
0.285284
-1.321538
0.490423
0.712230
0.492322
0.402896
0.100297
0.218091
-0.372769
0.541305
-1.404491
-0.007099
0.495561
0.113840
0.761843
-1.382410
0.678862
0.153427
0.011506
-0.452165
1.018042
-0.172373
3.352831
-0.193787
-0.331661
1.027982
0.071539
-0.020184
-0.551043
-0.317520
0.407409
0.415535
0.022637
-0.438160
0.431541
0.058737
-0.770306
-0.386929
-0.326394
0.032059
-1.958908
-0.051595
1.825040
-0.091810
0.512624
-0.123150
0.214621
-0.123917
0.284113
-0.323493
-0.412873
-0.416908
-0.271193
-0.190885
0.227207
-0.152475
2.013344
0.174846
0.129219
-0.183592
0.338547
1.500271
-0.140534
0.473995
0.137270
-0.435758
0.286061
0.541961
-0.025835
-0.661800
0.024535
1.169853
-0.178628
-2.502403
-0.243617
-0.217427
0.516528
0.421384
0.227200
0.029999
0.792047
-1.449342
0.063470
-0.272544
-0.415902
0.335824
0.143992
-0.028103
-0.038951
0.546988
0.238684
-0.013827
-0.381410
0.371385
0.078940
0.173251
0.386006
-0.050329
-0.284681
-0.178429
-0.344243
-0.040256
-0.330236
0.273550
1.085665
0.328537
0.189446
-0.498891
-0.251711
-0.261169
0.282030
-0.253062
-0.052388
-0.229476
-0.075227
1.437646
-0.417918
0.400512
0.297771
-0.006489
0.397879
0.177777
0.875951
1.401238
-0.000459
-0.243305
0.123466
0.282742
0.022453
-0.227439
-0.228483
0.159377
-0.103431
0.943683
-0.433750
0.421209
0.724922
0.206075
0.085137
-0.306934
0.971781
0.443817
0.248537
0.054007
-0.491922
-0.539603
-0.938122
-0.315632
0.176952
0.173699
0.128258
0.025210
-1.104445
-1.333529
-0.057563
0.251775
0.340155
0.517324
0.389039
0.485919
-0.260777
0.096335
0.337469
0.331559
0.078502
0.112304
-0.042241
-0.984552
-0.219243
0.081378
0.915318
0.595686
-1.153874
0.385295
-0.347237
0.102673
-0.020398
0.115417
1.069174
0.618819
0.143808
-0.107395
0.384805
0.410045
0.091401
-0.603991
0.112199
0.472933
-0.375866
0.100658
0.409230
-0.113504
-0.116598
0.140561
0.284365
-0.126893
0.517967
0.168657
0.102898
-0.262897
0.219173
0.611315
-0.284611
-0.322034
0.073788
0.167189
0.168037
-0.014929
0.135444
-0.207144
0.631189
-0.582567
-0.003689
-2.037741
-0.380085
0.457545
0.047403
0.544154
3.865440
0.114323
-0.266469
0.239078
0.425395
-0.025431
-0.355259
0.404846
0.095307
-0.596833
-0.197485
-1.104585
-0.199431
0.136060
-0.304917
0.119010
0.082681
0.518419
-0.263422
-0.150101
0.725323
0.338284
0.126057
-0.661456
0.520691
-0.024770
0.988668
-0.625447
0.479283
0.516479
-0.201220
0.296369
-0.780372
0.015258
-0.034954
-0.074815
-0.858159
1.760774
-0.437739
0.778513
0.157173
1.983804
0.479188
0.394638
0.854565
-0.375350
-0.093666
-0.361812
-1.173331
0.093291
-0.028611
-0.073479
-0.217241
-2.133949
0.639001
0.623678
-0.429049
0.479231
0.150160
-0.388559
1.104551
-0.343672
0.260122
-0.269719
-0.418902
-1.087595
0.559117
-0.578196
0.179510
0.368956
0.475511
-0.757364
0.227475
-0.362436
-0.481449
0.151661
-0.526192
0.147117
-0.741048
-0.476065
0.030922
0.325121
-0.027989
0.172450
0.394501
0.325885
-0.349038
-0.512993
-0.913035
0.038234
-0.490826
0.458682
-0.322045
0.290852
1.963563
0.268757
-0.901231
-0.161138
-0.250969
1.338466
-0.836587
-1.428088
-0.321491
0.478403
0.417755
-0.080777
-0.319625
-2.391085
-0.412035
-0.404927
0.464474
-2.343036
-0.127202
-0.041525
-0.628784
-0.211145
-0.362665
-0.352518
-2.098861
-0.166896
0.207272
-0.171853
-0.256046
-0.060469
-0.370307
0.459127
-0.270157
-0.316396
-0.180456
-0.484544
-0.498615
0.070472
-0.241870
-0.167142
0.070430
-0.383705
0.005722
0.264377
0.157205
1.293925
-0.187945
-1.331026
-2.127530
-0.741413
0.104908
-0.434476
-0.483182
-0.351622
-0.106064
-0.164209
0.083083
-0.345332
0.185493
-0.883152
0.083849
0.347601
-0.607637
0.335248
-0.447239
-0.056456
0.975837
-0.904452
-0.464428
-0.118058
-0.201294
-0.662825
0.100939
0.462558
-0.113400
0.260909
0.235931
-0.628201
0.407342
0.402342
-0.281401
0.033806
-2.651487
-0.147346
0.114687
-0.218038
0.502308
-0.686748
1.337889
-0.629334
-0.459331
-0.185990
-0.053012
0.073583
-0.329187
0.021304
0.454972
-0.889491
0.118561
-0.404190
0.021706
0.442381
-0.816697
-0.179384
0.422936
-0.320031
-0.515415
-0.190387
-0.164952
-0.468023
0.104319
-0.545913
0.092234
0.274670
0.170933
-0.653313
-4.158699
0.372575
-0.193474
-0.396928
-0.407893
0.239626
-0.577200
1.162967
0.310205
-0.391906
0.226921
0.224315
-0.065982
-1.176224
0.341681
0.154462
-0.416142
0.108160
-0.503367
-2.234085
0.478150
-0.121741
0.271481
0.279985
-0.325199
-1.534757
-0.253339
0.283695
-0.272894
-0.129233
-0.580280
0.034493
-1.005030
0.194585
0.146720
0.136100
0.342815
-0.405488
-0.430772
0.545213
0.234672
-3.216688
-0.283418
0.191911
-0.251885
-0.043957
-1.674876
-0.196246
0.209533
-0.114783
-0.214506
0.359569
0.028041
-0.478549
-0.121031
0.184854
0.031843
-0.762051
0.029648
0.207053
0.380415
0.126432
-1.542539
-0.455447
-0.157428
0.438510
-0.168248
-0.350791
-0.452557
0.182570
0.103346
-0.695473
-0.473562
0.166233
0.016236
0.216227
0.267799
0.415828
-0.853446
0.684893
-0.260948
0.016299
0.157383
1.175892
0.193169
-0.772006
0.107142
-1.199809
-0.229895
-0.337696
0.303836
-0.327925
0.288978
-0.256294
-0.051862
-0.346894
-0.303363
0.444592
-0.472120
-0.805140
-0.315842
-1.259348
-0.409140
0.258379
-0.225631
-0.300967
-0.616161
0.398136
0.055027
-0.243052
0.088322
1.845537
0.149125
0.553185
-0.186013
0.359410
0.079878
-0.299263
-0.371239
0.514496
1.036214
-0.256655
-0.550431
-0.092593
1.095989
-0.175092
-0.384724
0.144885
-0.191589
-0.537182
0.449430
0.155182
-0.511258
-0.420800
-0.257980
0.414979
0.246761
-0.536642
0.306969
-0.159302
-0.262033
0.007625
0.124005
0.292694
-0.026052
-0.822658
0.027487
0.051197
0.016141
0.358684
-0.504050
-0.365469
-0.473312
-2.602664
0.080886
-0.490255
-0.035911
-0.199879
-0.343642
0.311168
-0.703025
-0.355303
-0.547749
-0.252751
-0.995533
1.108730
-0.298862
-0.451522
0.486241
-0.415464
-0.169726
0.105139
0.131071
0.234779
-0.063257
-0.464631
0.351302
-0.333334
-0.238893
-0.119768
-0.435739
-0.273643
1.280779
-0.372513
0.045899
-0.825333
0.138960
0.916218
-0.554111
0.411843
0.287742
0.321373
-0.482166
-0.180525
-0.496843
-0.180449
-0.330001
-0.254103
-0.093061
0.724599
-0.133349
0.373935
0.763245
-0.463368
0.147624
-0.078362
0.601757
-0.199732
0.127214
0.012253
-0.516901
0.252580
0.347130
0.101840
0.483284
-0.179054
0.340378
-0.145910
-0.202479
-0.162954
-0.539111
-0.375827
-0.811878
0.119637
-0.087050
-0.247848
0.272717
-0.131663
-0.918970
-0.129418
1.003569
0.322697
-0.278311
-0.354252
0.398239
0.408223
0.326264
0.239398
-0.015031
-0.227580
0.154987
0.013615
-0.498474
0.086589
-0.352272
-0.522594
-0.072330
-0.939628
-0.062291
-0.217124
-0.097028
-0.615199
-0.054722
0.034837
-0.445025
-0.461122
0.818794
0.023013
0.376922
-0.717642
0.626904
-0.357214
-0.531059
-0.279706
-0.295613
-0.398248
-0.437311
0.348621
-0.571617
0.182564
-0.340050
0.391325
-0.351734
-0.259425
0.016825
-2.445297
-0.320877
0.161578
-0.090939
0.386855
0.323967
0.043743
-0.496655
-0.191164
-0.033538
-0.020430
0.896586
-0.335862
-0.148203
-0.334276
-0.132138
-0.365036
-0.533445
-0.066807
-0.114643
0.198373
-0.064326
-1.119144
-0.146754
0.126002
-0.436063
0.440099
-1.383154
-0.310054
0.331591
-0.387580
0.082193
-0.686174
0.153510
-0.377008
-0.396300
0.021675
1.091177
0.134859
0.364133
-0.098337
0.297599
-0.289136
-0.609090
-0.438204
-0.084503
-0.458125
0.088199
0.177807
-0.016413
0.186092
-0.335761
0.536987
-1.426899
-0.018831
0.123530
-0.355774
-0.224417
-0.274656
0.999629
-0.238261
-0.176923
-0.401914
0.611384
-1.300320
-0.298335
0.030615
0.118172
-0.279431
-0.071386
0.017982
0.199891
-0.234876
0.334359
-0.165569
0.423955
-0.211234
-0.115176
0.203780
0.042261
-0.296774
-0.421817
-1.684893
0.404401
-0.092055
-0.315126
0.351191
-0.451503
-0.446546
0.324876
-0.734289
-0.242115
0.461041
-0.116877
0.005682
-0.653301
-0.063337
0.194404
-0.769184
0.162441
0.587102
0.258875
-0.696838
-0.095798
-0.136870
0.136123
0.370701
-1.028405
0.499125
0.050021
0.119803
0.381985
0.030888
0.320989
0.261926
-0.442769
0.126631
-0.195694
0.287881
0.283226
-0.395279
-0.480451
0.242318
1.518918
0.494141
-0.346060
0.057910
-0.010594
0.600101
0.094711
-0.455676
0.386384
-0.376592
-0.166605
-1.967769
-0.037848
0.743699
-0.325376
-2.251151
0.437618
0.199687
-0.065303
0.295143
0.468799
-0.064548
-1.209812
0.053498
-0.462377
0.312454
0.091082
0.160134
0.267269
-0.213284
-0.122008
-0.317245
-0.243604
-0.386846
0.284359
0.138280
-0.343041
0.202062
0.158143
0.399835
0.578722
0.482337
-0.344076
-0.207002
0.420830
1.611880
0.524175
0.986319
-0.352800
-0.111520
0.104671
0.024706
0.467637
-0.387181
0.393668
0.437776
0.400812
2.783078
0.116472
0.269066
-0.694528
0.470004
0.427360
-0.194787
1.275970
-0.230381
0.419032
0.010546
0.517409
0.397519
0.004968
-0.053420
0.095012
0.302816
-0.186557
1.105609
-0.249671
-0.279028
0.489340
-0.126932
-0.647536
0.341456
0.859161
0.652839
0.515264
-0.602979
-1.582855
0.289929
-0.208810
-0.255317
0.006014
-0.347622
-0.309773
-0.091086
-1.029727
-0.143245
-0.428288
-0.172299
-0.696896
-0.435084
0.010807
0.010407
-0.013219
-0.157914
-0.684838
0.607625
-0.157265
0.014630
0.472275
-0.275313
0.364462
0.200972
-0.516723
-0.119350
-0.797365
0.049450
-0.402147
0.797257
0.134801
-0.820898
0.637916
0.644504
-0.122670
-0.899019
-0.283337
0.241648
-0.344063
0.218111
-0.455111
0.411837
-0.260143
0.376384
-0.102217
-0.997578
-0.357890
0.962682
-0.165226
0.394995
-0.347745
-1.058951
0.286290
0.491032
-0.168192
-0.784132
1.786158
-0.073809
0.740022
0.401492
-0.097213
-0.262390
-1.076952
0.099605
1.152169
-0.417414
0.462190
-2.576996
-0.392202
0.344407
-0.215757
-0.386698
-0.544880
-0.034875
0.480150
-0.395172
-0.665512
-0.586550
0.242452
0.662658
0.667833
0.396377
0.422299
0.243438
0.336819
-0.463442
-0.292573
0.112351
-0.874110
-0.341361
-0.010618
0.387773
0.198945
0.047020
-0.108240
-0.509684
0.383479
0.813432
-0.631953
0.220257
-0.350843
0.172798
-0.963906
0.369419
0.791305
-0.103745
0.345180
-0.199126
1.159820
-0.216665
0.382791
1.113437
0.000347
1.531495
0.432856
-0.231003
1.195814
-0.384178
0.401616
-0.231512
-1.387900
-0.133462
-0.439358
0.098349
0.891331
-0.695675
0.735614
-0.910065
0.232970
-0.207552
-0.115818
0.568115
2.965050
0.363092
0.189408
0.095794
0.404059
-0.342189
-0.841656
0.916437
-0.679257
-0.302527
-0.334474
-0.684575
0.514555
0.251907
0.794508
-0.179739
-0.270542
0.371883
-1.449838
-0.109177
0.553023
-0.378099
0.463691
-0.413974
0.024362
-0.034574
0.293273
-0.268149
-0.716601
0.053219
-0.435963
0.519651
0.251633
0.227964
-0.674014
-0.314962
0.474032
-0.129439
-0.387703
-1.935610
0.671907
0.434866
-0.307845
0.031627
-0.138083
-0.337687
-0.163695
-1.233237
0.508824
0.449314
0.370135
-1.429843
0.007558
0.305272
-0.605179
0.506439
0.794506
-0.449265
0.326525
0.389346
0.078473
-0.248635
-0.383713
0.406372
0.246581
0.226347
-0.434072
-0.267633
-0.428573
-0.587277
0.217020
0.088499
0.001875
0.618793
-0.405356
0.496434
-0.826910
-0.080958
-0.297834
-0.492132
0.304700
0.856074
-0.361049
0.585524
0.435921
-0.233700
-0.232265
-0.068426
-0.078095
-0.044937
0.202987
0.436485
0.180948
2.571221
0.355787
0.109315
-1.011339
0.396234
0.316201
0.122294
-1.223823
-0.119162
-0.314688
0.061026
-0.134047
0.024860
-0.126143
-0.138892
-0.271923
0.162926
-0.160395
1.344181
0.293575
-0.011097
0.859667
0.204015
-0.383093
0.301375
0.021922
0.286339
0.156323
-1.019260
-1.840266
-0.369670
0.103459
-0.463781
0.099689
0.290718
0.406972
-0.109591
-0.879346
-0.035152
0.372668
0.047363
-0.250540
-0.277906
0.254397
0.350044
0.048767
-0.101086
-0.441890
0.674631
0.562486
-0.244417
-0.173687
-0.684658
0.444979
-0.339094
-0.787035
-0.567481
1.788600
0.203990
-0.110415
-0.041273
0.560846
-0.337543
0.933354
-1.043837
-0.083052
-0.528343
0.167339
0.323954
-0.408466
0.454182
-0.154164
0.381413
0.168347
-0.403287
0.205976
-0.083594
-0.027085
-0.372883
-0.560401
-0.253967
-0.101913
-0.631828
0.183630
-0.193276
0.088725
-1.040812
0.586480
0.331741
1.637831
0.355989
-0.121387
-0.125375
-0.385041
0.436223
0.737586
0.531111
-0.124675
-0.816237
0.262070
0.255153
0.180941
-0.624089
-1.372411
-0.302122
-0.346343
-0.208504
-0.287152
-0.431290
-0.066001
0.338814
0.381517
0.251234
0.175753
-1.140648
-0.412152
-0.262266
-0.021906
-0.038461
-0.647797
-0.341645
-0.207953
-0.073576
-0.026369
0.293768
-0.192132
-0.751302
0.167268
0.990753
-0.642073
0.135518
-0.112701
0.455446
-0.579206
0.476393
-0.183016
0.876441
-0.242747
0.218249
0.673946
0.913710
-0.313711
1.553276
-0.071524
1.073232
-0.030019
-0.031836
-0.288639
0.422594
0.360050
-0.377363
-0.532332
-0.373384
-0.005719
-0.029366
0.381250
0.021394
-0.305120
0.735810
-0.091102
0.326832
-0.650911
1.298920
-1.047058
0.042147
0.218053
-0.242689
-0.211610
-1.672479
-0.080159
-0.137870
-0.051555
0.331223
-0.133228
-0.967588
0.264465
0.856969
0.034164
0.840379
0.058999
-0.176945
-1.343322
0.238372
-0.056759
0.109619
-0.249623
-0.048798
-0.072343
1.062983
-0.320518
0.377926
0.004394
-0.344506
0.190012
-0.011878
0.020934
-0.050564
-0.419790
0.454567
0.983919
-0.281074
0.227383
-0.248362
-0.639458
0.544171
-0.485497
0.397356
0.129856
-0.022535
0.350906
-3.367818
0.341934
-0.851001
-0.342835
-1.779439
0.115014
-0.048898
0.150698
-0.415959
0.049178
0.454286
-2.110386
-0.899718
-0.348849
0.234721
0.042763
0.433510
-0.331137
-0.354124
0.429447
0.189111
-0.093827
-0.087724
0.247342
0.039064
-0.341527
0.644142
-0.022210
0.397685
-1.763818
-0.132153
0.149493
-0.460526
-0.126758
0.347111
-0.948227
-0.614928
0.443881
-0.005662
-0.344962
-0.173745
0.001151
-0.300253
0.380983
0.207770
-0.524162
-0.166403
0.168552
-0.257264
-0.451420
0.139370
-0.526782
0.197124
-0.164840
-0.411270
-0.222442
-0.279528
0.106516
0.219123
-0.408457
-0.530018
-0.364409
-0.116404
-0.283247
0.169229
0.376375
0.379241
0.250644
0.361626
-1.656826
0.274812
0.275216
-0.409052
-0.258267
-0.130679
-0.016658
-1.389272
0.141478
-0.086407
-0.069613
-0.423020
-0.405667
-0.055025
0.974367
-0.404474
-0.251724
-0.365597
-0.012177
0.387431
-1.191285
0.051089
0.407516
-0.280201
-0.726696
0.255636
0.063825
0.393801
-0.413749
-0.104211
0.292410
0.053727
0.157302
-0.868299
-1.991079
0.214404
0.285947
0.435286
0.317622
0.631426
0.332545
0.570816
0.400068
-0.686529
0.543455
0.081810
-0.907301
-0.157187
0.257583
0.056682
-0.412660
0.271446
-0.350859
-5.464493
-0.538302
-0.554405
-0.240798
0.456151
-0.398261
-1.240954
0.111712
0.439906
-0.343188
0.049285
-0.168366
0.071050
1.407856
0.357384
0.421186
0.396244
0.284596
0.226285
0.121578
-0.750831
0.167088
0.381616
0.394885
0.306142
-0.095866
0.884878
-0.271287
0.025978
0.006656
0.094159
0.219278
0.290739
0.302097
0.508992
0.216730
0.523676
-0.538154
-0.660590
0.426483
-0.185401
-0.030785
-0.495349
1.857199
-0.036596
0.403406
0.445251
0.298677
-0.049867
0.157231
0.520192
0.256154
0.051586
-0.621781
0.327097
-0.287345
-0.046350
0.534826
0.176626
-0.306501
0.347820
-0.217633
0.179677
1.032019
0.286829
0.116095
0.211784
-0.376753
-0.065138
-0.004015
-0.401124
-0.121759
-0.493429
-0.342932
-0.190955
-0.814411
-0.398155
-0.260009
0.473681
-0.372147
2.398001
0.003728
-0.465696
-0.154346
0.323959
-1.207048
-0.288539
-1.649306
0.125797
-0.201277
-0.037496
-0.064759
0.851663
-1.802118
0.250872
0.335776
0.261155
0.050218
-2.976711
0.267265
-0.352388
0.028160
-0.791946
-0.517828
-0.213083
-2.392135
0.188231
0.360442
0.221230
0.183336
-0.461534
0.181247
-0.709091
-0.129777
-0.451676
-1.523650
0.104567
0.169428
0.148268
-0.461134
-0.510425
-0.717065
0.401207
0.424804
-0.322552
-0.571008
0.087857
-0.162831
-0.572750
-0.025566
0.248716
0.388304
0.103898
0.387454
-1.290728
0.412624
-0.857859
0.242711
-0.613964
-0.376623
-0.040341
0.238869
0.326048
1.292424
0.356395
0.364505
-0.014772
-0.017614
0.086648
0.150820
0.244656
0.132777
-0.466977
0.167287
-0.236634
-0.268105
-0.140514
0.261846
-0.286655
0.197107
-0.192207
-0.516515
0.199317
0.954916
0.404394
0.181990
-0.412115
-0.193459
-0.415339
-2.786607
-0.484115
0.430909
1.397622
-0.201186
0.356074
-0.027016
-0.283967
-1.001622
0.463406
0.324105
0.273971
0.242874
-0.056824
-0.676571
-0.068414
0.227966
0.006498
-1.036484
-0.965233
0.241267
-0.432084
0.290363
-0.597654
0.196175
0.195197
-0.151445
-0.108898
0.034079
-0.971732
0.362351
0.238618
-0.360555
0.314684
-1.305606
0.286536
-0.009650
0.741557
-0.482094
-4.158864
-1.838387
-1.503219
0.246651
0.112132
-0.159452
-0.022622
-0.434858
-0.410062
-0.414466
-0.361149
0.122597
0.267991
-0.407231
-0.071146
-0.740343
-0.257110
-0.348995
-0.270992
0.155187
0.496401
-0.691194
0.039191
-0.033450
-0.778800
-0.127140
0.343181
-0.670911
-0.358154
1.185814
0.110769
0.163181
1.274997
0.078434
-0.628868
-0.616372
2.715631
0.243424
-1.677203
-0.517783
0.393643
-0.392891
0.232585
0.183057
-0.192310
-0.418697
-0.259928
0.072004
-0.460298
-0.118746
0.418342
-0.582128
0.261821
0.309459
-2.407894
0.028282
-0.293819
-0.086757
-1.106744
0.881981
-0.430112
0.115075
0.032821
0.174790
-0.229611
-0.614780
0.413247
-0.826153
0.941943
-0.261729
-3.010261
0.225770
-0.479358
0.311745
0.103138
-2.334943
0.303126
0.191748
0.443210
-0.702848
-0.693544
-0.286522
-0.344839
-0.412954
-0.214723
0.436215
0.882487
-0.228035
-0.460553
0.167180
0.160869
1.480767
-0.070572
-0.284886
0.375467
0.337101
-0.341120
0.261644
0.150476
-0.541383
-0.694412
-0.893765
-0.125490
-0.436569
0.424010
-0.957660
-0.049328
-1.395777
0.555073
-0.235473
-0.429042
0.961374
-1.815477
-0.214902
-0.499312
0.199958
0.417192
0.195559
-0.520365
-1.689968
-0.115837
0.220775
-0.251510
-0.987329
0.457312
-0.403113
0.122815
-0.321012
1.465336
0.373830
-1.301548
0.422717
0.163318
0.600887
1.025127
0.859557
-0.383516
-0.036366
-0.885994
-0.433232
-0.036883
-0.645686
-0.657985
-0.027827
0.386763
-0.146434
-3.023057
0.398488
0.290014
-1.044122
-0.219993
-0.042375
0.473145
-0.677889
-0.167426
-1.366746
-0.230961
0.431679
0.526199
-0.374717
-0.756677
-0.387430
-0.475711
-0.655762
-0.466936
0.508151
0.177004
-0.287190
-0.051926
-1.726974
-0.347767
0.411083
0.197682
-0.247999
0.027314
0.627749
-0.368295
-0.437492
-0.064489
0.200347
-0.185230
-0.135347
-1.678333
-0.235688
0.596641
-0.040303
-2.136810
0.300364
-0.130398
-0.246841
0.401936
1.915552
-0.232357
1.547205
0.003951
-0.223004
0.386954
0.487960
-0.116312
-0.141412
0.143898
0.012210
0.096299
-0.182131
-0.041884
-0.102503
0.354892
-0.058047
0.191480
-0.233308
-0.563411
0.014951
0.125865
-0.608027
0.725257
-0.342810
1.418791
-0.658847
1.141285
-0.468534
0.452315
0.312068
0.196408
-0.043770
0.190871
0.197067
0.158576
0.054114
0.603690
-0.430508
0.341720
0.336535
0.057991
-0.085693
-0.423009
0.809002
0.294311
0.408172
0.264678
-0.299324
-0.164254
0.359557
0.404426
0.492963
-0.416504
0.348778
1.825994
0.245360
0.416768
0.557476
0.253115
-0.905383
-0.291799
0.060932
-0.116686
-0.119987
-1.955170
-1.725294
-0.221729
-0.714526
-0.230542
0.100847
-0.425907
0.303739
0.491443
-1.316395
-1.451123
0.255825
0.511834
0.452937
0.417887
-0.313271
0.203275
0.313506
0.368872
0.195751
0.338312
0.379416
-0.015291
0.031631
-0.485114
-0.291648
0.113274
-0.769041
0.327992
-0.139429
-0.204557
0.756430
0.168234
-0.796992
-1.058265
0.814456
0.535282
-0.304555
-0.457681
0.131340
-0.172116
-0.380361
0.336001
-0.183993
-0.200352
-0.259368
-0.068428
0.479212
-1.599143
-0.565326
0.029329
0.036346
0.485521
-0.320440
-1.635305
-0.033586
-0.130037
0.347493
-0.801722
0.374669
0.346500
0.854158
0.435371
-0.349808
0.312014
-1.225097
0.199632
0.278119
-0.741794
-0.470901
0.977100
0.090184
-0.037525
-0.196423
0.061497
-0.653647
0.002448
-0.209659
0.192757
-0.342809
-0.091987
-0.112392
0.044024
0.095030
0.084379
-0.215932
0.415018
0.389709
0.497359
-0.066961
0.442502
-0.817707
-0.309517
0.354162
0.484887
1.797964
0.415939
0.122551
-0.484351
-0.346895
0.997930
-0.202920
0.059206
-0.434454
0.126973
-0.675053
0.284794
-0.763134
0.398887
-0.161762
0.127265
0.262156
0.445039
0.252350
1.536263
-0.168220
2.768600
0.294307
-0.330117
0.516941
-0.296365
-0.372662
0.287789
0.199231
0.457789
0.210708
-0.163749
0.215172
0.183562
0.241269
1.254351
0.413776
0.511836
0.046860
-0.143191
-0.153620
-0.186858
0.210990
0.183854
-0.365773
-1.138194
-0.510856
