-17.206529
-4.269675
0.046388
-5.698805
-2.893964
-0.192254
-1.203014
-15.233654
-2.813229
2.980490
6.353258
-0.669099
4.704008
0.604572
-2.682423
-0.166004
6.160936
-4.238567
-7.305782
-7.552843
-0.308418
-3.600796
-1.507201
10.095321
1.542730
-0.619061
-0.003890
0.424461
-3.750481
-7.632490
-2.447689
-7.249780
-6.643604
-2.832088
-11.244888
-15.553429
-1.480841
-4.013581
-2.883782
5.335672
2.288024
4.684177
3.500179
0.380798
3.569520
7.000428
4.491260
3.389112
2.051027
-2.608945
-4.479987
-3.097968
-2.169239
-2.121447
0.002852
0.021674
-2.616571
-5.390037
-1.651384
-5.653275
-9.165998
-12.813233
-17.887726
-25.093542
-21.797398
-16.860469
-23.194265
-27.969516
-17.245537
-13.396847
-12.736654
-18.199658
-18.786888
-16.688434
-19.785080
-21.862667
-7.228925
-11.846993
-7.284687
-3.638443
1.877478
-4.215112
-4.075360
-1.643777
-3.067757
-5.793915
-0.006535
-4.463765
-7.783722
-13.818654
-16.083379
-17.038811
-14.484224
-7.987822
-18.800057
-21.155459
-15.657573
-13.854746
-16.626652
-19.343956
-14.902063
-13.503387
-17.318107
-20.059450
-24.294006
-16.008298
-11.408089
-1.510851
3.801643
-2.467332
0.419839
-2.638752
-4.409287
-6.350438
-1.836920
-5.560764
-11.567556
-10.868377
-3.891662
-2.931889
-21.567906
-19.891299
-15.611312
-15.618369
-14.379027
-11.833547
-13.909748
-1.127839
-16.940105
-19.174774
-17.488173
-18.963243
-22.368372
-19.293153
-1.607010
7.929867
3.684395
1.902007
-2.182482
-5.118849
-14.721773
-3.340882
-3.823998
-4.918738
-10.138266
-6.962245
0.120882
-17.753600
-16.275534
-13.078234
-9.369365
-7.975916
-10.362221
-12.604712
0.980026
-1.903306
-16.130780
-22.398320
-24.461357
-20.729859
-18.704674
-18.931206
-3.829988
0.718283
5.488013
-0.201157
1.958465
-8.212407
-11.570813
-20.985651
-2.591948
-1.653915
-7.186964
-1.907970
-7.376926
-7.656308
-10.542692
-5.411392
-0.712989
-4.618379
1.330579
12.905088
6.094024
1.551869
2.143880
-6.493878
-13.472099
-13.707245
-10.548005
-13.272203
-10.944712
-6.067535
9.005434
6.890224
0.152649
-5.589632
-16.265723
-20.996878
-5.561169
-4.661209
-7.417340
-11.352343
-14.200998
-17.835704
-11.695962
-11.724410
-7.095679
-3.126707
16.057249
0.115851
1.291795
-4.875011
-13.215804
-10.390392
-6.749477
-9.990230
-14.674428
-12.556722
-15.857681
-15.639202
5.916997
4.159467
-0.284047
-5.674384
-9.921783
-14.202301
-20.137376
-6.534903
0.112237
-3.984910
-6.936621
-13.008448
-13.591267
-11.381457
15.995710
11.488834
-2.315984
-8.895005
-11.851904
-12.678959
-10.618896
-6.496544
-3.516142
8.930631
-6.423348
-16.454194
-17.384060
-14.736513
-0.572888
3.692892
-4.791333
-0.185568
-12.213058
-13.920375
-22.817022
-7.395722
-1.148096
-4.855704
-12.423750
-14.228905
-11.635066
-10.442713
12.783086
6.839623
-6.612812
-11.480225
-10.646928
-14.287753
-17.701321
-14.397801
-5.304476
3.932389
-18.942641
-21.364121
-24.869877
-24.124081
-6.850892
-2.988980
-9.197800
-8.707109
-13.904356
-15.519080
-21.125663
-6.924404
-1.299359
-1.365465
-10.093479
-16.720848
-16.194889
-14.182809
9.923017
1.488448
-6.970517
-10.324295
1.239003
-7.649623
-9.188784
-9.968842
-3.799915
7.021206
-15.749432
-23.577219
-28.411235
-28.325400
-8.529480
-1.699774
-11.754527
-10.254984
-16.923287
-15.159768
-17.575678
-4.191300
1.142676
-1.801852
-7.884697
-14.242545
-18.469278
-19.158897
2.384758
-7.024718
-8.268875
-10.084660
-7.208392
-4.931191
-8.028049
-7.057207
-4.703578
-4.309014
-22.448933
-21.446453
-32.343138
-33.161288
-12.105348
-13.025140
-8.305951
-9.901407
-14.281243
-17.113836
-16.010609
-2.518429
1.311518
-3.172674
-10.400898
-19.931955
-19.885366
-21.533772
-8.290325
-14.212569
-13.922736
-17.319234
-18.203874
-7.877734
-14.257913
-13.371523
-17.194569
-10.248392
-25.561257
-24.400070
-25.670112
-28.904426
-18.093812
-16.442635
-12.693890
-10.386002
-13.299296
-15.869467
-18.506291
-0.606098
0.832478
-1.930916
-7.815162
-20.298677
-21.101100
-24.387739
-15.346456
-21.008095
-24.363584
-13.285441
-6.550249
-5.342270
-11.888241
-16.906325
-11.777775
-10.109658
-28.978084
-21.812393
-19.709998
-24.184131
-10.820194
-9.331573
-7.869484
-7.818779
-11.315145
-14.253533
-19.123118
-4.238340
2.786651
-1.471600
-12.784473
-22.172755
-31.280883
-30.032310
-24.090445
-35.146596
-19.980417
-17.274662
-11.315612
-12.003348
-12.953344
-17.005126
-16.750438
-13.288583
-31.000098
-21.646393
-22.322197
-27.742001
-5.185377
-8.670552
-4.002265
-4.827847
-13.663543
-15.969883
-20.238664
-6.461937
2.311615
1.355520
-15.520481
-23.697989
-31.183093
-27.914237
-24.088615
-29.717480
-18.516255
-14.821727
-8.624613
-7.391565
-11.590234
-10.354743
-12.026998
-5.023938
-22.669612
-17.705372
-12.960115
-22.753253
1.568107
-3.371380
-5.683723
-6.423898
-17.987369
-20.637205
-18.905297
-5.114132
2.178701
-0.809981
-16.486640
-19.273294
-19.231964
-24.610601
-11.127161
-9.643853
-6.774705
-11.264288
-3.459699
-2.369615
-3.351995
-1.368652
-1.627832
1.389327
-10.380735
-6.054893
-9.117174
-19.067083
2.210703
1.829184
-1.548279
0.026100
-16.142728
-22.714004
-20.501503
-4.857787
3.570532
0.794723
-7.949553
-13.479999
-20.511154
-24.887657
-7.150157
-8.801708
0.511730
-9.227465
-4.393165
-1.116335
-3.779956
-2.239493
-0.768597
2.065844
-6.411145
-2.016608
-3.714477
-9.858820
1.199143
2.909136
-3.149302
-1.427960
-16.495802
-18.157093
-20.380647
-5.668666
2.140827
1.640193
-14.289846
-13.310394
-20.724351
-21.783085
-1.085417
-2.211453
-0.591557
3.642529
5.728581
7.314308
5.204942
2.699037
5.256851
12.505654
-7.108857
2.969991
-4.688886
-8.885014
8.626324
1.799635
-6.726843
-9.907944
-17.389803
-20.401952
-20.402934
-8.017252
2.911751
3.309156
-8.887471
-10.387911
-18.714612
-16.114186
5.369103
1.218205
-0.303193
-0.191805
1.201574
5.825709
9.891928
13.750327
7.123444
9.563707
-5.760042
0.330251
2.027676
-10.703486
8.291159
1.521494
-6.640321
-11.407811
-12.255970
-18.702764
-20.393563
-8.598038
5.277039
4.605734
-5.005179
-8.808163
-14.217842
-13.869944
6.785954
5.018762
3.950703
0.182387
4.239963
4.852077
11.631942
16.719280
5.180150
0.146200
-4.073922
-1.229937
-5.104538
-4.226752
10.547481
6.098271
-0.864897
-10.345393
-14.810904
-15.915650
-19.749074
-5.747161
0.187404
1.227144
-3.489202
-9.337688
-12.802745
-7.899746
13.938030
10.064033
6.699129
3.245282
2.287650
0.692055
0.087203
3.603475
3.062696
-4.048948
-6.204730
-5.187148
-1.162006
-2.533009
9.367518
14.378167
3.857927
-2.006084
-13.215055
-11.580519
-18.182869
-10.208599
-1.871585
-2.931427
-13.956024
-12.829457
-7.881684
-6.478726
15.206120
16.606654
11.236707
10.466373
7.005040
10.803518
-3.970387
4.868431
-8.958143
-3.296603
-1.260589
-6.036123
0.579518
12.256135
15.710958
21.794089
10.390903
1.070878
-8.343365
-9.823178
-11.700588
-2.277272
-1.767045
-2.799103
-0.372733
-12.746568
-7.651663
-2.009695
14.751986
18.822901
12.093056
7.791884
5.986338
6.100120
-7.786139
7.193799
-9.171785
0.203866
2.066585
-3.267307
1.868695
13.655444
15.159400
19.605582
0.214829
-2.363809
3.902614
-3.874697
-3.538309
-4.195673
-1.842498
1.672704
0.359389
-3.516380
-13.002322
-5.362746
3.648159
-3.209616
-2.853312
-1.076388
16.001385
11.064516
-9.902090
-2.335667
-0.954181
2.803160
-0.225329
1.286550
13.088355
13.098795
25.856163
23.942654
12.820702
4.701792
-2.774170
-3.739119
-4.737008
-4.225478
-2.698016
-1.491822
-5.484020
-6.995077
-16.133953
-7.524968
-3.547775
-4.485310
-0.488873
-1.409472
13.138768
-1.258708
0.950420
1.532235
-5.838186
8.820775
7.535290
1.023586
17.917719
19.890024
24.454754
25.514959
12.660586
4.281014
-1.910296
-1.143971
-3.068490
0.354189
-1.367221
-0.510014
-7.885664
-12.003134
-1.455773
4.495882
-3.781109
1.882872
-1.901051
-1.810043
-2.279018
-3.579305
3.051959
5.482073
-3.313915
-1.340179
15.329223
6.758116
17.761012
21.439977
21.910615
20.252244
10.984141
0.092697
-1.659072
0.367800
1.860842
1.403775
-0.094488
-2.166413
-4.980763
-10.129716
-9.764765
-2.934635
-10.675152
-6.159886
-7.092970
-6.682135
-5.239916
-5.581398
-4.348187
2.927633
-0.692736
7.756342
0.989546
-5.567039
2.967284
11.766761
16.410136
8.668922
4.270971
0.377091
-17.423430
-16.942947
-6.872021
-3.184032
-4.844019
-0.223064
-3.134386
-26.139890
6.070930
12.406739
3.181201
-17.541375
-4.063775
-3.511620
-3.686862
2.880968
6.019001
1.264203
-15.774489
-17.870215
-10.153680
-11.468149
-3.541654
18.555199
6.666209
-0.048994
-0.625165
4.183178
-13.021122
-16.857504
-9.340316
-7.372280
-18.859532
-9.850093
-20.060706
-27.528895
-1.703978
-7.399708
8.764245
0.226535
-5.285813
2.760625
3.418431
-1.877416
18.159612
20.918185
0.450313
5.742337
-1.082580
0.503929
7.475943
12.282763
6.627425
6.211604
0.637985
0.262570
-16.805107
-19.334624
-12.834176
-6.289202
-19.967433
-20.496826
-19.591876
-32.256157
-24.835267
-20.475857
-34.177948
-39.847985
-33.278917
-35.621901
-32.902559
-35.335383
-35.167014
-29.427874
-18.959332
-25.448621
8.927958
10.674422
8.597544
24.831666
21.983561
11.195271
1.538702
-7.424241
-11.552422
-13.390890
-9.320702
-3.154345
-15.286955
-16.077010
-13.591004
-20.084113
-31.057143
-30.625748
-45.907804
-51.218314
-42.987944
-40.694096
-39.617729
-46.409205
-40.449455
-37.200607
-38.064729
-43.535186
-19.774322
-14.070012
-4.732332
28.126963
18.500918
9.341397
4.006027
-5.267518
-9.939429
-13.854923
-4.953807
-2.918480
-12.622065
-20.649635
-6.815166
-12.127735
-37.004106
-44.271535
-46.771552
-43.651802
-36.753954
-24.733283
-29.852589
-17.213054
-36.201710
-40.213072
-42.161862
-40.830071
-33.341318
-18.043287
13.596462
43.703482
25.090563
15.377863
7.843378
-2.825408
-20.559382
-12.206620
-6.171104
-7.692169
-9.526807
-8.775851
-2.875313
-29.897564
-33.998608
-41.417037
-45.805781
-31.472253
-21.996254
-13.010274
-1.177991
-7.426270
-40.079515
-49.525683
-52.317049
-59.472616
-42.846064
-41.097329
-5.936346
11.303132
22.086294
15.623801
3.939850
-4.052411
-12.266180
-29.073083
-11.967929
4.782563
-8.751056
-14.147349
-26.193461
-24.899968
-51.107566
-44.887698
-42.416292
-12.002936
9.673004
29.012894
29.997546
21.592326
6.543166
-2.559984
-22.944393
-35.978021
-33.810674
-29.903231
-19.994641
-8.443078
24.237530
10.490261
-0.356227
-7.574316
-16.930101
-33.589072
-10.958209
1.049078
-11.997583
-20.036929
-29.358368
-37.120692
-47.023945
-47.629598
-45.525172
2.456385
16.558055
8.666144
12.395591
0.086135
-5.299630
-5.614973
-16.663603
-28.705216
-46.012172
-36.185383
-19.470902
-17.524246
16.600546
10.871613
-3.340752
-3.934446
-8.298170
-18.178354
-29.821102
-13.279543
-13.889629
-28.831515
-28.594811
-37.859294
-40.674081
-53.439344
3.586891
15.634641
-8.755935
-5.539172
-12.560039
-9.866870
-13.513000
-7.629542
-0.369653
-7.159846
-24.871319
-40.187076
-38.090924
-31.958047
-9.530761
-4.229347
-21.735303
-5.984365
-8.950189
-14.064102
-25.093717
-10.689916
-17.657948
-25.249834
-27.199096
-34.730124
-39.810161
-44.443695
-0.181009
18.110881
-4.983743
-1.690809
-10.323185
-10.544863
-0.940575
5.603082
15.197423
7.516084
-25.721537
-35.914100
-39.904177
-26.061677
-10.066333
0.793311
-22.546544
-13.181275
-13.695833
-16.358712
-21.687135
-12.101219
-12.892767
-21.003435
-24.434642
-34.459751
-44.745064
-49.598433
-16.548288
0.463728
-9.803400
-4.634873
1.811626
-8.293335
3.230283
0.641849
3.534749
13.633022
-30.625064
-42.124626
-34.730323
-29.792068
-8.172863
-1.753083
-14.068010
-18.064608
-21.996444
-18.166419
-21.594976
-11.515795
-10.037574
-15.132257
-21.964207
-33.083183
-30.308455
-47.556165
-26.859847
-19.510107
-17.915925
-7.998544
-4.507493
-4.558561
-3.519008
2.084868
0.349429
-5.503972
-26.143294
-24.718485
-20.510506
-23.202537
-1.465888
-15.952938
-8.976504
-14.996166
-24.157989
-23.331281
-24.809413
-10.764136
-12.224783
-13.073032
-18.546918
-37.098994
-25.262342
-49.750894
-37.041280
-32.894175
-31.282417
-24.691338
-23.741441
-15.496879
-17.203358
-8.981996
-32.596731
-28.044987
-27.035960
-19.776300
-20.571850
-22.391093
-2.620994
-10.252616
-15.934067
-17.213177
-21.743342
-24.332160
-30.571641
-19.194040
-12.225945
-9.176122
-5.205910
-30.778707
-23.926307
-45.861221
-33.845555
-48.164507
-52.717252
-20.017934
-17.385156
-13.340346
-25.108769
-29.784527
-26.749806
-31.646560
-39.960810
-19.331654
-20.166864
-25.320218
3.931220
-2.800674
-11.004827
-14.728866
-20.791164
-21.598818
-26.341682
-22.393645
-13.050754
-11.961755
-7.212663
-27.136544
-37.151346
-60.202952
-55.176823
-58.551937
-35.182834
-36.745212
-40.072443
-42.148328
-49.322281
-49.009832
-49.506971
-41.080346
-51.888953
-30.141582
-27.481585
-31.927272
11.164625
-0.199923
-8.526167
-9.831974
-16.028618
-17.796674
-26.672508
-22.067517
-11.555524
-12.639592
-8.526919
-24.385539
-24.244747
-39.938663
-41.546859
-46.627216
-23.948859
-29.893412
-36.157496
-39.290468
-47.340622
-51.890023
-48.324420
-37.835835
-38.198634
-20.715338
-20.721036
-23.836742
5.184542
-9.491029
-7.411531
-9.524284
-21.051575
-26.180533
-30.081697
-14.384910
-8.248865
-11.193629
-6.018555
-12.482426
-12.440990
-23.185512
-16.881784
-13.423880
-16.735620
-29.250200
-39.183038
-41.665492
-38.310753
-39.481177
-55.642307
-44.169990
-44.147050
-21.613348
-39.185284
-41.877045
-5.821629
-9.210213
-15.165776
-1.573555
-19.083715
-18.710414
-26.015757
-14.618623
-4.759738
-10.272583
1.013130
1.012310
-9.838039
-19.016198
-1.883814
4.486878
2.188962
-18.460707
-31.002345
-33.328663
-34.934597
-40.608111
-50.551494
-48.195067
-35.940734
-21.743343
-35.449503
-37.999350
-14.809910
-18.411790
-18.498533
-2.827430
-19.203690
-17.816086
-33.947967
-16.004183
-13.838668
-13.911519
-9.911752
-2.003207
-14.177603
-14.309561
16.942916
21.792465
0.353528
9.546306
-6.299170
-13.435877
-20.323421
-22.412666
-29.914380
-29.762058
-31.676500
-15.441472
-32.536880
-33.912270
-10.878313
-20.196540
-17.829451
-19.750774
-17.459110
-23.739189
-30.236221
-17.889001
-14.628035
-9.060342
-6.915737
-6.348954
-8.873242
-8.888312
15.684689
29.301200
13.882120
15.614710
-15.362127
-5.049990
-9.960006
-21.333737
-27.542763
-18.814769
-43.052267
-18.452271
-16.560610
-18.809837
-8.987311
-24.858059
-25.502110
-17.918389
-17.362727
-24.896317
-31.656210
-18.651858
-14.458697
-14.459352
-8.053267
-10.783702
-4.569557
-6.301722
23.216678
38.545952
18.248388
14.096476
0.947496
-2.767089
-7.709212
-6.361013
-27.781669
-21.850303
-22.322454
-30.068103
-47.689030
-15.034644
-11.253217
-24.125719
-22.908922
-23.881232
-17.584705
-18.762812
-37.882535
-24.245934
-27.618533
-23.468415
-5.672888
-9.847896
-11.035664
-8.517885
38.565363
38.147112
18.997157
18.466210
-2.526410
-0.433064
-14.260602
-9.271233
-17.478985
-24.517159
-28.451498
-30.649799
-36.350867
-19.767412
-5.723110
-9.637453
-10.160178
-15.730383
-12.035179
-18.055839
-33.834031
-20.059045
-21.659649
-30.658358
-21.983934
-16.972493
-9.260882
-13.609221
36.229188
41.914546
20.839135
23.311260
2.507167
11.286936
-14.062537
-7.882544
-30.239410
-30.668972
-32.556155
-33.329170
-19.420683
-5.598842
8.446234
3.806773
3.648297
-6.643308
-15.122954
-14.810998
-16.607635
-4.906403
-13.499251
-25.416271
-13.022333
-23.813131
-16.586165
-16.216723
23.117392
42.471340
24.206068
26.896240
17.414763
20.922733
-1.087438
5.798867
-21.526109
-27.177361
-29.683602
-31.434738
-19.499032
-2.825219
11.518714
9.039142
-4.774155
-5.004549
1.186312
-13.727928
-9.299705
-8.682667
-16.510953
-22.739943
-18.595399
-35.138564
-30.291526
-9.518023
15.373726
-2.012079
6.091926
3.917302
30.513965
21.918023
-11.786353
-4.502748
1.116268
-20.753198
-23.955838
-27.342357
-7.756723
-0.790637
12.790751
27.540798
-4.779583
-9.091092
-9.370185
-11.451257
-10.210321
-7.182503
-20.751632
-22.184447
-26.104795
-36.653303
-29.018495
-24.371252
-6.348317
-6.290255
-0.578561
4.316649
22.878765
2.679146
4.453085
-2.760958
-25.469218
-26.397430
-28.239431
-33.444322
-9.235859
-2.906846
11.736253
8.053538
-7.215839
-6.509293
-10.930001
-9.301816
-9.755354
-4.236546
-17.952326
-24.635837
-30.685680
-42.168005
-24.143916
-17.769268
-13.189716
-1.550829
-8.994663
-6.371561
2.636994
3.281151
8.574937
0.287518
-10.996104
-39.271615
-15.798479
-20.263604
-7.455341
1.471171
-3.386654
9.577839
0.419947
-6.436783
-12.518686
-9.936003
-4.301866
-4.905425
-16.800960
-23.729387
-27.454850
-36.784005
-36.929109
-18.934976
-18.651938
-14.739862
-11.496603
-10.785756
-3.604690
-6.914572
-4.352743
-12.715280
-11.301497
-29.748201
-33.218090
-27.785736
-25.440098
-26.185768
-5.126004
-8.962475
-2.751021
-4.273256
-6.475583
-17.098795
-14.276890
5.995069
21.117318
38.381137
-11.342194
-27.884564
-3.883196
16.452579
-9.050268
-53.638259
-54.361567
-26.117624
-12.733933
-12.492488
-30.857391
-21.133309
-24.123709
32.002897
-18.963618
10.146164
7.416743
4.991839
-12.847280
-0.752919
-0.008750
16.573230
-7.595946
3.375125
33.525691
-6.274026
-2.481017
3.898450
22.940321
-0.474434
-23.737828
0.062730
22.393067
-47.913065
-61.966495
-21.518115
-22.031377
-27.868994
-21.791675
0.801838
-21.239197
8.099346
3.002410
44.006157
34.756127
7.072842
4.657166
17.050390
6.036212
7.252636
-33.547553
-42.436295
-17.300691
-8.807732
-7.088103
14.870260
4.602916
33.530064
4.231660
20.013931
-32.292777
-34.029116
-76.647242
-118.583963
-124.220920
-126.136348
-73.947049
-75.370557
-36.463708
-20.549153
-13.079960
4.594161
-6.240585
28.885573
52.472711
24.667068
17.579607
-3.012135
-25.179399
-30.808046
-26.939039
-14.730118
-6.155940
0.849988
26.998316
59.309513
31.616247
15.440317
-40.491925
-59.189594
-73.334922
-84.041734
-99.714421
-94.445441
-54.725902
-96.457229
-42.358436
-25.003286
5.361221
17.888939
-14.199513
55.508552
77.450470
49.663279
42.946603
18.145084
-29.994589
-40.691439
16.052547
2.231543
4.329692
16.169517
41.450747
43.028486
45.394741
10.311108
-8.434362
-54.391419
-96.212125
-100.264159
-95.614777
-97.640617
-72.971164
-62.611982
-78.098595
-68.798749
-41.923349
1.106655
12.988181
44.348516
86.967343
71.952168
37.872093
38.632272
-50.725074
-39.318775
8.404818
0.578470
-2.762374
14.716856
59.602775
22.963221
35.959139
-1.537408
-15.191597
-28.302393
-69.416205
-59.020115
-47.260443
-51.790300
-58.684951
-55.526857
-58.878102
-50.572456
-75.862255
-27.485748
-2.562788
-24.965570
44.821072
58.803256
15.180636
59.166265
-41.037143
-56.056146
-12.643327
13.029071
48.642704
41.407809
-2.323426
8.251142
-18.397268
-18.780137
-14.054936
-18.654712
-79.263625
-31.281984
18.011387
10.028076
-31.013426
-22.228191
-45.750165
-42.485621
-37.359624
11.321203
-15.980380
-19.542813
28.123392
13.882253
34.848576
61.363220
-28.530234
-51.332700
-34.384837
46.112082
57.559344
55.381215
22.484009
44.420882
-30.386525
-30.724915
-31.722443
6.556193
-16.566195
19.961134
0.782980
1.786899
7.477144
-3.186691
-34.193173
-9.952635
-1.820520
3.408921
2.149376
-4.526404
31.055879
39.468962
16.583645
55.663542
-37.803082
-21.530680
-28.651393
12.383159
44.525812
21.490769
36.513497
-24.709466
-24.867942
-29.971103
-0.072230
28.945349
38.389372
71.230093
29.531340
34.778938
51.751442
13.831706
-24.581788
-31.729539
-11.934408
-21.735418
24.813510
7.818231
37.044999
48.157791
23.605326
10.781077
-15.612977
-26.345721
-6.732790
7.327590
31.943776
18.074333
42.640179
-11.492503
-35.211580
-32.653109
-6.722012
45.057032
21.955973
28.168315
-11.844210
-16.853196
-3.979885
-19.840929
-43.553573
-41.772291
-30.502380
-42.753970
1.740369
-15.511352
63.465145
73.534824
34.621707
12.020749
-47.661045
-34.737470
-16.843905
-0.605967
-11.811384
33.109920
38.923937
-31.308869
3.788555
-17.669062
21.854181
89.027546
63.620652
68.693599
40.467719
-0.238018
7.328100
-4.896588
-11.878825
-5.562739
-58.409548
-52.580225
-1.637128
-6.244129
62.353682
75.089070
59.519822
-5.913966
-41.739686
-53.717384
-39.345404
-9.183553
-1.596262
36.341785
24.029903
-5.197975
5.134117
-21.882139
23.691733
89.112090
100.072167
77.574625
58.220860
23.966185
-5.877634
0.496418
0.861483
-9.133971
-76.288462
-61.801576
22.583565
-2.982614
66.114205
74.361713
40.360885
-7.482323
-42.032905
-62.030317
-25.260200
-14.916442
5.615349
38.340637
34.362371
-9.375319
-13.917192
-25.200048
10.756192
68.145031
95.821191
89.195944
54.312340
49.274312
16.395098
-15.262271
-27.419734
-31.830009
-89.070077
-60.243854
0.168746
23.201409
67.474624
69.652982
36.921950
-11.882626
-57.156088
-58.164074
-39.601716
-35.795753
-5.777430
35.816684
-1.764646
-17.949873
-7.638369
-35.867965
6.814467
32.344824
25.623320
74.429073
71.366900
41.198074
-12.555320
-30.948756
-18.391561
-53.410360
-104.882628
-85.991235
-32.742944
4.433808
30.016204
16.312093
21.086765
-21.885522
-54.111477
-52.820416
-46.695454
-40.447491
-0.907669
20.810518
-3.949064
-43.794739
-48.737057
-68.320992
-24.636752
6.428606
56.994764
54.434362
57.701062
18.471188
-8.328886
-20.211061
-38.274196
-54.763075
-99.498906
-80.611637
-38.949927
-45.824374
8.534346
-17.362244
-19.051980
-37.962153
-36.326607
-51.227852
-32.897276
-41.538233
0.847613
17.787889
-7.760827
-50.784020
-65.537542
-83.501322
-37.917403
-4.477624
32.141458
44.700853
32.947299
31.366614
-10.042102
-15.872486
-71.413956
-82.968385
-73.863997
-69.197600
-15.598198
-28.490308
-3.227543
-43.134485
-7.780696
-24.211362
-33.249127
-37.865703
-47.946819
-48.576812
-18.772969
18.321807
22.819771
-40.617893
-67.786959
-49.674914
-65.321041
-9.767959
-10.441443
34.549724
10.199021
0.217321
-1.565152
6.680755
-19.985783
-27.551760
-124.995851
-86.801130
-31.251583
-37.443722
-21.013481
-19.240971
8.591770
-2.736393
-36.397905
-24.043677
-39.966882
-49.493032
-20.999674
8.591472
12.270280
-41.632556
-82.070887
-62.766065
-24.177327
0.688760
-4.538710
20.673869
18.678447
-3.422416
-12.771425
5.201657
-7.113768
-1.789720
-62.046674
-62.661973
-34.351679
-43.729494
-44.221224
-42.967310
-16.667398
-21.146570
-34.991302
-23.865642
-32.615166
-46.197143
-24.768530
17.683352
9.839347
-33.174568
-57.300003
-41.996366
-14.541301
24.911397
-22.210709
8.830574
-30.484631
-11.405938
-9.129842
24.804564
47.237174
65.312048
-24.702638
-47.282031
-26.106328
-48.506159
-31.890642
-40.242630
-26.806288
-35.264680
-13.134139
-25.095612
-33.670770
-55.807863
-44.617087
-13.204553
-10.873084
-8.941423
-33.750203
-9.633481
-4.335231
68.158978
4.518175
16.256996
-64.328769
-45.207249
-28.365577
-21.643116
75.664931
77.876967
11.345752
-33.837627
-21.361329
-38.167428
-43.331285
-43.936681
-44.487376
-20.867571
-24.799797
-27.557969
-31.128214
-25.394378
-41.096976
-13.329271
6.477373
-8.751893
-9.989562
26.286348
18.086910
74.787361
47.782587
3.696969
-65.135523
-42.383021
11.443769
50.500240
72.702128
69.300390
11.965399
-6.663458
-40.298025
-43.770408
-29.595849
-45.384644
-43.753642
-9.207082
-52.643241
-61.570661
-37.625182
-21.729144
-38.427826
-3.825331
-11.578033
-20.854714
14.791155
26.635709
24.159896
55.616556
26.940132
-4.772650
-36.375482
-17.073813
-27.157149
21.779806
54.949798
43.233888
26.748828
15.996599
-6.506338
-37.321888
-42.043070
-38.091975
-37.508488
-34.705411
-30.199721
-41.045648
-42.268275
-17.389787
-24.049108
8.431784
-4.426348
-32.128712
-14.199752
7.079782
28.952092
82.285825
15.415616
8.164686
-3.534573
9.383747
26.235792
4.320551
30.385431
62.302289
3.559437
-11.537196
-7.624766
-22.944661
-18.490306
-27.436401
-31.319882
-34.035651
-18.347154
-26.565782
-18.889206
-27.784414
7.984109
6.336878
8.587923
-23.395417
-6.083425
12.781863
44.043788
85.166176
40.285165
-6.733489
11.826756
35.532856
27.170260
55.778988
61.719856
48.689801
8.780995
-4.956248
-0.129303
-30.161773
-13.511905
-14.603922
-23.856785
-10.319698
-12.550394
-51.977481
-26.780015
-8.051777
-19.980318
-14.203183
-32.539550
-20.527542
32.185145
31.930718
40.684550
19.189716
18.529794
30.132185
11.477114
0.392416
-27.575840
-2.502431
53.820017
34.510202
10.336025
-17.544857
37.082848
3.858734
-47.757856
-19.791438
-18.199613
-4.794035
-25.341263
-20.785934
-20.037705
-41.692238
-45.220349
-24.616200
-31.268527
-11.399274
41.803766
10.878139
4.246191
17.556833
16.484095
20.507709
25.217356
-6.309858
-14.284013
4.245388
10.119217
29.913033
26.040952
5.678565
64.814884
16.395962
-27.936132
-9.694002
-8.707600
0.319217
-21.647872
-27.639813
-18.415044
-49.248222
-59.096405
-38.353450
-40.310921
0.452773
17.970118
2.352820
-41.082270
-50.055351
-33.426168
-23.393743
-21.841500
-16.692047
-17.434039
-14.728160
14.497796
5.777537
39.470049
2.944085
82.603829
43.176485
-14.158138
10.957605
2.988014
14.461301
-32.019923
-37.251610
-18.672185
-30.689616
-42.264709
-38.557440
-29.843075
14.050834
-13.911573
-42.580519
-81.104185
-84.082319
-47.738254
-48.827916
-32.571647
-38.477462
-15.658440
-21.144131
-23.377560
-4.265340
-0.156282
-12.155892
19.644551
-34.893680
-22.804453
-25.383174
10.376763
10.532401
-14.011111
1.977984
3.757162
1.799032
-1.788323
-10.772018
-1.355428
2.154306
5.310177
-2.227704
-9.976723
-0.338346
2.216279
3.279594
7.346552
3.252509
-8.067232
-13.524139
-2.798134
-5.085020
1.883029
-1.647402
2.195163
18.383472
3.258746
0.955550
1.327705
-0.975906
5.146138
-2.639818
-3.205458
-3.463563
-9.395854
-5.606843
-1.794010
8.627484
11.456915
9.807368
3.856787
6.986767
5.549918
4.975848
5.796501
-3.165025
-0.723676
-0.155142
-5.056930
-0.862418
4.555385
0.675569
-1.332670
-10.657018
0.163641
0.377828
-0.677040
-0.582117
2.342232
-1.717292
-8.374999
-5.074033
-15.490531
-9.298839
-6.895431
6.654762
9.369109
10.824409
-0.534862
-7.336077
-9.354815
-0.977555
-1.411525
-6.189739
-5.410110
-8.795081
-14.827522
-22.056654
-25.489368
-28.907206
-18.969583
-14.390715
-8.936839
-7.775091
-5.862197
-2.346180
1.138597
0.741858
-4.096233
-11.422211
-13.189112
-6.855628
-10.712971
2.140563
2.262516
-1.555318
-0.274244
-6.614751
-10.020503
-10.534154
-8.746022
-11.494668
-16.222480
-17.601153
-21.597728
-31.508843
-36.907260
-36.815359
-40.788281
-29.366837
-9.710795
-9.949955
-10.735111
-5.430409
1.165122
2.979905
-1.917614
-8.254098
-5.754121
-10.220119
-11.767917
9.584799
5.592460
-6.392114
-1.821575
-0.717020
-10.609958
-11.243343
-11.376617
2.307016
-10.684547
-14.057812
-11.954313
-23.093817
-22.905338
-32.235089
-26.120930
-27.824248
-12.341000
-13.461725
-7.821018
-5.259482
-10.415562
2.151718
-2.820956
-7.138154
-1.798759
2.986119
1.042484
1.277387
7.470454
-4.063838
-2.561008
-3.199249
-12.743274
-21.001687
-9.743382
-7.272158
-16.577811
-13.953470
-11.560336
-17.937614
-19.793393
-30.746451
-20.620048
-19.096130
-14.050122
-18.217558
-9.187337
-2.077099
-6.341094
-12.457657
-5.589301
1.287587
-4.847792
4.000005
-10.520196
-1.072049
0.540562
-7.349619
-9.230022
-13.873051
-13.777646
-8.800565
-5.351509
-7.496090
-2.283942
2.192852
-2.246941
-17.198994
-24.583759
-31.254938
-33.957048
-26.170042
-11.980941
-14.733058
-17.435345
-5.407823
-5.637317
-11.569924
-5.996343
-0.249670
-8.355222
3.313370
-9.997094
-3.411250
0.965810
-1.795774
-4.060874
-27.135449
-22.072850
-14.866552
-2.715654
-1.481309
-16.597167
-23.028519
-5.526208
-17.705784
-18.965533
-29.312149
-36.301608
-31.624531
-10.429123
-15.014134
-15.230372
-8.675757
-14.984392
-9.214595
-5.782833
-2.128337
-4.977332
-6.112330
-17.394522
-1.365356
-12.901903
-3.715204
3.971651
-7.742435
-10.854361
-16.620227
-7.850685
-11.443685
1.720386
6.247315
-10.090781
-16.604125
-34.100516
-24.248599
-19.906255
-20.224109
-6.973669
-10.143463
-11.541751
-2.174176
-13.082471
-8.592528
-7.598587
1.169843
-1.628292
-5.609543
-16.502243
-1.845709
-14.097342
-8.449880
2.496588
-17.541329
-18.664827
-22.226090
-17.190750
-6.732229
-9.341787
-4.814237
-7.000039
-15.283929
-20.037380
-17.904064
-18.565015
-17.433047
-8.045307
-8.660682
-12.268639
-2.015658
-11.006337
-10.731727
-6.523957
1.161529
4.578865
-8.506511
-16.715508
-0.175781
-13.765356
-8.292799
0.176989
-20.686015
-29.356737
-24.957595
-22.249365
-15.459322
-17.027293
-4.922635
-6.752202
-8.915835
-9.059340
1.372244
-4.972823
-10.748024
-0.393577
-5.122552
-8.582521
2.925093
-14.700479
-10.847549
-4.850367
2.831147
3.568239
-6.349325
-22.292724
-8.126370
-14.803373
-12.580851
-8.926080
-26.167617
-20.494748
-17.389905
-14.832332
-14.899367
-14.997430
-0.119829
-0.806642
2.171259
-3.772717
1.028638
-5.641830
-5.472726
8.322963
-0.926538
3.416618
3.240617
-18.046426
-9.775927
-3.883661
6.252386
3.574673
-3.620984
-18.813420
-11.425478
-7.615810
-13.163804
0.028051
-4.368772
-11.877399
-8.073408
-14.149397
-11.235246
-12.035204
5.096467
0.483527
10.603629
5.235153
2.349374
3.180782
9.421817
6.493936
9.841493
12.476815
12.013195
-11.972666
-11.869178
-1.112184
10.404823
0.899180
-1.709332
-20.657586
-12.739209
-10.092670
-8.247964
12.562715
12.378830
16.023703
3.789894
1.397609
15.615177
14.415592
21.183421
18.412478
24.025371
14.054220
3.407508
5.765483
8.473810
9.768743
18.880310
10.487375
7.894050
-10.319725
-15.151810
2.463900
11.851071
0.662233
0.257916
-17.740341
-12.310208
-6.200450
-3.688576
12.589084
11.426931
20.027210
14.285631
14.203016
24.023455
22.772218
14.165595
18.318977
25.291413
13.720832
6.730122
2.577094
5.922500
8.819001
11.748757
6.790921
3.226188
-14.554649
-14.824452
2.075874
9.345807
-0.356310
-2.910548
-13.440053
-10.066399
-1.584303
4.150431
19.991300
15.148052
15.831181
12.990986
7.592445
21.696491
25.254465
21.616655
23.064240
31.003546
22.123185
9.627734
-0.533682
-0.604270
15.449571
17.233092
7.286631
2.961980
-18.858787
-14.946191
-4.369357
10.275190
-0.484006
-0.361517
-14.132116
-4.509969
-11.256943
-12.219022
8.584875
4.680062
-2.294478
-12.037958
-3.281625
-9.049468
-1.462642
0.762839
7.444688
19.027483
11.602591
15.489857
6.497210
6.399795
13.879541
10.678058
4.942876
4.622597
-17.463571
-12.029779
-4.516098
11.226061
0.916008
0.510422
-12.542586
-1.231740
-2.147899
-3.576237
-3.153640
-2.940781
-6.950556
-16.316532
-9.705581
-11.028467
-12.627509
-10.348031
-6.161323
0.937724
1.423190
11.566100
1.349000
6.259560
20.290039
14.574087
7.312500
4.550811
-11.511469
-18.029488
-2.831141
9.870884
-4.951433
-4.994445
-14.997400
-6.804671
-7.997946
-9.030366
-1.632345
-8.643083
-10.156923
-13.356302
-9.197523
-22.615221
-30.505295
-22.342790
-20.086471
-14.150789
-13.840460
0.032470
-1.132125
1.219771
13.035884
8.628849
3.733103
2.379571
-15.713862
-14.250844
-2.337019
9.929113
-0.810659
1.764101
-15.030626
-10.971063
-12.204735
-14.698638
-8.686562
-17.574690
-11.397795
-12.132457
-2.008066
-15.566052
-16.006607
-18.415351
-28.300300
-23.751492
-14.519582
3.432146
-2.207016
6.318255
14.176081
16.261741
3.889262
-3.345881
-18.349767
-11.461011
-1.711466
10.341021
-1.876102
-3.181222
-17.628093
-15.694401
-15.054260
-17.235293
-4.782052
-17.141405
-23.797914
-11.058653
4.635981
-10.359458
-14.376805
-17.151683
-33.179112
-37.620733
-12.981236
-12.156940
-11.571763
3.334114
12.769797
11.442291
0.821894
0.229777
-10.340554
-7.978491
-11.364643
3.100063
3.691155
2.985479
-14.378850
-11.120589
-14.498407
-13.475568
-0.892572
-12.369932
-7.660610
-16.586107
4.063566
-5.292977
-13.215449
-19.293319
-30.859233
-29.884693
-21.343139
-16.740747
-9.007065
-2.970655
2.055336
4.806872
-1.619900
1.113027
-21.078704
-13.356687
-14.855019
-4.707047
4.030573
-0.445602
-15.062916
-9.362143
-14.693356
-17.439799
-12.171581
-13.489734
-11.072050
-30.541903
-11.186293
-17.226477
-16.990847
-14.021094
-44.967384
-44.887813
-27.865625
-19.829128
-10.317631
5.335780
3.871364
3.923301
-7.461338
-1.897843
-21.687017
-16.937954
-22.885066
-5.633916
-0.111413
-3.564622
-6.297285
-12.349559
-14.103156
-17.474626
-10.132323
-12.261319
-11.319454
-11.896273
-6.189511
-10.696155
-6.112681
-11.791906
-32.484717
-37.760686
-22.566525
-11.129478
-9.687010
7.895295
3.016979
1.073400
-3.947983
-4.297439
-5.875409
-6.028647
-5.757618
1.813427
-6.536938
-3.761428
-0.914110
12.076158
-10.532596
-18.091883
-8.244997
-11.479934
-17.766707
-24.467003
-8.758254
-2.641174
-18.207191
-11.788249
-22.373643
-22.567288
-12.332358
-5.368988
-2.345789
-7.163623
2.763809
3.036180
1.944559
4.002020
-1.565437
-6.661419
-7.467765
-5.196324
-8.053210
2.819916
3.632227
10.718165
3.251222
-10.102909
0.900550
-0.084200
0.711409
3.568686
9.723903
3.270860
2.691770
-1.139637
-7.952372
-7.627303
0.274193
6.242470
9.271748
1.364038
-0.648719
5.906532
0.967285
4.468215
-8.401211
-7.309324
-9.678267
-5.384641
-11.727861
1.888913
4.557871
19.311843
19.448424
-4.074554
-0.667818
0.402473
1.202105
0.383530
0.882025
0.017420
2.041429
4.388119
-1.195634
-1.707909
21.832685
14.938343
7.644037
-2.201332
-1.430816
1.722216
-1.442340
0.797092
-6.433474
-6.389134
-8.716560
-0.813312
-8.948485
-0.143636
1.659008
14.220777
22.177643
17.982164
12.683596
11.808443
5.426535
8.257554
5.074633
4.514348
9.332433
12.666188
12.218037
12.843740
22.011492
18.162681
19.313901
16.335791
1.881918
-0.960168
-2.412567
-1.039056
-11.912152
-7.723580
-3.299819
-2.612692
-4.951574
-13.540540
-3.023937
-18.935213
6.401924
0.644226
-4.244960
-5.909696
0.214452
-3.249302
-5.682789
3.172211
-2.762150
4.603773
-1.026405
-7.083212
-1.048512
1.463501
0.413840
6.674413
1.505000
0.203401
2.048137
0.668294
3.156871
-8.215909
-4.176601
-4.788007
-10.297512
-11.776511
-20.753660
-22.365348
2.987413
-9.207520
9.771022
14.554975
11.508012
3.518882
5.153185
9.598565
10.013746
12.089916
-2.956487
-3.986962
-4.717185
-10.147509
-1.672174
-3.382720
-6.842547
-2.309102
-0.731459
-0.834008
0.733210
-3.444085
-2.576588
-1.052574
-10.483428
-17.633836
-18.395204
-39.953990
-31.289883
-21.074377
-24.877952
-14.811525
-11.375741
-15.674760
-9.330666
-17.391376
-8.914817
-10.659325
-14.175203
-32.001292
-19.390474
-28.572097
-31.269239
-19.092873
-13.242692
-8.689036
-0.983785
0.075221
-4.592367
-6.876118
-0.903992
-2.045706
-5.508240
-15.342491
-20.271015
-36.918472
-38.467991
-41.439140
-35.247664
-22.154111
-15.397911
-20.858013
-12.843226
-15.207887
-8.182232
-11.052614
-14.629929
-28.407204
-24.632263
-42.541459
-40.960002
-17.144506
-12.013159
-13.854195
-4.631970
-1.169681
-2.063416
-5.204873
-6.867286
-4.694575
-5.028728
-14.472206
-15.216931
-24.265992
-34.113240
-47.342863
-42.650128
-22.709124
-6.930627
-8.823773
-8.372273
2.585944
-6.319197
-5.727730
-12.418467
-16.897509
-14.432113
-25.194061
-15.101631
2.083052
-5.641031
-7.155828
-1.296812
3.637451
-10.928978
-3.809883
-5.492161
-4.694170
-3.952788
-2.602227
-10.975109
-38.916455
-31.307570
-43.839003
-45.606994
-20.295203
-8.980088
-5.446514
2.160254
2.588497
-11.863786
-12.996766
-15.061369
-24.393736
-15.202624
-24.212774
-10.293253
-9.165837
2.072878
2.607832
12.659097
2.002914
-12.286786
-24.389109
-3.452721
-0.216472
-1.275165
-0.452514
-15.619090
-30.297148
-30.053513
-34.997715
-32.652852
-12.037110
-2.588633
12.396834
19.819055
17.399867
9.506719
2.301282
0.854452
3.798632
1.048106
-6.253923
-4.566229
-1.087554
9.536531
7.243592
2.473273
-9.036548
-13.612386
-28.444556
-3.792957
-6.943294
-9.820373
-5.679844
-18.547767
-36.907336
-28.777116
-32.831052
-38.788972
-11.634130
0.193443
6.789029
4.468070
4.364406
-0.244867
-1.900554
2.074628
-1.168893
-3.248014
5.800995
2.466030
-2.200169
6.868566
7.114373
-0.761058
-10.959212
-10.570526
-15.670888
-24.343873
-7.425777
-14.357813
-19.047121
-15.239483
-25.193181
-35.366069
-34.732526
5.491068
3.942256
-8.086414
-17.209745
-19.749978
-13.925981
-19.878920
-15.381739
1.713649
3.848370
2.826180
-5.088547
9.559135
17.849436
20.738114
11.764273
-18.549468
-9.657333
-16.219789
-13.305842
-23.118084
-8.652314
-16.536427
-18.153252
-18.323302
-23.792806
-27.901739
-27.654211
4.295050
9.065373
-7.592318
-11.980991
-18.005721
-9.936377
-13.085164
-8.722459
7.725415
13.003269
1.495371
-0.953302
6.259120
8.296083
19.859625
14.364658
-17.052306
-10.310044
-14.303910
-16.455409
-16.001051
-10.584147
-19.591974
-14.104107
-17.401617
-26.935445
-25.085302
-26.223527
3.001783
5.942068
-17.362457
-30.504826
-28.414627
-19.049011
-7.594879
-5.370923
-5.706721
6.713049
1.389720
1.885175
13.106896
13.783223
22.920812
17.475465
-12.499160
-14.815082
-17.119032
-16.572761
-10.918704
-9.812845
-19.314390
-20.031777
-19.625966
-32.542373
-29.455742
-31.969909
8.341775
-6.156412
-12.520265
-22.606877
-35.596781
-29.600235
-26.561662
-16.897076
-12.824882
-4.251146
0.458058
15.401289
7.927609
10.008339
22.491319
7.050637
-3.378937
-12.568311
-16.663132
-16.625190
-10.136531
-9.674888
-16.763735
-16.792851
-25.681637
-37.309062
-21.048488
-29.987039
-6.109031
-12.642364
-17.080513
-34.451930
-27.202740
-27.407803
-23.686919
1.411506
-16.094265
-4.203596
13.073626
17.267391
5.427640
5.606516
21.408709
14.878076
-6.258291
-15.687849
-8.925754
-12.441061
-9.758170
-6.001861
-13.897909
-15.682386
-16.259748
-37.833072
-23.086492
-29.404911
-9.080760
-5.768324
-30.802233
-25.603287
-27.176702
-22.748940
-16.872636
0.353140
9.723328
13.136905
4.842874
12.772674
0.287541
2.059141
22.882340
11.703269
-2.201805
-7.984191
-3.847998
-9.549298
-7.872862
-7.874516
-12.425322
-19.412439
-25.605882
-42.908760
-41.920657
-34.589135
-16.482143
0.202830
-15.083663
-20.543167
-30.943218
-25.727287
-23.745184
-7.471325
6.910729
16.610869
-8.748972
-5.135047
-13.332441
-19.213910
18.688044
15.204753
-2.439960
-0.537960
-7.493463
-15.156827
-10.606914
-11.627764
-12.675973
-17.640218
-30.019764
-46.545404
-46.215715
-32.500102
-12.483351
1.805405
-6.369243
-14.130890
-21.873565
-20.180601
-25.162125
-10.803041
-0.230028
17.913342
-2.142617
-5.832422
-9.701550
-10.289282
13.861812
6.633123
-0.883783
0.302180
-15.404324
-16.991869
-13.866422
-7.320920
-15.049630
-10.035663
-14.896570
-24.892993
-21.112648
-29.383703
1.989882
13.625552
5.696512
-0.801529
-10.336814
-14.092902
-2.591457
-2.446518
-9.890021
4.975807
2.170459
4.158241
-10.484465
-17.685699
12.073211
13.609515
6.654728
8.327347
-11.751589
-12.995034
-13.511890
-8.264114
-10.671045
-5.454869
-0.707838
-11.615270
-18.548856
-24.983426
6.400762
21.007490
14.020428
-0.736764
-5.832499
-8.461923
-0.406523
5.310478
-11.229509
-4.339911
-4.465603
2.952439
-5.216469
-10.153797
11.006225
6.298569
4.953902
7.576252
-6.418120
-5.097070
-13.593284
-3.656202
-7.558371
-11.068117
-7.676383
-10.453969
-19.679105
-27.362059
4.765660
16.071485
-2.287067
-0.898522
-9.696773
-7.594333
-1.435074
-4.812259
-10.919420
-18.166661
-5.872930
11.398369
1.793131
-8.770225
15.653897
6.511719
0.221203
-2.260914
-9.642336
-12.724989
-13.820920
-9.825297
-5.489806
-1.892107
-4.179775
-8.303875
-15.322087
-24.743619
8.653142
16.879776
9.474544
-1.355795
-15.894307
-20.281235
-19.924180
-18.180790
-27.442631
-13.873184
-11.866803
4.600846
10.462184
-2.651144
11.346097
-3.287468
-6.691988
-7.763013
-10.552803
-16.936223
-11.728208
-10.079029
-4.812799
-1.095808
3.546792
-9.870238
-9.055115
-15.796534
14.171528
20.159378
8.187289
-0.514706
-0.676489
-7.024430
-18.393897
-18.532360
-25.206973
-19.778346
-3.271932
-0.442143
-3.634297
5.032449
3.377024
-7.839117
-6.501789
-13.741095
-15.183061
-14.185911
-21.355579
-9.270261
-8.326690
-2.828810
9.282148
-8.270908
-7.568566
-8.583969
17.786169
8.291563
-2.079172
-10.261301
-15.852770
-10.661477
-28.433591
-21.448344
-20.810884
-18.871616
-4.609680
-3.819973
-6.100750
-6.827962
15.463439
0.775752
2.408545
-2.252975
-14.940045
-16.209157
-19.235307
-10.027673
-10.868450
-5.018846
-1.625206
-12.225301
-13.785920
-19.289369
18.000479
5.208574
-5.619721
-17.706670
-12.430963
-11.764445
-29.839769
-19.760130
-41.155431
-28.388516
-11.632186
-7.339172
-0.388673
9.123227
10.950355
-1.694515
8.365515
0.926532
-15.095802
-14.892460
-10.911353
5.773164
-6.392526
-3.561294
9.741583
-15.402373
-11.905321
-14.324037
19.238965
9.890166
-1.627409
-12.011924
-0.011866
7.686776
-6.645995
-10.738438
-23.322786
-34.250111
-18.541680
-19.264481
-11.328859
7.991339
15.434520
3.078630
-5.541806
-2.705035
5.258971
-7.582305
-0.094096
1.719599
-2.526392
16.052145
4.980839
-16.072572
-17.607477
4.894552
2.772010
-15.637248
-21.904315
-19.120961
-0.732391
2.457631
-22.674371
-14.916866
-8.858082
-28.747102
-24.285114
-21.035863
-5.867606
-1.314121
9.661536
21.337170
2.463699
-2.493260
-9.090508
-11.257550
-3.486612
3.945802
-1.121308
15.223567
7.830058
-13.897911
-19.664013
-7.556855
-8.737731
-13.976236
-29.554195
-27.413864
-15.457639
-20.701230
-24.639966
-22.861773
-31.781925
-31.942464
-31.335101
-36.791615
-20.826970
-11.351084
6.381374
7.197502
0.847568
-1.130404
-10.005552
-12.881166
-2.983829
6.391874
0.872357
14.759032
6.967228
-13.096696
-4.972189
4.127559
-6.313293
-5.531489
-23.134245
-24.304431
-25.958447
-28.913481
-31.018970
-34.001085
-39.912274
-51.984232
-27.610112
-43.686793
-25.904954
-16.270636
3.067709
10.885991
5.665185
2.274591
-10.887567
-6.349669
0.403768
3.860706
2.940712
-3.891364
-0.491199
-24.052981
-19.809358
3.066240
-8.596008
-13.256298
-24.792345
-28.086088
-28.337071
-29.443941
-33.925747
-40.842381
-44.957927
-50.534051
-34.214554
-34.117978
-30.138818
-21.506621
0.784048
1.750313
6.543142
0.710111
-16.249347
-0.071051
-0.860128
8.936367
0.463368
-0.707557
0.823548
-18.389663
4.143931
-3.810595
-2.397930
-1.975644
6.545897
9.212518
-10.465844
-11.394029
20.102628
5.738367
10.419194
2.921976
-2.721458
-9.308275
-3.092087
17.358472
7.406336
1.174014
1.168032
3.067399
1.332823
4.611546
-6.265428
10.047781
-1.313786
-4.234948
2.025382
0.032904
-7.514057
-15.505917
-7.785777
-11.644621
-4.668062
-1.649994
-6.625878
-4.417805
3.604925
6.332876
6.582848
-0.209446
-8.666923
-9.139221
-7.047326
5.565317
5.297253
3.985954
-0.331660
3.152878
-6.163559
2.073962
5.228388
-0.206287
-2.534684
1.068469
4.499520
3.533605
4.128899
0.119183
-30.601115
-30.299537
-10.066400
1.162866
1.178531
-3.446454
-7.477786
-10.500869
-19.405194
-14.294690
6.573765
9.412380
13.198553
17.779557
8.424853
-3.510187
-7.912992
-6.617907
-10.080250
-2.772736
-3.133580
-3.131198
-0.226271
-4.128195
-8.309172
3.707630
-0.548813
-0.850655
-27.782256
-23.477592
-17.601236
-4.514766
-6.973677
-10.152688
-15.320820
-11.320803
-15.238803
-21.160136
-9.296053
4.246215
7.739376
16.057605
9.442726
1.104506
-1.919880
-5.405012
-0.583523
-1.743779
-2.570531
-2.815278
0.725798
-7.231819
-1.288362
6.917513
-20.437233
-5.502791
-2.745352
-6.481296
-13.113006
-11.124277
-13.153693
7.748675
-13.037729
-21.068545
-17.568016
-16.135451
-1.524181
-2.273697
28.612677
26.521917
5.520646
3.312477
-2.718079
-4.367806
-14.553954
4.619874
0.383070
-2.652789
-8.716954
-9.622918
-1.916147
-10.576595
-23.977729
-9.902842
-6.524907
-6.566768
-2.779142
-6.407430
12.076580
7.174856
-17.822910
-33.421254
-29.960045
-28.150353
-10.420084
-14.239072
14.573406
13.100945
2.831155
-3.117058
-5.007709
-6.592068
-9.554667
-11.309522
2.170995
-2.927871
-14.317642
-18.244284
-10.144281
-6.337013
-15.429616
-13.226924
-9.312878
1.346516
9.552110
11.312075
0.333485
-5.406233
-2.993291
-21.185496
-39.453369
-34.866378
-13.699782
-11.433089
-8.870444
-3.177244
4.088793
2.802289
-1.156512
-7.214718
-6.821436
-10.643742
3.553402
-11.811159
-21.141149
-25.811183
-18.694859
-13.328550
-16.173701
-16.051818
-8.815099
5.836873
10.586861
-19.968897
-18.288635
-22.510229
-18.365026
-13.361946
-26.060342
-49.818921
-36.673716
-30.729371
-18.361237
-15.200937
6.276705
2.978261
-3.359634
-7.832598
-8.524078
-18.768935
-16.463206
-9.785599
-17.389629
-14.680607
-10.641120
1.230152
8.230974
3.034961
37.306856
20.977180
-8.591560
-22.175024
-25.385671
-25.682969
-20.774552
-22.776228
-20.619791
-13.635820
-22.569676
-15.762042
-19.267025
-15.683518
-5.723168
-6.357154
-8.085749
-8.889894
-7.125863
-14.238644
-22.906776
-8.389942
-16.026647
-9.967427
-13.710083
-0.046422
5.670749
2.779865
38.457571
28.381996
-1.120465
-9.472537
-21.276344
-26.832921
-25.751144
-26.279041
-13.938066
-5.676335
-26.558459
-19.239947
-24.339079
-18.728683
-11.224223
-11.923377
-14.416424
-12.683312
-10.934915
-9.435509
-24.049183
-10.396302
-7.280755
-6.179324
-12.282723
-1.220030
-6.240778
-4.355904
29.247065
17.279305
-10.195939
-17.371466
-13.614856
-31.464893
-24.801251
-27.762292
-18.697162
-9.821982
-28.100927
-27.463028
-32.848421
-26.864097
-21.105128
-19.680477
-24.514265
-16.066544
-17.791358
-10.997585
-22.863126
-10.502273
-3.005367
-3.181570
-14.308659
-5.755505
-9.037021
-2.789562
18.866276
9.738188
-3.337153
-16.113634
-24.678186
-24.521431
-23.343565
-20.766384
-10.951712
-9.168974
-15.617091
-31.456554
-36.847650
-30.021647
-19.665800
-33.624856
-21.244020
-10.213506
-19.346552
-12.249261
-22.390304
-6.203977
-7.074788
-3.896071
-13.305034
-8.205359
-5.119146
-4.963308
11.830298
11.252953
-12.020354
-19.041827
-15.998518
-14.183487
-16.885527
-8.414935
-6.174505
-3.890112
-4.171754
-19.783656
-29.876124
-23.941027
-21.026288
-36.940956
-37.022651
-19.877989
-15.965825
-13.558164
-23.705356
-1.297080
-9.095151
-3.304314
-6.226869
-2.616931
0.504174
-2.084628
11.820145
4.652965
-13.933619
-12.149971
-6.736361
-11.546370
11.716130
8.690317
20.025571
20.378932
9.321828
-4.797507
-6.538453
-14.813490
-5.308935
-28.803061
-26.045811
-19.946536
-21.910231
-14.058922
-21.872702
-3.308071
-4.945109
1.802731
-6.270088
2.251725
6.427093
-0.891495
10.705551
-4.993533
2.637533
5.608565
9.249780
7.789079
16.539912
15.382617
28.298433
33.256593
14.504802
15.417610
1.219878
-4.126812
1.530420
-17.393639
-12.075935
-5.971171
-21.938845
-10.322388
-25.050320
-12.639831
-2.120952
2.932258
-0.779213
3.397321
7.959427
5.121820
7.722752
0.897808
5.171480
3.664125
9.319872
7.860561
15.214755
20.348712
33.368562
33.914095
23.626046
17.797494
0.066184
-8.630091
1.919104
-14.331829
-14.922644
-9.911935
-22.790790
-20.062556
-23.801672
-6.259142
1.954057
-5.444458
-22.665248
1.896248
-3.953861
-3.657852
8.266680
10.966993
10.796689
-7.401169
-0.852647
12.112403
6.888995
-1.394152
24.651242
24.660048
9.411377
-1.093525
-22.072960
-22.440561
-6.190188
-16.303414
-24.607871
-16.282678
-23.394292
-19.817931
-23.970554
-6.502892
2.264556
-6.320010
-18.861361
-1.121289
0.466948
-10.008808
5.179342
4.943454
0.859732
-8.627252
-1.585168
4.787841
-2.538757
-3.488901
19.351775
12.280971
-6.240477
-14.021392
-30.063713
-27.237399
-3.203486
-19.001990
-21.032706
-14.722439
-18.340882
-18.640688
-25.738586
-6.597823
-0.890367
-8.728058
-19.260153
-3.523540
-5.399192
-5.921565
7.119269
12.251944
-4.647255
-6.117691
-5.565828
-10.115053
-12.009389
-18.211085
-5.522154
-12.382484
-32.021435
-28.231040
-41.242610
-37.167396
-7.729966
-19.214926
-15.416501
-15.920696
-17.142848
-16.184911
-24.141772
-11.483640
-3.105297
-2.764560
-15.411715
-11.498776
-6.288410
-3.293530
21.537852
18.567819
-1.022877
-12.577379
-17.635565
-4.673064
-8.126709
-24.332677
-14.950243
-10.386726
-37.339911
-34.000915
-35.668564
-24.489862
-0.187914
-15.350111
-13.901515
-14.093726
-12.380534
-10.998560
-24.139459
-7.291585
1.735932
0.378805
-17.582712
-9.585219
-13.145731
-10.669125
16.151028
16.500310
-7.589695
-15.560241
-14.838876
-12.908806
-17.594117
-21.192376
-13.349131
-31.087179
-38.141695
-43.854845
-38.246991
-23.426810
-4.808184
-15.340369
-8.563991
-9.173084
-15.430483
-17.422770
-18.812945
-11.018965
-9.906701
-12.167727
-22.248900
-10.172629
-15.691280
-10.606245
19.673346
15.133394
-7.036424
-8.537179
-17.307480
-16.881747
-21.009805
-24.240717
-22.819833
-47.182402
-47.283917
-37.177060
-30.008614
-16.206463
2.926432
0.147362
1.359952
-10.195291
-17.472674
-19.903832
-20.758812
-20.522899
-20.548154
-19.000120
-22.077138
-3.011214
-9.209432
-9.346112
9.472363
9.212554
-10.410481
-11.029422
-17.517418
-15.397080
-38.237923
-39.747793
-51.331026
-61.650691
-50.532753
-38.130863
-27.554974
-3.191955
5.050220
9.073140
6.314600
-7.619906
-21.885049
-18.010010
-18.314508
-19.278560
-16.057085
-17.656670
-7.792486
-4.309477
-5.454719
-3.541950
12.638287
9.094231
-6.379686
-12.239569
-13.494344
-19.497605
-8.553140
-28.758978
-48.246062
-41.347692
-39.283325
-34.207653
-22.049910
-1.601682
10.517446
14.452303
14.878132
5.276616
0.175894
-4.683814
-10.853092
-1.425637
-9.973382
-7.942870
-4.741806
-2.244122
-9.401383
-2.015026
1.225386
-15.586217
-18.425072
-34.748031
-11.970977
-7.805932
-42.201952
-44.404410
-46.148683
-43.372368
-31.482089
-29.322790
-9.329182
-11.877110
19.964340
20.911401
9.995184
0.526399
-10.580067
-12.414772
-11.366518
-6.049624
-9.520514
-5.994604
-1.837174
0.215813
-11.762740
-3.794220
-5.306784
-13.402255
-13.000745
-27.785077
-11.581694
-31.953647
-36.086787
-40.812172
-46.360213
-35.161080
-25.731875
-24.760475
8.020635
13.700624
18.711168
15.078073
8.549337
-0.505728
-14.387762
-10.666064
-14.226966
-6.725153
-7.630545
-0.514695
0.318189
6.584170
-2.774400
12.353042
-9.286982
-15.671143
-21.452920
-25.069969
-26.980290
-30.104344
-31.454462
-32.213348
-40.494441
-29.958037
-4.661311
-14.208661
17.918545
27.760043
14.365871
17.404973
12.461975
1.708306
-13.641355
-10.910883
-10.906586
-4.633971
-3.460783
1.968176
12.496665
14.095386
11.924265
16.726697
-4.750001
-9.585881
-15.405835
-16.752469
-20.402808
-21.133763
-24.005943
-20.552752
-19.174658
-4.394815
-5.067321
-6.925227
16.484576
10.847993
5.555902
0.247103
-1.404445
2.754770
-32.285395
-31.912718
-4.840197
-17.061298
-23.903416
-21.608437
-1.732435
-41.210392
-2.899534
-10.508107
-9.859206
2.477247
15.613041
1.645717
-22.168678
-13.102145
29.149283
2.587770
-3.317409
-36.682857
-17.908229
-40.132145
2.371379
64.233161
12.309701
1.981855
2.088484
-9.223038
0.107605
-12.874891
-26.394071
-10.020595
-16.803293
-15.219121
-19.393317
-39.137035
-19.130173
-64.965143
-39.583569
32.471640
54.592431
18.943692
18.187967
3.645970
66.665400
52.440791
20.508544
-11.799724
2.170853
-46.138291
-52.606251
-4.559149
-2.947344
-1.923551
1.599752
-8.754049
-20.237097
-22.390678
-12.087620
-19.137991
-26.877465
-28.678430
-55.635333
-105.577026
-67.722877
-43.883451
-46.013416
-56.331085
11.001051
38.263178
49.815599
24.040863
4.299095
-19.890865
-71.679874
-103.213537
-94.910317
-115.037378
-105.247970
-45.100711
-5.237232
-20.863764
-23.691618
-22.521752
-28.351667
-19.806605
1.303638
-10.730107
-3.538144
-29.362179
-64.318456
-87.893209
-68.861418
-45.932700
-52.089849
-42.625851
-9.577205
18.071857
42.562876
23.116226
17.308399
15.437080
-31.839346
-75.855568
-85.603373
-136.939679
-108.532591
-41.986377
-15.688660
-14.424043
-15.163740
-23.070952
-23.474030
-17.181169
-11.581685
-10.037274
-2.987653
-24.824248
-16.610828
-31.433481
-87.065491
-81.428534
-51.799320
-28.638711
21.937559
45.750583
54.809043
87.268073
55.538181
20.716105
9.550299
-20.059001
-51.241202
-56.026029
-47.986739
18.349942
-23.424147
-22.014634
-10.376508
-31.241862
-30.225795
-13.912054
-5.208837
-1.335873
-2.999259
14.666492
-9.805481
-58.184960
-82.153098
-86.824540
-53.669848
-42.678035
17.433291
34.305367
72.091809
63.616865
39.482425
-3.795465
-1.208651
-65.822698
-34.297881
-78.489398
-48.783908
-27.109079
4.198509
-7.839753
5.859400
-28.485634
-10.440362
-38.914575
-5.751679
25.787053
3.185647
8.456995
-11.751634
-30.475081
-86.287499
-59.430440
-47.638572
-10.620442
67.978156
78.062577
75.290347
57.678757
68.983684
14.542159
17.928391
3.053128
2.870017
-36.512380
-40.328501
-10.483825
15.284571
12.082698
-6.486252
-21.980106
-15.463156
-41.490772
-1.090021
-5.680486
-19.235198
-37.674188
-50.700574
-89.709941
-97.723552
-74.466085
-54.902057
-4.445703
53.927622
7.122833
38.799175
5.017708
-6.872274
6.586453
18.096203
0.433019
-18.007067
-21.473453
-53.975106
-48.799014
4.128587
2.307425
-9.488299
-24.807166
7.600684
-28.110159
-53.612619
-22.827355
-29.217199
-31.122086
-25.196243
-38.607798
-55.069991
-54.946181
45.303184
9.960797
-47.790151
-90.952185
-56.673973
-93.762915
-48.042621
-35.601696
3.466301
52.243897
25.701108
2.530917
-9.906969
18.601841
19.808361
41.740976
-35.794592
-19.118280
-14.294356
-25.280841
-73.330926
-22.163647
-24.424638
-25.725917
-45.512292
-38.610049
-44.091655
-42.676520
31.445917
17.838958
-30.992124
-37.659689
-26.399475
-35.735323
-48.145862
-36.140435
35.510567
69.646353
-0.772663
2.797546
-21.726742
4.837578
-18.911248
1.057688
-71.849406
-53.506920
-16.601140
-13.147831
-52.230880
-18.355216
-5.758257
-26.337703
-30.146406
-43.275748
-71.170444
-69.154934
-9.915545
-26.444612
-65.718757
-93.712688
-20.174614
-33.428012
-37.187148
-32.621339
12.259974
54.860502
35.487089
9.847287
-28.538453
-3.812731
-12.692550
11.261745
-91.983452
-66.531627
-28.581615
3.212772
-29.542167
-18.792373
-13.725798
-37.025926
-31.824872
-55.671685
-79.360070
-67.974968
-6.519782
-82.647622
-60.661502
-95.937161
-73.834529
-53.579161
-65.825177
-38.229307
2.316516
30.316594
35.560466
40.729714
-15.186684
16.398596
-1.888940
-35.324307
-55.962920
-51.982539
-26.847399
-10.802772
-30.209316
-15.083614
-24.009608
-41.942091
-57.541928
-71.086638
-54.228018
-57.429425
-23.459971
-65.713221
-96.619114
-127.733167
-138.669684
-73.501871
-65.436946
-21.157814
-58.155348
13.374583
59.000410
42.047332
3.157833
20.861861
-24.861866
-53.713252
-96.795473
-67.375964
12.446238
9.626468
-30.639179
-1.186420
-18.033261
-32.709076
8.112797
-48.847890
-60.163091
-61.935286
-52.487832
-21.819278
-77.894415
-62.227044
-40.726619
-26.812681
6.485820
3.911198
31.430202
45.430547
39.446236
45.421788
37.153028
-6.162375
20.308297
-19.064802
-50.468097
-50.712867
12.286247
13.646669
-22.160568
-10.515773
-11.148671
-24.483848
-22.220640
-32.452389
-62.670360
-59.302489
-45.552175
-59.839074
-35.493845
-32.747934
-32.804450
-32.205646
-16.454156
-9.520294
21.045644
54.432733
14.620972
34.099642
6.756732
-15.405558
21.882336
-1.461199
-33.075669
-17.607655
-3.964375
10.367303
-34.073064
-22.043806
-7.804770
-14.534359
-10.981402
-45.511322
-49.179298
-22.346181
-26.719972
-29.342657
-20.062786
-28.740523
-21.825691
-11.799060
-15.166912
-7.882138
42.064877
84.282049
59.375415
44.536288
23.659909
-20.443052
33.882157
6.139585
-30.137369
-27.793929
-31.559942
-25.745837
-34.315690
-28.531587
-21.782760
-29.837051
-48.021773
-0.037355
9.220786
-11.442047
35.311299
28.799170
48.314203
-11.668553
-2.521812
3.160643
4.191814
0.581111
11.884797
76.892108
98.215589
87.423981
-9.767565
-36.872007
-7.716273
-13.224905
-54.748098
-12.699175
-27.789262
-35.409003
-38.745342
-28.350669
-2.551634
-3.055438
5.655089
52.753629
32.107170
3.119133
23.044464
32.951468
43.193030
-13.561324
-8.467334
-1.145336
0.067467
-2.292838
13.535155
44.130481
82.778416
76.127628
23.756531
4.409646
1.419337
-2.812614
-54.551231
-18.286619
-17.157593
-18.217531
-54.373136
-24.995939
-17.135010
-22.506538
-22.818175
47.954789
12.398143
13.805788
40.613606
40.665631
-0.199215
14.142755
6.643094
-12.783126
-29.577422
-59.451016
-27.259142
12.364097
34.998451
73.886932
9.195400
2.656725
18.986338
-19.750642
-64.174771
-51.323074
-30.953544
-22.862612
-45.904537
-30.045017
0.358289
6.903744
4.020386
37.751809
8.063078
19.781334
58.922660
34.319350
33.865145
-8.121789
-14.822073
7.545980
21.396954
0.358671
-39.600974
-9.647335
-5.383352
66.833505
49.141450
14.397081
32.109735
-20.467284
-72.872355
-68.308417
-7.124573
-10.479425
-35.775295
-50.137426
15.111370
15.722513
-3.129561
31.820770
1.029281
3.460766
61.084797
41.293172
-12.343565
4.382634
35.182068
14.314408
7.720134
21.043784
-37.238176
-4.202478
18.699414
18.743976
14.575856
33.103774
17.998978
-16.395778
-36.996064
-64.351685
-4.375873
-3.269472
-41.633896
-41.221269
-24.670879
1.697188
18.709239
29.355987
-10.217027
4.365843
73.706847
41.294109
2.343456
-3.821478
-12.634239
-23.264698
-26.539502
-10.658174
-2.959771
17.796298
-14.357263
-15.065031
9.197763
18.841161
27.855392
22.011310
-3.403423
-22.865276
-22.626838
-7.663946
-33.169568
-60.723728
-39.245718
-53.009476
-22.682667
17.971411
10.634778
-6.065048
32.816271
7.926261
-7.497501
-23.049339
-20.091785
-12.907253
-65.482985
-7.271887
-46.087625
-42.169301
-26.215076
-25.515726
14.268578
31.697387
34.633461
37.604860
12.674130
-7.926396
-35.144390
-3.394920
-22.616301
-22.217846
-29.226786
-51.838044
-29.245055
-8.372169
-7.388795
-0.742314
18.229979
22.703687
6.644465
8.653580
11.504513
12.014540
-1.432098
-0.545388
-65.901528
-38.162051
-20.576122
-25.845456
0.839462
40.463572
35.754420
47.189532
6.463403
0.829328
14.956514
-4.484785
-21.206413
-12.065643
-18.331835
13.853550
2.998118
3.225433
-47.386687
-8.358133
35.852827
-39.534119
-22.940610
-34.931134
28.438982
28.212630
-21.125782
-3.482044
-11.238460
-19.465217
-6.352134
-7.675575
-19.375162
0.724245
80.779521
101.655786
11.554717
1.499087
-35.225365
-39.140389
-47.080965
-17.186918
-10.878724
16.054095
-4.167067
-9.093057
-29.806972
10.256978
29.643504
-30.757706
-13.683224
-37.795105
-20.060290
-21.367902
-12.449133
-15.262416
-73.590358
-24.483871
-18.021256
-45.570707
-18.333350
5.602149
68.211226
83.732647
-2.167615
-10.754450
-55.639589
-36.937477
-46.404335
-3.562036
-5.225140
36.254191
6.126358
-12.095255
-6.950982
19.125474
27.433825
0.924439
-31.453158
-35.113736
-38.801408
-47.086972
-22.053990
-27.879649
-88.905900
-88.563930
-44.505044
-45.525823
-41.844109
18.728904
46.207763
58.781253
3.700778
-33.399972
-50.220242
-31.250984
-23.223748
-8.706480
1.247356
-3.288997
-16.397210
-43.714650
-4.098277
53.297669
28.831362
21.827216
-14.383241
-5.451673
-28.108677
-38.461534
-41.506198
-18.422096
-56.749050
-93.720393
-74.642234
-66.554227
-54.936156
-20.989035
61.604474
41.495520
-5.540780
-18.799098
-10.264221
12.508957
30.454663
70.556895
39.260999
68.434852
12.476066
4.483364
86.953421
-90.473374
-72.017815
-69.840724
-39.234815
29.185258
71.905075
-13.020135
-21.102070
-111.886300
-112.911765
94.760830
-78.526890
-99.955726
-80.364202
33.487530
37.042375
20.059522
0.475449
32.970077
-20.966141
27.440472
52.265734
26.710972
7.710877
26.443642
134.571252
79.401436
43.176252
55.434307
12.402076
-145.500584
-82.977968
-90.334112
-86.879069
-98.877680
15.769169
-20.389143
-72.319613
21.519325
50.755462
123.039229
163.152032
181.998082
149.646740
114.608287
40.229486
27.734246
-86.588878
-59.406564
-17.113786
-25.504022
36.556994
31.119924
45.498692
141.288617
64.232375
6.255784
-173.346440
-253.992619
-244.313239
-316.718683
-294.865855
-297.094463
-244.235222
-247.413066
-239.967817
-104.059333
-116.142248
52.821575
97.681765
286.587395
304.343506
174.496424
154.342939
32.013393
-89.287609
-72.795394
-62.371057
-59.541041
41.301192
52.712444
59.777619
192.192751
114.539628
46.579470
-178.200633
-275.113330
-285.739434
-245.272686
-243.741889
-267.392086
-197.299690
-314.476573
-222.444535
-154.294408
-84.449021
113.033915
67.464817
265.552640
335.136748
261.870008
191.875981
81.875581
-94.750989
-84.394425
28.449309
59.823368
56.054304
68.827880
84.429128
192.039799
38.334819
14.083229
-43.299231
-174.551126
-215.696726
-216.233721
-177.066309
-182.389282
-268.809795
-291.100523
-300.793865
-304.924661
-222.346528
-2.676010
34.963777
179.548993
383.091285
306.878691
222.842639
152.525129
-152.917236
-91.398514
11.581440
55.845206
15.736004
-52.923992
52.076715
75.609778
-0.661876
-39.130085
-86.288322
-81.192382
-120.892068
-83.122271
-51.027278
-50.225676
-164.119055
-234.220207
-230.065649
-245.727885
-285.077306
-105.494408
-18.399357
32.161146
263.515112
229.362588
118.651260
188.000845
-90.042776
-53.574416
-31.361069
17.133293
58.362368
21.747145
-51.292146
8.382463
-20.788026
-72.008648
-50.354100
-17.969600
-45.957976
1.845912
126.315341
59.463013
-20.798691
-150.756044
-237.705211
-284.284777
-253.111471
-58.670283
-56.756951
-4.325859
178.422312
113.287719
118.770100
172.328661
-35.691003
-26.644236
-29.515891
126.505385
109.691268
54.607805
12.538804
122.437751
-19.902322
-34.755001
-12.915898
33.528080
74.041787
53.729566
111.606475
52.396075
32.866744
-65.981537
-198.833372
-149.783796
-87.834440
5.669888
5.290985
43.964761
183.610755
194.371584
107.889945
169.245225
-47.110974
-55.241122
-34.633286
-63.658295
45.814017
-1.407925
17.745641
-75.337560
41.434038
19.849822
57.530921
94.211774
96.516876
60.616366
37.921086
-18.433777
47.525202
-7.795971
-176.587958
-63.671392
-62.443738
6.644959
81.567885
107.582097
121.040252
92.293760
38.467016
73.903363
-39.092064
-78.858622
-33.115284
-41.493240
31.853033
-25.763677
49.196102
-53.961718
-39.782504
-54.129010
19.495231
59.393821
10.435752
-48.295751
-132.028929
-148.691210
-108.606984
-168.814135
-182.942574
-164.183132
-117.203151
-71.403502
-15.225413
27.484250
90.190893
48.582748
13.358377
-40.946604
-87.823873
-17.384930
-26.397142
-74.742139
-45.839324
-25.477406
60.476665
-58.033602
-28.737262
-62.090320
27.991053
112.923603
103.467001
6.388643
68.754726
-70.414363
-116.923255
-94.481002
-51.909038
9.452883
-54.536621
-62.582944
-89.650014
30.176935
49.759588
37.918071
-23.287186
-91.673851
-96.226980
-71.341098
-100.127178
-79.391012
-43.681063
-37.758944
19.036555
-45.429948
-26.219160
-82.172543
-32.265570
74.696892
139.048744
15.864445
80.984914
19.817981
-94.030686
-45.693205
-15.764955
9.575779
-83.130598
-23.935837
-89.946873
-10.322723
3.996547
-27.583280
-58.262426
-111.263084
-98.876193
-131.203119
-109.052875
-104.019165
-54.734565
-57.085085
31.486323
-27.044876
-43.316005
-37.422907
-10.417250
43.770995
81.874966
56.773683
-11.505153
-27.877358
-82.274334
-77.275114
-39.817815
-10.595271
-66.562440
-18.892230
20.669447
66.987354
-11.456463
-54.530878
-59.869055
-82.763529
-104.324723
-93.371951
-111.682263
-164.352205
-94.071948
-64.953123
-19.399043
-47.236018
-24.324571
-85.318214
-61.142038
-28.156150
85.719150
58.205317
67.183872
69.520398
-42.094040
-30.246915
-35.281080
-34.449935
-46.401373
-41.254287
32.759084
86.864876
-28.337723
-74.751551
-62.974087
-132.833675
-98.795700
-83.122595
-141.853492
-183.634314
-97.107350
-79.808575
-53.874756
-82.570810
-74.096279
-120.152120
-59.079094
-143.611950
19.494493
8.784360
87.264244
36.274910
12.303882
-84.738338
-72.976418
-1.338673
33.177415
96.769018
50.022176
-11.615839
-44.705595
-197.254793
-146.606468
-152.364664
-57.965760
-94.021123
-131.855497
-130.325802
-90.681507
-78.991531
-57.315213
-107.106055
-102.782363
-155.787186
-108.440653
-161.426290
-57.507148
-19.107286
9.857836
71.238321
54.527686
-7.786142
-5.781985
13.299228
112.296169
152.534567
127.232914
36.589379
18.767873
-164.546438
-94.893810
-128.330547
-113.384313
-37.400067
-110.360731
-168.410288
-54.640208
-76.417753
1.258912
-112.059417
-111.983118
-124.298245
-183.434536
-46.391274
-100.037303
-53.538077
-23.187432
-19.410884
-51.194122
28.783578
88.617950
181.422046
92.601144
175.918625
119.611310
119.858745
-44.787809
-57.753113
-146.389854
-116.426461
-100.018375
-5.075628
-113.450788
-158.722502
-97.516144
-80.691639
2.297773
-91.923702
-108.137624
-131.058556
-132.196024
-28.996804
-148.274441
-141.457974
-67.516844
-94.627194
-78.940791
-1.877818
107.852117
232.905433
264.456182
247.816562
208.883273
184.841369
-62.780242
-72.541556
-152.484284
-159.306230
-90.237387
-49.001384
-111.138337
-169.926573
-114.723001
-46.739517
20.968621
-40.241138
-88.889438
-78.129347
-91.217108
28.327912
-129.919597
-13.273993
-35.433693
-43.074433
-50.205788
-43.597477
118.477380
280.792430
169.629044
248.823064
197.870246
93.521803
-18.131864
-82.324923
-185.528316
-201.208029
-63.726262
-31.199371
-84.528290
-186.324234
-121.754803
-53.121657
4.725619
-6.950509
-69.389871
-12.983814
-53.771938
102.407622
-4.711437
17.632660
-71.424137
-21.594119
-49.871397
-79.219403
68.290615
178.703418
118.449763
212.438455
171.150493
58.292240
-10.387398
-53.266160
-207.197210
-200.187846
-137.086463
-117.365803
-124.189741
-179.222996
-134.446535
-33.362100
25.668851
-1.931546
-15.856531
18.478538
0.080191
139.217820
-39.370121
-38.688758
-88.104054
-83.262633
-26.831515
62.541568
45.808846
88.365408
123.615041
164.701998
76.151511
77.279907
55.893876
47.691770
-126.657371
-103.431974
-150.713827
-123.587922
-86.611368
-127.320754
-185.435271
-79.342729
21.197697
-18.737733
41.119265
76.193934
75.439635
199.917154
17.377263
-39.024820
-46.018409
-42.547161
-80.862517
10.076922
5.246058
38.206401
65.227150
56.743930
46.791861
77.199503
30.536806
65.612844
-122.951754
-100.672575
-84.552014
-90.005934
-97.082036
-104.678974
-135.527494
-80.370203
26.795086
-32.278582
27.862272
72.767054
71.285915
219.610892
17.957744
-42.535464
-72.629779
23.325698
-4.223197
-20.463599
-88.666652
15.908162
50.007728
18.843995
43.547301
51.528573
86.551206
94.174708
-124.329701
-115.002854
-83.926544
-65.323070
-35.205140
-78.225448
-86.700183
-86.282723
52.223984
-26.470195
30.555053
51.488703
82.354010
234.835337
55.328354
11.119220
-23.355574
19.563040
-4.399313
54.506339
-41.088210
-26.287572
2.520238
-9.415577
43.703883
-64.253126
90.428953
109.981771
-153.312287
-59.524706
19.212650
-147.429926
-79.005059
-53.106984
-92.375816
-102.701818
-174.235401
-110.295562
148.596420
91.583444
183.631468
138.428924
116.167720
146.514684
41.595199
37.745570
-35.612856
-41.589279
27.887769
26.865206
-31.969226
-138.070026
-69.180593
-127.318008
-116.783623
-9.003179
-51.385708
-5.928339
-48.182395
-40.729593
-53.561749
-124.432937
-191.077092
-93.294802
-178.828207
-97.485466
109.174710
33.857794
148.356746
86.997854
118.879946
96.638417
151.687082
66.595030
42.287497
11.695415
5.301362
33.497699
-7.095206
-96.141945
-13.204255
-170.640456
-98.899888
-34.976950
-27.398438
6.030347
-80.864569
-63.222869
-69.427364
-167.925587
-211.023979
-98.158306
-255.898404
-75.692089
42.609282
-20.150746
34.654142
-53.264114
-34.721029
-48.949554
-31.415305
3.033790
-27.726247
-54.274686
-51.519395
-40.726779
-32.429966
-144.940495
-91.997336
-130.297648
-140.078016
-41.755066
-24.141718
-9.686823
-155.819230
-139.674515
-101.258570
-103.640800
-124.208838
-172.127007
-246.237064
-92.370562
-65.527956
-156.731370
-112.007685
-153.023950
-102.670795
-49.905485
-43.470611
-46.472566
7.816007
-85.826452
-114.106307
20.916776
-181.668954
-338.909695
-330.601415
-337.273606
-138.948218
-96.358237
-31.998538
-0.355147
-6.491742
-19.766913
0.819468
-3.573907
1.029213
16.529134
6.156795
-11.302112
-33.340414
-36.809657
-8.489313
31.846806
-13.702142
-10.903003
36.957713
31.444672
13.931123
-9.165282
-46.757208
1.668050
9.636106
-44.253582
-9.602456
13.573726
-0.806663
-7.440257
-2.120791
9.461308
-20.667482
-20.441964
8.751784
-35.342454
-28.955877
-17.164058
13.883431
6.153095
-28.106830
1.480700
20.816034
13.507860
-36.900950
-13.172905
-1.490961
-18.859598
32.843534
2.918318
-53.178053
16.788019
10.555860
0.911631
-4.148840
5.445241
4.896305
15.870771
7.021076
9.801659
-30.233189
-33.375807
-39.395884
-15.800059
-17.046736
-8.490326
-36.295370
-26.627465
-13.658000
-5.525388
8.134987
-16.633853
-14.258922
-29.244452
-24.539220
17.816684
34.083029
47.800344
24.888625
27.406208
-0.858066
-3.977938
10.554908
73.002765
44.408592
12.895269
8.775654
-5.830897
-49.536427
-27.309686
-27.463512
-39.146070
-25.967883
-4.611325
-14.376699
2.955795
-9.945813
-15.516284
-3.448779
-12.615755
-8.026950
8.884870
3.076687
9.758548
45.062363
34.014812
17.206661
18.232597
-1.816905
25.346915
-5.889798
41.335804
55.084998
28.568930
3.482545
-3.930590
-70.089495
-39.575508
-24.333332
-6.294253
-15.440621
-0.163318
-3.661165
36.615834
-6.659274
-21.042271
0.235980
-29.009131
17.877639
30.555985
40.763023
41.862570
32.981996
31.979636
10.432027
-7.172281
-11.463287
24.092651
20.330511
46.227053
66.642896
56.057203
27.378797
9.284624
-69.363018
-64.365715
-43.840151
-37.137721
-7.623385
2.606219
1.239913
-1.255407
-0.576336
-12.957732
9.801536
0.014574
19.957790
20.604467
24.764303
18.209399
17.437344
17.208721
17.596364
-9.560097
-35.558310
-24.731349
-13.395487
13.065036
43.613708
41.216012
26.093676
15.202336
-22.844445
-39.476570
-57.928192
-26.500240
-20.102141
20.357052
10.136485
13.424899
-0.967288
-0.784777
21.396655
46.581738
27.883407
33.000395
58.766410
36.283127
32.726330
8.685688
-17.496087
-27.123085
-79.482548
-37.400409
-34.845788
-4.664714
30.090423
32.928579
12.738968
15.155695
-5.391446
-33.448140
-49.566931
36.195786
26.263340
54.681155
43.345758
54.906996
27.359983
46.577969
63.618796
65.186688
22.406604
11.301358
45.609210
43.006977
4.914464
-23.280696
-36.359789
-24.675957
-27.975534
-27.750906
-20.966031
7.988148
45.591787
43.948808
30.506264
30.486605
-26.426845
-23.093131
-2.838438
-24.130146
28.084830
22.281751
27.331925
8.077240
-11.473989
6.263998
9.861729
17.394814
31.331854
44.097167
31.280379
19.097326
18.287892
-5.681964
-44.779738
-24.133751
-69.342071
-46.875602
-9.314778
2.618362
7.767770
4.438985
-0.207107
7.007419
-24.287791
-34.144878
1.635586
1.789787
30.202268
1.385879
34.586974
12.354872
-10.309304
-5.633080
5.238970
8.418435
-0.104153
3.714176
29.966316
7.288270
-15.171237
-23.464585
-37.745051
-36.899971
-60.999984
-53.379982
-20.659610
9.160946
-11.421637
-20.624629
-3.074535
-4.104956
-10.938038
-9.008480
13.067860
-4.912566
13.106411
-14.158157
39.191872
24.713348
-5.896866
-0.567555
-19.705142
2.275070
-0.110995
-7.215788
16.306155
-5.248588
-50.943895
-42.562106
-29.261377
-12.910876
-40.883138
-20.768736
-34.786668
2.353724
-13.268398
-20.120072
-18.573099
-5.314374
-9.160842
-9.102219
-4.518921
2.708447
5.460042
0.633248
17.270698
31.869926
12.989217
-8.745047
-31.472872
-18.438206
23.276118
-14.846683
20.166750
7.142689
-53.994694
-40.417900
-30.400954
-5.689329
-38.573992
-5.992689
-38.540138
-5.658029
-13.298374
-14.930742
-9.155583
-21.325155
-15.137398
-40.659285
-21.745900
-10.119367
8.063182
-0.186620
29.311943
16.668577
14.407247
-9.575786
-22.343898
-18.776432
25.848847
-17.692163
-17.752121
-23.697119
-66.231379
-55.265627
-45.228244
10.396314
-39.385515
-12.271450
-16.014524
-1.771700
-15.903121
-12.820701
-8.851150
-3.978742
-31.322687
-36.448966
-14.475903
-46.082602
11.018970
7.566384
30.589364
19.890095
24.138981
-10.003217
-28.986676
-16.993025
28.790365
16.499060
13.437959
31.524270
-27.093176
-39.508432
-57.540052
-15.868871
-38.531052
-15.031184
-6.024501
3.637889
-24.319539
-19.397096
-14.227594
-9.375925
-18.159598
-26.792306
-20.882192
-49.933857
2.603282
11.503747
37.018494
12.451570
2.064389
-32.193655
-6.895246
-46.122274
28.560887
32.492851
35.026449
24.337473
-8.860355
-18.935478
-29.043838
-10.401274
-47.873833
-30.737688
-23.824817
-36.382633
-27.221413
-33.177904
-10.399467
-7.730601
-2.556513
-32.254113
-17.270554
3.192914
4.996538
1.996160
35.358421
18.599267
6.439594
-23.559158
-3.262800
-42.461308
22.863766
31.802768
17.769757
35.843291
15.047443
1.571589
9.938270
1.994982
-12.644947
-24.040784
-22.322543
-57.634224
-18.188016
-30.415145
-3.351384
-3.283606
-20.002379
-13.919606
-7.771765
-19.803584
10.072626
0.758705
54.773129
0.235917
-7.638666
-29.778303
-32.177235
-55.521574
-25.986416
-20.745225
-37.110974
-13.406425
0.223249
10.234449
-23.996692
-1.993185
-29.631708
4.838958
-24.835849
-44.504658
-29.568542
-25.696188
-18.817506
7.445221
-6.534179
20.202778
-7.215334
-11.829514
10.448066
-1.982908
17.348727
5.235816
-9.780618
-25.099704
-39.674921
-24.484527
-30.525031
-29.627283
-27.177537
-22.374631
7.589545
0.513659
-14.111870
0.533654
-19.184464
19.038166
-18.325925
-18.358422
-30.676825
-19.541419
-13.863337
5.100235
-14.799077
-6.352295
-11.234289
-19.679329
-15.073947
0.624732
8.880904
10.119063
-10.782145
-39.974472
-42.457840
-49.044065
-44.150181
3.218811
-4.846981
2.086632
10.295189
36.853617
21.710121
57.900811
-19.225617
22.137522
-16.427020
-10.344138
-20.005435
-17.526390
-23.611878
-17.573682
-16.406401
-17.094344
-12.934544
-20.401756
-14.088205
6.996838
14.499633
-9.046618
-34.313556
-49.339983
-66.862448
-45.916742
-34.466950
-16.834358
-2.989601
23.826875
23.056782
35.791051
14.132549
33.227135
0.363902
16.729368
7.442683
-21.068400
-11.847576
-13.064956
-21.415014
-24.107628
-52.089759
-52.523605
-32.210704
-49.042999
-30.177313
2.579195
-4.585713
-16.537591
-6.704358
-33.303978
-50.318400
-28.379546
-46.155452
-44.904964
-12.407617
9.854999
16.688414
36.022557
-12.322433
40.072159
32.146789
29.834033
-7.641542
6.876820
-6.256146
-11.258544
-23.031871
-14.675701
-17.995691
-23.304513
-57.253412
-38.075834
-28.019686
-22.407105
23.442273
-2.065487
-6.534526
-14.815507
-28.651525
-11.968573
-24.484765
-10.151706
8.550926
16.747834
-1.717723
5.574046
-24.403727
42.641341
31.416227
14.478123
-13.128702
1.440920
-11.622849
-7.647901
-33.641539
-1.263129
-28.136406
-26.356490
-43.669451
-25.330368
9.012620
-15.789261
0.756357
-27.364442
-16.673002
-39.418644
-53.140484
-24.952818
-42.221187
-22.400610
-6.530912
-0.409623
-1.102928
3.257050
-30.754873
18.335208
19.841546
9.447562
4.965135
-5.643921
-1.855376
-11.491369
-26.262488
-10.828556
-43.640077
-35.066882
-29.441522
-12.372215
2.423681
-18.013034
3.143479
-27.205095
-27.152834
-54.544806
-59.012572
-42.408693
-45.443136
-5.386267
-12.825881
1.971055
-58.786676
14.824232
-44.042520
-15.522781
-9.325288
4.210987
-2.168840
-28.229646
-15.306506
-25.094293
-68.360649
-22.337827
0.083248
-40.205092
-26.364311
-24.756785
-25.965755
-6.304651
-29.808852
-33.570531
-21.238763
-51.588703
-57.499096
-61.842251
-59.868106
-24.256676
-18.704885
-12.589215
-50.715094
-19.899018
-11.888058
8.659913
-19.569260
-15.802878
-33.629383
-7.348666
-18.112398
-13.029179
-34.316103
-18.553309
0.413851
-16.728969
-17.874979
-31.942263
-25.821141
4.585627
-23.446342
-42.528389
-1.591762
-37.717906
-48.458076
-50.015418
-41.149697
-21.819073
-26.649464
-25.053950
-35.950521
-59.779121
-48.317617
-9.113777
-34.583028
-52.454395
-51.970883
-63.741046
-14.348480
-17.032358
-25.693309
-8.413936
-21.650077
-28.309235
-29.051951
-31.947013
-30.478657
4.541157
-25.653175
-24.645820
1.912288
-54.064757
-66.665242
-56.662087
-62.467792
-70.710568
-76.107037
-56.309109
-64.613802
-74.167341
-50.565535
-47.293006
-39.243381
-39.922100
-39.812281
-50.780717
-5.056620
-8.753356
-14.451047
-2.757088
-33.826961
-31.861790
-27.522601
-13.792032
-20.141432
-4.346188
-11.561591
-11.943654
-12.421354
-44.115720
-74.089776
-55.561582
-58.187382
-61.732625
-63.598653
-66.474072
-48.193176
-47.636937
-43.450889
-37.156038
-64.258024
-65.639001
-101.153644
-83.126881
-3.747491
-17.554746
-15.534915
-0.336475
-18.519532
12.332207
0.470080
48.382639
-62.544150
-1.250802
-14.299583
10.576890
28.801897
84.057046
57.651983
-30.916604
-1.662183
13.560463
49.734470
19.944442
15.879966
-14.175333
-57.133156
-66.095618
-22.190455
-11.222060
-35.118975
81.313247
15.068117
16.930489
-2.767955
-14.946088
-42.793101
-17.766156
-16.255938
69.473760
-16.473892
13.122225
27.554761
12.662975
-24.228999
-5.505506
-28.192742
39.494232
28.708703
11.214370
2.871326
-64.929649
-4.799138
2.638680
-8.457802
9.112745
60.481892
-56.388190
-45.918943
14.643655
-0.648289
7.874340
16.598511
-25.933705
-88.309552
-45.105079
-5.571158
31.122727
-18.839130
61.568386
33.099248
73.175592
38.843591
84.906283
84.140993
-23.863800
47.519197
53.914484
47.002978
9.942471
-21.306545
-31.186400
-100.178365
-160.412220
-197.593517
-235.246528
-233.511231
-88.491023
18.647982
-4.447027
11.968885
-17.738542
-15.915420
6.269915
27.677565
56.874658
36.144673
56.409290
52.659042
110.385282
15.650678
59.709437
34.928378
-57.495025
-47.094152
10.543946
-0.358088
-56.321154
-58.763670
-46.449181
-115.756941
-192.653045
-233.499335
-229.802001
-270.043008
-100.836114
-5.064681
-28.133066
-3.442215
-32.245668
-26.630290
-8.332054
10.482782
24.474112
14.318735
21.441669
79.362123
74.335822
28.043572
5.898494
15.780797
23.131447
-86.539701
-14.177112
-39.618607
-22.709247
-98.051988
-109.724512
-69.873098
-136.569610
-174.663467
-178.645021
-182.723466
-75.152826
3.925980
-36.241085
-30.129749
-70.546558
-32.149803
-11.174870
27.048869
56.219148
25.952919
15.034321
94.961837
40.174684
29.700222
-15.232337
23.836864
4.205495
-38.175710
-71.269410
-55.708706
-53.227812
-46.178269
-96.781572
-88.794162
-144.182427
-165.527898
-186.475593
-167.379067
-100.909967
-15.848600
-67.187935
-44.894105
-53.665344
24.581425
5.868512
38.627986
95.986919
45.904480
21.419692
67.830879
72.401654
-66.620179
-17.570345
-20.458849
-47.790553
-2.810740
-6.359703
13.054480
12.896036
-14.638366
-52.577377
-9.982773
-61.371453
-67.542182
-126.172901
-92.083044
-13.396877
49.630263
10.105018
-52.751342
-18.113161
15.670276
18.627881
41.959201
68.547514
36.344987
-4.840328
13.456026
-22.484437
-57.498166
-41.061731
-30.233834
-28.275653
-17.701210
-20.062918
-14.835151
-11.652766
-146.176371
-114.236790
-92.789605
-93.961039
-83.268073
-68.724469
-114.582240
-14.275941
16.818371
3.102361
-44.372559
2.271617
4.890624
-31.285271
25.284052
9.154263
58.263615
13.081181
-7.434172
-20.462605
0.015657
14.572349
26.097106
1.194312
-53.939434
-84.497484
-73.882182
-145.695996
-103.924214
-23.711495
-100.949445
10.728450
-30.223331
0.075854
-45.640996
-32.004302
-38.205517
15.926655
50.499871
-2.715123
34.550734
-14.860024
-4.850691
-8.103590
57.204637
27.591368
-61.828394
-22.474418
-20.229855
-34.460161
-15.092936
9.215039
-50.465888
-69.313569
27.774852
-84.904629
-80.272819
-29.160702
-32.731202
34.576875
26.899236
-4.673251
-47.831120
-14.901179
-44.972628
-1.946891
40.421120
-14.242859
-11.367310
-9.463086
-49.157339
5.978732
42.143746
-47.128709
-45.981878
-56.641365
-82.528994
-79.138829
-95.653298
-99.270568
-89.672363
-68.399921
6.206707
-8.436482
-78.519434
-49.535885
-8.179422
47.463056
65.001413
-1.753693
-21.973599
-37.626252
-50.180696
-16.641414
7.988764
-43.067149
-56.814928
-13.580327
-61.018855
14.052828
37.256654
-11.159047
-15.173448
17.753498
-50.912423
-25.456649
-29.417759
-18.594315
-29.834631
-71.027175
-10.418477
18.473592
-18.917463
-59.262461
33.310404
95.927127
75.103007
-3.403443
-5.834080
-9.739568
-36.127557
-4.236396
1.749312
-26.572818
-48.444713
-35.579352
-58.363100
15.091376
34.203228
-25.431299
-1.314756
-23.894932
-45.564058
-18.873015
6.409496
-2.847178
-51.153950
-60.623627
-54.151592
-24.658657
-9.602657
-48.936630
8.194263
73.160518
15.481117
-45.932724
53.306389
35.070586
-32.478636
-83.359934
-11.158634
4.733215
-49.879453
-28.694890
-90.320291
10.979617
-5.661592
-32.825985
14.015220
16.652362
-13.149949
21.824487
-46.841243
-10.067302
-2.599741
-44.198274
-9.171695
-19.826986
-46.461223
-51.391632
-67.414287
-66.475490
-80.131135
-87.613243
52.194528
-1.761527
-44.857001
-56.790098
-52.076139
-34.147973
-35.387408
-15.451663
-83.108139
12.750747
28.821245
16.629466
23.975505
35.170917
40.479367
3.074249
2.213463
-98.859006
-32.411469
25.068081
14.614738
-23.380193
-28.824352
-77.491518
-119.762286
-103.006317
-91.988004
-107.221968
-39.605321
-24.637474
-58.325484
-111.683538
-81.350858
-61.991020
-48.980825
3.961991
-55.448587
-0.105506
41.858004
35.412045
22.456573
38.462326
60.688176
67.567703
3.510759
-97.116905
4.818646
38.264666
-3.454793
15.524089
9.179133
-29.795166
-88.564738
-74.811640
-66.467596
-43.190613
3.333589
-80.926793
4.955549
-77.152409
-92.462284
-81.179289
-103.903837
-86.306868
-133.380492
-14.030000
8.141384
-49.514551
-47.578604
21.129380
-68.942489
-46.873229
-56.173738
-55.784558
12.235045
-26.005722
-16.505327
-23.755512
-24.083657
-90.653905
-32.884505
41.824100
54.207546
50.173973
6.987271
7.654479
-74.622834
-80.204422
-87.975255
-34.077065
-111.681180
-78.390114
-127.454967
-14.227822
28.453997
-55.203482
-46.983115
48.321033
-47.769211
-38.903613
-109.771148
-120.056837
-36.870951
-52.171171
-72.083114
-107.375801
-48.851783
-99.441598
-39.390483
-9.222235
29.714877
42.183661
32.413566
45.752880
-49.453394
-63.146888
-60.246071
-36.870016
-108.325799
-88.760118
-127.178514
-42.708543
-33.830160
-55.006530
-99.317443
17.793116
-17.809633
0.950389
-66.436891
-28.542374
-35.034335
33.983396
-14.261923
-72.157095
-124.788052
-75.107294
-62.509556
15.072647
43.688699
38.506702
13.940417
32.278545
-9.689732
-96.202520
-67.012470
-69.884716
-109.087012
-91.783203
-110.859789
-4.351350
-33.817527
-43.190578
-57.090318
14.329930
-13.985440
22.467802
-38.161110
-4.293513
18.807000
-8.126531
7.161195
19.395375
22.019070
-47.791390
-57.862083
-32.873902
17.985668
66.304619
86.929743
22.019479
7.107628
-61.075343
-28.475989
-62.108278
-20.663624
-51.057399
-71.853539
-5.753279
12.762234
-47.038453
-87.790864
6.525418
-2.244941
63.525569
9.411469
6.316982
-61.829739
-90.066619
-65.109535
-99.296526
47.212186
-4.627348
-102.562888
-51.103549
85.314196
56.294944
41.594472
49.814432
44.163352
-8.196039
22.275614
-10.874602
6.705573
25.433971
-81.190865
5.661461
5.692717
-39.357559
-38.046729
33.943344
25.665312
97.283752
38.411133
56.609642
11.318819
17.619888
-7.912060
-52.672503
0.236973
-28.086206
-55.336336
-6.450483
29.853178
-2.327284
86.541481
64.314508
-8.604695
43.607777
14.998413
21.395035
-40.631888
-3.750266
-43.562617
-15.668097
-30.882717
-71.525855
-122.695212
-38.508453
19.655276
42.834395
-49.950949
2.539955
39.012209
65.584428
11.113121
16.351018
13.586217
-44.108719
-68.207523
2.493378
46.680373
-25.589699
24.902312
38.236189
7.153675
46.758210
65.708235
3.127426
-1.375999
6.378734
-46.464938
-16.811250
-28.230226
-86.670248
-106.958905
-17.192447
-1.170352
45.381720
-39.931987
10.303312
-23.892771
9.949853
-66.687991
-52.549207
-48.342832
-35.201372
-93.807579
5.554766
28.022969
7.018001
24.609651
69.527617
-38.770334
9.202491
-9.591840
-2.757067
90.311525
31.229332
-23.429792
-17.481904
2.920893
-35.504411
-8.459766
48.887364
-28.659121
-11.802002
36.324487
-25.113503
-20.573378
17.295635
51.843162
23.750840
-82.719241
-46.388983
-37.300741
-29.120945
0.006879
3.711722
-11.928188
-30.199151
33.488784
-3.099138
-8.754006
4.535347
7.274561
28.964486
-50.428659
-26.328146
-28.251086
-52.117055
-58.182649
34.922846
-17.383243
-11.245446
-0.434581
-48.475539
-24.603015
16.098194
4.689711
-54.581964
-37.443409
-42.929462
-110.946218
-59.777054
-17.748625
-30.484930
-35.652013
-57.663846
4.881514
17.644451
-27.387796
8.188346
14.633705
61.179636
-35.120572
3.516172
-29.771937
-52.287985
-36.938349
14.184814
75.081893
23.274552
8.234016
13.744983
-51.876751
-27.603509
-47.696794
-53.379090
-28.541120
-2.566437
-34.921973
-56.331081
13.315903
-14.826945
-40.764849
-21.472561
-4.424763
-18.950813
-49.934915
-38.398252
27.648382
55.168353
6.980701
31.765661
-50.403548
-35.897951
-10.459185
67.595238
92.546075
86.987851
18.390151
1.484127
-49.774545
-13.337401
-46.405502
-61.266060
-55.953881
1.271162
-37.884001
-76.284038
-80.369454
-80.704491
-61.348766
-43.931171
53.376551
4.939193
3.715098
0.850749
-21.321194
-1.650074
1.566071
4.094299
4.889463
-1.160994
2.854588
-20.952974
14.887867
-2.080807
5.414271
2.614720
11.584755
-3.934090
1.455786
7.475293
7.953536
-2.441611
-1.089154
-13.500626
-2.789482
-20.376586
-16.751847
19.806398
1.527653
2.877373
0.115546
-1.745787
-1.268490
0.316032
-5.022627
5.238928
15.695019
7.749888
11.309195
-0.571469
6.556106
-11.393341
-1.119626
13.968976
16.405237
-4.796810
-5.456800
-1.205953
14.319227
5.138354
-1.458688
-1.341030
10.480358
-9.951203
-1.794615
14.000309
6.630318
4.652885
3.583135
-1.240830
-1.229812
-0.914872
3.702557
-1.462439
12.056041
0.987555
4.837446
-12.387549
6.594376
1.203381
-6.311881
-19.683055
-1.106466
-4.447718
-3.112447
-10.705537
-16.061724
-15.240947
-28.911001
-31.309209
-14.986099
-15.976942
-9.797747
-0.621985
5.826197
0.068610
4.495515
-0.988380
0.818569
-1.441464
5.051174
-1.561890
10.723988
2.831442
-7.235677
-15.913150
-3.464165
-8.129916
-23.234202
-29.230394
-16.317920
-13.472016
-9.666693
-17.387240
-18.437812
-22.849880
-29.418425
-37.885330
-36.020435
-33.049655
-19.459763
-8.478148
7.011748
4.045648
5.865221
0.031296
-3.431476
-3.072610
4.694003
-5.371799
12.828515
8.947673
5.565941
3.810072
-31.170603
-41.570751
-39.311345
-40.305829
-10.650535
-3.189712
-2.500670
12.318758
-6.382526
-13.173026
-23.339777
-32.838896
-34.697252
-33.838331
-15.041374
1.321459
6.500572
6.090070
13.769139
4.411402
-15.679891
-1.078485
3.462923
3.825485
13.350253
5.006360
4.610456
-21.641105
-32.904999
-49.469096
-43.111380
-43.104128
-12.787973
-0.954334
17.459655
15.538068
2.243762
-11.277437
-21.658687
-43.066302
-27.015267
-40.544775
-20.228001
-14.254173
8.786030
6.064671
11.180781
6.715596
-12.510408
-12.945118
5.732388
8.405401
16.815102
12.893730
-3.428601
-20.549388
-45.261925
-56.923201
-46.632884
-34.461569
-0.366521
26.640269
39.592352
31.517004
20.287658
7.466684
-4.433442
-21.371263
-18.542527
-32.117224
-36.364907
-16.069346
4.376096
5.255096
4.267572
4.869405
-15.426744
-14.601766
4.035568
-1.036614
12.069379
-1.664175
-22.336015
-37.180120
-50.539929
-61.942943
-48.559461
-27.318549
12.127329
6.297455
27.595566
15.977622
6.501552
7.032745
3.223244
-15.081956
-19.370423
-18.289653
-31.672185
-20.395356
3.354472
6.192716
5.485919
5.001702
-10.749219
-17.172259
-17.996421
-8.286597
9.487293
-1.535150
-20.110942
-37.513738
-48.578392
-60.944095
-13.151550
-20.441168
-19.748264
-21.424290
2.307586
-3.334880
-4.837406
2.213203
-7.304906
3.254621
-8.760261
-10.048859
-20.874854
-7.191814
11.251022
10.646277
-3.331711
5.324735
-13.423290
-21.112857
-24.101886
-0.654867
6.381172
-3.262094
-27.218159
-37.286990
-51.137230
-58.934553
-24.366298
-14.968148
-15.933706
-10.415420
14.049345
6.778026
6.695170
12.062597
8.672493
14.754915
-5.277555
-10.773697
-22.976546
-5.362388
4.867707
2.164190
-7.421771
-4.209188
-12.196932
-10.758582
-17.101939
-4.140616
4.493486
-5.615791
-20.743197
-40.947044
-61.477542
-66.087969
-41.954617
-32.641851
-23.977820
-16.499039
22.493973
13.301984
5.168954
9.259636
2.973628
17.410665
4.847699
-14.971580
-27.424343
-2.066243
5.134932
4.849175
-10.085048
-10.041755
-22.734283
-13.790503
-21.008915
-5.455275
2.666060
-3.687934
-15.198576
-36.677495
-52.780385
-58.820349
-41.873783
-47.499525
-27.318777
-20.506076
11.342127
14.811734
7.102072
13.080432
5.780755
10.281646
2.921264
-1.867434
-15.248212
-1.974508
5.054232
-3.664707
-4.452408
-8.542463
-19.307479
-17.749245
-19.833308
-7.112128
-0.559083
-3.291767
-14.794861
-37.569977
-45.786242
-55.250887
-40.196032
-52.959476
-36.953291
-30.947966
-18.827221
-8.377352
-1.292322
6.089921
-21.440969
-4.314178
-3.648130
-5.892197
-8.641777
-2.821674
-3.057832
-14.771147
-17.255600
-12.470783
-10.533507
-11.420324
-23.070756
-9.020210
0.137873
-1.435716
2.945418
-28.257367
-41.609142
-48.931506
-42.605193
-42.546626
-40.329927
-29.418748
-14.630760
-10.626901
-19.304906
-19.938001
-33.150373
-20.211108
-30.829641
-16.664694
-6.725497
-14.498162
0.094608
-7.603004
-7.911767
-10.326161
-4.318474
-5.339543
-21.372370
-13.733721
0.833577
-0.116960
-0.477619
-19.082767
-34.388339
-47.557992
-42.034056
-52.084187
-31.434474
-26.863321
-22.467011
-22.831589
-30.874147
-29.110408
-42.620132
-28.845088
-37.080133
-16.791582
-27.311723
-25.484093
-2.046895
-12.210144
-12.869911
-8.519891
-6.842147
-7.726812
-19.619588
-10.790773
2.252995
4.127522
0.455227
-17.265401
-24.678743
-33.167015
-31.859438
-41.757686
-20.595000
-24.921433
-22.002950
-18.674529
-25.727747
-29.264570
-40.351343
-28.177878
-31.398434
-11.626982
-24.584764
-27.348721
6.881034
-9.051455
-9.123741
-6.555767
-13.413733
-16.732468
-20.424779
-11.199543
5.062397
1.973746
-9.304473
-5.741823
-15.995603
-29.026051
-13.422404
-15.558702
4.076216
-15.701709
-12.886851
-13.219280
-26.439668
-29.542631
-43.679899
-17.711447
-18.250913
-7.390067
-33.652691
-35.973508
-16.694285
-11.314235
-16.418413
-0.014075
-17.939554
-19.920932
-22.050819
-11.410939
7.186796
2.784480
1.666993
7.503274
-7.369763
-19.126702
-10.368647
-1.457824
3.356718
-17.909252
-9.593748
-14.710317
-23.240672
-27.593607
-35.194191
-20.377441
-16.063094
-7.040336
-19.236584
-13.953778
-17.024144
-13.964194
-14.676596
-4.403109
-14.775953
-17.740709
-25.882618
-14.842960
-1.001623
-1.779968
-10.837102
0.995038
-11.773040
-16.072751
-0.126821
11.433246
2.247599
9.686176
7.584732
-0.218625
-14.175868
-20.112545
-30.354072
-15.194033
-17.698262
-5.636879
-22.475032
-20.561112
-9.232092
-16.681373
-20.631306
-15.985633
-16.045839
-15.053828
-20.205904
-18.855660
-0.668327
0.963614
-6.145658
-4.462118
-15.181810
-13.962684
6.258091
12.627324
13.418646
5.222250
5.428308
14.157383
-2.171475
-11.729487
-32.095075
-16.950854
-28.487364
-10.620744
-7.054211
-21.253427
-6.667082
-23.310840
-26.088945
-18.884277
-14.270458
-24.564483
-24.280563
-25.071296
3.640995
0.010997
-13.760888
-5.750177
-7.715944
-11.363533
11.473055
13.324570
-2.281930
-10.744219
6.009431
-0.366494
-0.243709
-4.471473
-33.403754
-24.284374
-7.947752
-14.894527
-26.155285
-13.156232
-7.226580
-18.594788
-17.033105
-15.423995
-10.363166
-14.787039
-27.787804
-25.840432
-9.325218
-5.749705
-9.526699
-13.091863
-14.271364
-11.614601
15.259957
11.060801
2.765715
-0.145610
3.958743
6.948288
-7.214629
-2.329165
-20.909178
-14.967555
-19.074195
-28.762628
-34.167635
-17.496194
1.702851
-5.139295
-8.773005
-4.710723
-10.055875
-14.930346
-26.518529
-21.712205
-8.521303
-17.999454
-21.566410
-16.374220
-12.135510
-21.843065
-1.194572
-1.566152
1.013361
-3.674410
6.481480
13.387842
-18.193108
-4.051716
-38.257862
-28.745305
-19.614143
-33.553035
-25.071776
-8.119878
-1.149023
-3.874044
-1.827946
-0.801692
-9.080179
-10.852223
-19.834668
-13.395269
-2.308942
-17.143695
-8.643307
-23.458729
-17.282265
-21.406456
-5.312961
-1.252055
-3.395488
-1.288000
2.736361
6.063491
-11.451402
-9.277279
-43.820539
-38.220839
-33.551228
-41.507680
-28.231758
-12.072149
-5.480907
-6.746088
-18.025039
-4.380617
6.461216
-6.416628
-4.326973
-13.958819
-0.818318
-3.454624
-10.921007
-14.384151
-18.042545
-20.420385
-16.640900
-36.820437
-24.086660
-15.130975
4.130407
6.239334
-25.995186
-16.172479
-37.719566
-34.973569
-41.788686
-46.336354
-39.507525
-31.022053
-3.977332
3.857909
-15.954764
-3.988578
-6.638471
-13.641233
-10.558859
-11.814551
-1.011958
-1.770001
-17.662718
-19.160966
-18.620503
-15.384676
-8.100496
-38.582635
-33.111441
-41.801227
-19.201886
-29.306622
-25.902039
-24.978990
-53.868111
-35.939751
-49.124258
-64.429866
-53.771110
-44.867872
-5.331965
-4.260658
-15.440198
-1.871283
-13.687258
-10.761465
-11.658750
-7.250814
-0.698477
4.489702
-17.348586
-20.835793
2.539021
0.435882
-8.686585
-26.825721
-42.905980
-49.085646
-47.339643
-47.205135
-40.183841
-41.220963
-61.772693
-67.601626
-50.359214
-66.738930
-65.724457
-40.775149
-10.256950
-5.709630
-9.525290
-5.350426
-13.377531
-10.167752
-4.775318
-5.449695
-2.339120
-8.710485
-24.792808
-26.638130
-10.976764
-4.035712
-20.443797
-27.197779
-38.653844
-41.538163
-47.208268
-51.394084
-49.833384
-47.888687
-65.391821
-59.704799
-65.341341
-77.878905
-75.333523
-57.786585
-0.740599
-4.936303
-3.235880
1.078450
-14.405122
5.237729
-0.220375
10.215000
2.274586
-0.838686
2.295620
-8.057196
-0.778623
-2.041430
8.182829
7.931740
7.913906
5.810465
-0.706719
-2.965935
4.225911
-0.823281
10.577316
0.090256
0.055325
-2.411640
-8.354972
-0.087284
4.148438
5.016633
1.301545
-2.475397
4.954306
8.239380
0.809343
13.636786
5.415983
2.953043
4.650798
6.295368
2.693864
-7.153192
-11.808296
4.611815
11.269047
5.580254
-0.126552
-2.379489
4.543228
3.937942
5.936036
-6.416658
-2.177759
-13.227505
-13.854186
-2.770199
0.436397
0.369287
5.149950
-0.871608
-1.347210
4.955583
5.849491
-3.236283
-6.361807
-1.089450
-9.916298
-2.528955
-0.166345
-1.286496
-11.373827
-19.829449
-5.716461
6.998231
8.183955
6.502196
-3.439393
-11.092408
-22.734759
-25.010886
-20.170632
-21.578962
-17.982558
-12.839935
-5.649546
-8.461405
-2.224925
1.577698
1.633025
9.134489
10.718966
-2.140940
-2.308596
-7.621179
-14.819363
-7.013981
1.046601
10.473577
-10.763998
-14.871702
-10.707216
3.321232
7.691760
4.848387
-2.923364
-2.589897
-17.782491
-24.605151
-28.962710
-19.584523
-16.056438
-21.447087
-13.454269
-5.481342
0.624017
1.142708
-0.983580
7.842440
6.767201
0.453216
-4.057797
-8.483338
-13.568543
-7.287608
-18.871366
-15.974191
-5.808703
-4.591930
-2.115961
4.570550
6.386211
21.995562
-1.330567
0.326804
-2.731019
-17.651567
-24.342992
-30.955565
-22.966411
-23.448152
-20.606003
-17.137263
-5.945788
-7.479858
-11.712277
7.508649
8.819870
10.179738
-1.391877
-7.002346
-9.163740
-23.432392
-16.758806
-21.678562
-3.707191
-4.569935
3.042852
4.535362
19.986668
22.799091
6.728375
-1.194758
-5.446383
-19.652528
-26.014366
-38.786017
-24.584786
-24.837522
-21.675865
-26.220146
-19.496734
-5.623897
-6.167967
-1.526828
13.229570
10.214743
0.903286
-5.502942
-15.024823
-18.420720
-18.591513
-15.176931
-11.003031
-9.602048
0.331067
7.423586
10.313809
9.586317
11.798727
3.061597
-19.745285
-35.828860
-33.358919
-45.820826
-39.893694
-39.286872
-20.955487
-16.671158
-14.696302
2.346307
-15.243825
0.545330
9.352005
3.457453
-6.078038
-12.550651
-26.671460
-31.515278
-19.261621
-15.439614
-8.207139
-8.260535
11.708208
3.204598
11.465526
11.181031
-2.595224
-2.422109
-14.917538
-47.497198
-50.438417
-53.851659
-51.491839
-45.084928
-19.461644
-17.789113
-13.131694
2.083297
-11.535882
-10.858941
-12.592451
0.661711
-5.102820
-9.152100
-28.722381
-22.233144
-9.896569
-5.974040
14.908913
5.219785
-1.585813
-0.462277
5.522777
-5.487622
-1.490910
1.837266
-11.601048
-20.664675
-37.685224
-37.907186
-35.189544
-28.953402
-20.451795
-9.077806
-6.916253
-1.383625
-10.362239
-10.245482
-17.625477
-0.475692
-2.603384
-9.183254
-33.928388
-23.506262
-7.487984
-9.439708
13.999026
4.794871
3.552082
6.020161
9.434463
4.186533
2.455629
8.119397
-15.167746
-20.103755
-42.698519
-41.556767
-30.648642
-16.457492
-24.091415
-14.255338
-9.449363
-1.676282
-11.177209
-5.734654
-21.671224
0.961767
-3.103986
-14.634431
-32.053989
-24.298284
-15.308543
-9.795811
11.253314
-1.410571
3.483454
-0.001729
13.004446
6.196499
-15.882504
-14.436866
-17.413975
-18.688587
-32.298430
-35.131160
-34.719441
-25.983889
-24.786301
-15.865197
-13.315740
-0.771302
-10.502952
-0.328686
-18.375881
-1.204880
-6.194458
-17.251933
-31.048620
-21.148111
-17.108469
0.222637
16.640397
3.080545
6.699459
1.589189
7.209512
8.426178
-8.081862
-3.685176
-10.817206
-12.071600
-22.290420
-32.042959
-18.503473
-13.081884
-11.276352
-11.625022
-3.175950
2.324584
-9.106623
-1.653200
-17.088009
-1.522580
-7.847682
-21.124515
-33.306175
-21.044786
-17.914158
2.300807
19.616851
7.420197
0.855327
0.561669
-1.642348
6.941912
-10.900989
-10.914915
-14.017814
-16.103953
-19.895023
-28.402343
-11.152054
-9.667835
-15.830665
-19.584799
-12.933301
-0.160742
-6.599126
-1.857399
-20.667496
4.438974
-10.672964
-22.349481
-27.510370
-18.606693
-16.123899
-1.726222
7.300468
12.677716
19.850280
12.219563
20.271062
17.912504
11.686855
11.815385
0.390688
-1.564999
-6.545536
-12.681720
4.352671
-8.337752
-5.134375
-12.516525
-10.493317
-4.254296
-6.815319
-2.051297
-19.215523
3.284179
-7.608551
-18.231815
-29.788190
-16.898023
-3.189766
4.529675
20.206818
4.547037
10.834613
18.827539
24.869300
22.898138
23.585338
15.756356
11.898530
9.745079
6.421649
5.555414
9.459987
-4.927265
-5.282040
-13.606195
-8.667925
-2.917244
-13.593193
-1.875041
-19.461951
1.785690
-8.943720
-16.061099
-26.527165
-20.626709
-3.099630
5.363582
12.936618
3.618018
4.873812
11.784285
21.460038
27.286613
23.008471
18.798581
25.333992
18.140014
9.709273
10.105825
-1.547670
-16.167526
-2.497187
-6.268450
-7.191235
-5.007220
-14.616610
-12.019930
-17.712296
-5.603706
-14.946583
-21.095456
-42.919880
-14.599205
-13.086626
-9.280194
2.089045
1.196811
16.594449
7.276509
20.271407
24.675698
20.283045
11.887609
22.605553
26.228635
12.712372
3.582194
-14.046578
-9.322089
-8.552422
-12.182736
-17.198142
-8.217536
-18.172249
-18.409209
-19.834271
-5.220053
-11.820358
-17.358449
-36.187240
-13.177945
-8.753263
-7.445577
-3.059912
-2.162098
8.562249
3.560416
10.267333
21.404857
19.584758
15.207083
25.346402
23.025151
10.479017
-0.452166
-5.073665
-5.251669
-2.238451
-7.863232
-14.567955
-8.536926
-16.009895
-16.874354
-18.031427
-3.865950
-13.299537
-20.048694
-38.137864
-14.456921
-8.334564
-3.288169
5.335440
3.801481
0.976794
13.706974
17.578062
16.449054
-0.428316
-2.534702
-2.248251
2.940063
-9.859898
-11.017991
-14.567901
-19.617666
-6.241809
-12.420243
-13.860062
-3.785592
-18.444555
-9.635154
-16.864374
-0.620295
-8.336840
-14.513911
-33.329048
-15.118558
-10.196275
-3.601041
9.872941
-3.780042
0.613434
2.979509
3.406093
10.887812
0.579062
-8.031489
-4.643058
-8.042772
-20.591833
-5.530932
-13.507965
-17.471682
-0.695625
-5.096695
-8.791232
-5.653625
-7.713519
-2.624960
-11.138059
-0.455382
-1.897655
-11.560176
-37.048799
-14.537425
-18.196623
-13.510332
-0.687781
-9.968624
-14.601010
-6.923612
0.797676
3.584836
-5.069461
-5.584114
-12.003161
-28.768268
-23.119972
-24.687712
-17.439028
-19.017941
-3.796236
-6.025191
-2.269616
-2.149245
-5.873782
-2.262255
-6.165307
4.869227
-1.123908
-7.959803
-33.578496
-17.154271
-13.192597
-9.699750
-4.142501
-2.572125
-6.126010
-4.735205
7.064619
3.740800
-2.823192
-3.752611
-11.565845
-29.622258
-35.858174
-37.862007
-24.072957
-23.472570
-3.812245
-1.531226
-4.375801
3.861348
-14.327666
-3.661406
-7.564853
-2.562391
-5.467321
-16.807292
-34.655675
-14.564802
-10.190973
-11.153273
-17.359299
-18.223883
-14.494604
-6.508569
-0.294728
1.747185
-4.374516
-8.322760
-35.172662
-43.461168
-39.180438
-41.788811
-29.227243
-12.245077
-4.840268
2.379600
0.030814
2.808361
-15.235124
-5.791572
-15.154009
-6.173664
-6.417268
-18.727676
-23.582333
-15.545767
-11.261096
-8.923586
-16.120007
-18.154426
-17.371161
-11.614794
-8.611791
-8.324643
1.517528
-20.235605
-49.011928
-43.402370
-39.389198
-42.212810
-27.455197
-11.604910
-5.418809
1.135759
4.650538
5.935667
8.366020
10.099252
0.458652
-0.715266
0.125899
-1.506792
7.394530
23.677489
-3.884301
-18.066225
-23.802170
-32.935116
-28.548642
-28.720846
-11.061870
-5.870535
-27.127986
-35.985811
-52.354512
-49.472626
-42.617483
-44.385556
-30.614031
-30.833160
6.057340
5.542744
7.262760
10.449424
0.531821
2.683850
-4.302937
-2.093316
0.119223
-4.029701
3.379341
19.457145
-6.606649
-7.721739
-20.208334
-43.566467
-37.962792
-46.730576
-32.834989
-43.401653
-45.624429
-49.514311
-61.376893
-57.276939
-51.476661
-56.462016
-34.521737
-36.465124
3.214607
0.736892
4.696430
9.751641
-0.468910
7.579151
-1.378112
2.356428
-0.248885
1.146326
8.107329
17.132736
20.404356
5.000026
-20.456999
-40.669685
-42.727431
-43.611587
-51.130758
-53.341322
-51.546821
-51.380763
-68.493746
-58.560193
-48.151766
-65.593382
-40.512982
-31.472143
-1.694342
-2.974048
2.707734
5.044074
1.758907
5.211082
1.188962
2.524999
-4.852324
-4.871667
-1.915284
12.666552
27.592349
19.565191
-17.092212
-26.821658
-36.290420
-31.485944
-44.688819
-46.517750
-48.800403
-46.272101
-57.616522
-40.608730
-39.815517
-60.978669
-36.403879
-28.083510
3.672894
6.779748
8.903872
11.421830
4.941213
4.506346
9.935152
1.691143
-2.502180
8.082469
5.905491
7.000169
-3.764461
-4.387040
-8.130780
31.497077
-12.187271
-6.097844
5.529778
6.031371
3.294059
-5.840709
-46.123751
14.344068
5.155585
-1.875858
-1.947169
-34.530759
-4.317550
-9.444087
3.355748
12.496482
-12.374919
-18.225615
10.407349
-13.649034
-27.309674
-18.640577
7.102566
16.936803
5.645335
31.445791
23.690533
-6.457908
-29.139338
-30.690340
-28.145353
-26.911631
10.658611
-2.086216
-49.070431
2.346832
-12.042604
19.218097
-16.133590
-1.597126
-6.664867
-1.557246
-3.635808
3.575459
3.887895
-11.868997
-12.289697
4.963369
0.733715
22.670735
37.790445
33.690340
7.326465
16.802632
-5.974493
0.703039
-31.253294
-53.027735
-42.685077
-22.102779
-24.272617
3.413227
6.759386
10.769069
8.022237
3.441493
-18.007722
50.781177
7.259506
18.866473
7.388459
-9.047371
-11.000206
-12.065264
-7.839585
7.058284
2.509171
36.193692
48.966867
53.003243
20.740495
25.067808
2.727331
-8.327335
-40.376598
-43.940158
-41.626769
-42.285711
-27.895007
-27.329442
-3.876027
-3.141233
9.247000
37.738122
7.588338
44.083656
20.221849
20.457606
7.926367
-5.430265
-7.502166
-11.248659
0.087377
25.203806
1.854869
-0.394078
8.686798
18.526759
4.625567
17.060019
-2.079873
0.396071
-17.225168
-20.023641
-25.462187
-22.978146
-50.897954
-32.321767
-31.428435
-17.759730
-7.460155
15.795206
18.979626
60.342651
40.009535
35.165525
15.858808
7.136683
-20.267579
-19.152880
-6.085343
-3.876829
-3.457273
-21.624731
-16.577657
-9.388181
-1.690648
27.382641
-15.950135
8.186040
-21.413241
1.256617
-7.927952
-11.749510
-36.789977
-36.224833
-7.705982
-11.394953
-23.915769
5.303188
9.223055
32.800386
28.327043
33.942085
19.761879
-4.135282
-0.318544
-4.933633
-1.408622
-21.343769
-15.595507
-22.878291
-43.599362
-26.348836
-0.453493
-0.131455
14.922860
34.423234
-22.352943
1.463205
-4.122517
-7.649669
-7.770309
-12.942605
-3.333383
16.293627
-28.286054
9.104858
20.877040
1.312092
35.847770
28.923572
8.803247
-5.922914
30.926193
-4.622720
-1.624865
24.325584
19.713357
28.238169
13.427354
30.099209
1.735713
26.819379
21.896145
34.925259
-6.921493
6.149830
-4.342035
12.702851
14.667477
5.451676
1.048994
23.409434
14.352091
0.955279
26.615847
7.850150
18.291344
21.385732
4.300087
9.841710
-0.149977
5.002159
-4.248483
-2.287647
-1.569602
-11.948655
-27.985542
-31.122342
-5.371000
-0.586530
7.150093
39.106541
53.161374
35.840997
21.815698
20.879055
