-0.591665
-1.263832
-0.323498
-0.054108
0.406715
-0.741685
-0.232343
-0.170722
-0.628703
-1.659390
-0.513717
-0.616418
-0.824397
0.519684
-0.558718
-0.613975
-0.196653
-2.186677
-0.750414
-0.379089
-0.915563
1.149185
-1.071138
0.058061
-0.151745
0.257276
-0.081939
1.342065
-0.693137
-0.895147
-1.922226
-0.305250
0.109045
-0.710180
-0.717288
-0.424388
-0.882242
0.706635
-0.262312
-1.035255
-0.087086
-0.951525
-0.267307
-1.704993
-0.666839
-0.694122
-0.326003
1.436330
-0.375946
-0.480287
-0.935249
-1.498671
-0.807497
-1.068122
-1.693679
0.249772
-1.210999
-0.236445
-0.321270
-1.130802
-0.243406
-0.124374
1.555457
-1.177703
-0.682710
3.160564
0.312701
-0.987850
-0.249891
-3.365359
2.927732
-0.128869
-0.780559
-0.067967
1.272963
-2.327433
-0.691708
-0.653275
-0.551209
0.210046
-0.105521
-0.307666
-1.276795
0.164374
-0.088810
1.820559
-0.281854
0.077830
-1.336450
-2.087339
-0.472428
-2.224484
-1.578909
-0.609200
-0.011599
-0.533302
-0.540496
1.332839
-0.061377
0.186176
-1.389875
-0.305488
-0.385037
-1.199359
-0.295224
-1.409887
-1.216488
-0.257142
-0.082144
-0.078782
-0.719839
-0.576184
-0.145978
0.022895
-0.877437
-1.082086
-0.221190
0.190768
-0.303444
-0.518150
-1.126866
-0.486117
1.009075
-0.666824
-1.004336
-0.260674
-0.242626
-0.799776
-0.579247
-1.846887
2.600145
-0.270708
0.064506
-1.739410
0.258337
-0.557974
0.360419
-0.066535
0.027439
-0.594689
-1.410669
-0.532466
-0.307553
-0.592826
-0.588846
-0.156831
-1.889996
-0.217015
-0.376625
-0.447117
0.125905
-1.611934
-0.478988
-0.970422
1.254165
-0.055853
-0.210547
-0.966258
-0.479025
-3.595550
-1.156957
-0.526131
-0.719695
-0.174583
-2.618657
-0.945158
0.175360
-2.748594
-0.023592
1.641179
-1.471163
-1.458553
0.554880
-0.055361
-0.389145
-0.354828
-0.486996
-0.338685
-1.059607
-1.843830
-0.315374
-1.399877
1.259524
-0.095837
-0.884330
-0.121784
-0.688451
-0.712293
-1.422824
0.033405
-0.511544
-0.094748
-0.929736
-0.637737
-1.032792
-0.753237
0.931249
-1.700334
-0.095062
-0.920516
-0.639725
-0.858966
-0.902017
-1.307819
-0.855241
0.923287
-0.628727
-0.430381
-1.058578
-0.332549
-0.604678
-0.280199
0.256264
-0.532371
0.531740
-1.570229
-2.038018
-0.487179
-1.378401
-0.089265
-0.283549
-0.786259
-0.420543
-1.288985
-0.148024
-0.158533
-0.304496
-0.698634
0.475920
-0.276522
-0.200754
-0.346093
0.520729
-0.356259
-0.717948
-0.665090
-0.372753
-0.852358
0.802964
-0.215709
0.169931
-0.565997
-0.311022
1.103350
-1.057728
1.351775
-0.865062
-1.027670
-0.928682
-0.741568
-0.602543
1.418029
-0.661831
-0.303095
-2.166166
-1.511003
-0.289837
-0.491532
-0.076569
0.624463
-0.866265
-0.725833
-0.340979
-0.029217
-0.159670
-1.682834
0.235510
-0.070615
-0.323497
-0.031710
1.412243
0.535300
0.142249
-0.328493
0.346680
0.505070
0.169276
-0.428646
-0.916778
-0.164387
0.048001
0.406414
-0.165660
0.023415
0.294531
2.680199
-0.962014
0.066721
0.113584
-1.146961
0.122599
-0.310398
-0.579860
-0.667254
-0.087976
0.204156
-0.220021
-0.798845
-0.612639
-1.115164
-0.274686
0.049587
-0.141710
-1.327094
-0.231467
0.382604
-0.152054
0.920893
-0.862705
-0.708742
-1.280514
-0.079102
-1.111921
-0.292546
0.218722
-0.282273
0.284884
0.396780
-0.351936
0.033027
0.301342
-1.904086
-0.837154
-0.630712
-0.017798
-1.292751
-1.484177
-0.014281
-0.186251
0.088876
-0.088691
2.484566
0.295181
0.013841
-0.279104
-0.003535
0.356988
-0.005313
0.023384
0.423023
0.150490
-2.626445
0.083894
0.299370
-0.812445
-1.755898
-0.139936
-1.313849
0.238476
-1.275055
-0.077716
0.387513
-0.150902
0.851304
0.163678
-0.427826
-0.917839
0.646531
-0.351510
-1.022395
-0.508705
-0.957845
1.030474
-0.327293
-0.182921
-0.617941
-1.261579
-0.394344
-0.073142
-0.229933
-0.068382
-0.610548
-3.173070
0.035330
-0.163221
-0.791852
0.192942
0.097733
1.728848
0.168421
-0.588743
-0.450302
-1.362033
-0.108694
0.023955
-2.126443
-2.475416
0.203926
-0.563283
-1.507168
-1.184293
-0.995076
-1.845066
-0.081656
-0.271457
-0.634405
-0.518760
0.214126
-0.107594
0.089413
0.369954
-0.295468
0.903032
-0.306654
0.432559
0.051877
-0.264953
-1.427541
0.121683
-0.705551
-3.321450
0.472579
0.125747
-1.743365
-0.006570
-3.723076
-0.686588
0.251982
-0.009320
-0.513523
-1.446028
-3.374116
-0.883190
0.494228
0.058117
-0.965346
-0.156174
-0.447719
-0.178592
-0.817312
-0.226189
-0.296649
-0.164177
0.210226
-0.405072
-1.794456
4.238877
-1.438725
-1.592325
1.042865
-1.132197
-1.019158
-0.052029
-2.714242
-0.932803
-0.329640
-0.357741
-0.133593
-0.728667
-1.090267
-0.358243
-0.948773
-0.496941
-0.838003
0.462358
-0.266602
-0.631329
-0.751751
-0.180633
-1.233749
-0.056175
-1.672186
0.396238
-0.390910
-0.114929
-0.713056
-0.970963
-2.282051
0.808036
-0.303362
-0.950859
-0.733376
0.132726
-0.396244
-0.972500
1.550619
-0.709699
-0.224756
0.150242
-0.617172
-1.408103
0.417152
0.381127
0.042712
-0.261455
0.471008
-0.568432
0.117907
-1.281218
-0.505195
-0.252587
-0.646917
-0.254810
-0.439668
-1.493397
-0.273990
0.048689
0.417013
-0.033954
-2.670838
2.284920
-1.388049
-0.982144
-0.675613
-0.179388
0.032427
0.103919
1.740378
-0.397895
0.060535
-0.884686
-0.194687
1.973811
-0.602047
-0.241333
0.271758
-1.510594
-0.220184
-0.141538
0.646566
0.426744
0.356632
-0.269677
0.401475
-0.570608
0.300683
-0.649054
-1.946454
0.149615
-0.179160
0.531868
-0.003698
-0.791771
-0.589290
1.761691
2.424298
-0.368989
-1.244442
0.276657
-1.267961
0.037540
-2.100210
1.660899
-0.059722
-0.265653
2.268925
0.674383
-0.315560
-0.241948
-1.037110
0.060048
0.241568
-0.615485
1.448565
-0.070753
-1.308357
-0.597628
0.375200
-0.198020
-0.360077
-0.458422
-0.306127
0.271620
-2.160115
-0.901281
-0.707392
0.870375
-0.034831
0.950437
-0.855255
1.521462
-0.742548
-0.004000
-0.354517
0.392448
0.748053
0.662993
-2.176010
-0.863771
-0.398441
0.452336
-0.158676
0.134618
0.457751
0.314924
-0.713706
-0.932658
0.050141
0.279328
-2.533288
0.415334
0.436883
-0.205819
0.234238
-1.296476
-0.014835
-0.044411
-2.901020
-0.923791
-0.058901
-0.228196
-0.958691
0.076351
-1.771049
-1.820427
-1.634734
0.093230
-0.598386
-0.093714
-0.127124
0.504719
-0.888892
0.901208
-0.238712
-0.973937
0.984014
0.039371
-1.339505
-0.178200
-0.379247
-0.234656
-0.662327
0.148074
0.226848
0.308250
-0.259579
1.403569
-1.061307
1.847768
0.226916
0.256903
-0.041719
-0.938111
0.267726
-0.840030
0.624430
-0.899483
-0.298000
-1.768560
1.151795
-0.012854
-0.155234
1.109365
0.291983
0.763853
-1.459763
1.399786
0.784261
0.574360
0.088248
0.395255
-0.937824
-0.671327
0.941292
-0.368526
-0.162072
0.833067
-0.447073
1.527101
-0.813652
0.117801
0.992837
0.103125
-2.862949
0.215004
-1.207286
-3.452991
0.279265
0.010449
-0.056897
-0.058612
-1.299972
-0.843884
0.291754
-0.178616
-0.492117
-0.164008
-1.967634
-0.828693
-1.632711
-0.302412
-0.729674
-0.816366
-0.515604
0.672690
1.013446
0.449224
0.580834
-0.867738
-0.273759
0.364018
0.548630
-2.063521
-2.650040
-1.816288
0.173282
0.460687
-1.557461
-0.475581
0.733432
-1.996712
0.323815
0.339814
0.304088
-0.537297
0.621418
-0.304759
0.450999
-1.626142
-1.356826
0.722790
-0.661165
0.664691
-0.728537
0.649684
-1.308888
-0.133716
-0.999830
0.136197
-0.503481
-0.945024
-0.135268
-0.657553
1.578735
-2.719859
-0.128319
0.494007
-0.796530
0.655638
-0.094063
-1.131605
1.245973
-1.042606
-1.735448
0.000421
3.911310
-0.846096
0.426681
0.134214
0.109731
-0.069860
-1.724690
0.065373
1.389938
0.575196
0.565450
-0.934259
-0.975335
-0.328725
-0.609308
-2.525781
-0.000372
-0.552954
0.157809
-0.065897
-0.016293
-0.553946
-1.497144
-2.511615
-0.473993
0.077919
0.199094
-0.141388
-1.241406
-0.382680
-0.492627
-1.197678
-3.697630
0.240676
0.599569
0.514515
0.640248
-1.507304
-0.276395
-0.110578
0.104312
-1.597483
-2.846513
0.482484
-0.490460
-0.152271
0.680075
0.460462
-2.676590
-0.352649
-1.541179
-0.158076
-0.595923
-0.115658
0.815736
-0.438827
1.726133
-0.769603
0.581323
-0.433528
-1.740468
0.105627
-0.949763
0.003503
0.272258
0.400075
-0.705149
0.380141
0.059347
0.427280
-0.371451
-0.158372
-0.624441
-0.628990
-1.141315
0.088771
-1.453920
0.041441
0.659170
3.862981
0.787529
0.137446
-0.806074
0.727274
-0.645338
-0.232952
-1.368079
-0.709861
0.355692
-0.448376
0.646119
-0.239845
-0.405688
0.164031
0.253817
-0.332454
-0.127823
0.311541
-0.952655
-0.079072
0.202092
0.519028
-1.232309
-0.581407
0.801198
2.074345
1.799411
-1.534472
0.589638
0.710367
1.120398
0.332020
0.483974
0.480739
0.070634
-0.301706
0.044096
0.308025
-2.183608
0.007139
0.609295
0.291461
-0.613457
0.238152
0.273765
-1.350074
-0.657555
-0.697336
-0.979207
-0.183063
-3.745327
0.324551
-0.097843
-1.540956
0.287438
0.227295
0.392199
-0.833786
-0.624321
0.986282
0.226401
0.443910
1.437692
1.654936
0.305262
0.662240
0.508474
0.800701
-0.851984
-2.925883
-0.719333
-0.742216
1.173892
1.201131
-0.547675
0.944361
1.106979
-0.793853
-0.073861
-2.038239
-0.843387
0.402654
1.963155
-0.481844
1.424867
-0.402394
-1.917049
-1.307042
-0.613666
-2.430805
0.353403
0.374322
-0.760961
1.253629
0.675501
-0.332859
0.320878
0.023239
0.935840
-2.552758
1.192288
0.120454
-0.632278
-0.296491
-1.187977
-0.196293
0.985669
-1.408599
-0.000042
-0.134437
-1.079642
0.937859
-3.315899
-0.947740
0.119328
0.187735
-0.685274
-0.275446
-1.402370
-0.282046
-2.101197
0.545546
-0.796221
0.061119
-1.455123
-0.401034
-0.519024
0.348047
-0.058347
-0.522298
1.184943
-0.415313
-2.061442
0.418707
0.077767
-0.857683
0.512164
-0.839367
0.511801
0.360045
-2.520253
-1.773026
-0.298531
1.335529
-0.301964
1.541887
-0.379248
0.596584
-0.828148
-1.926097
-0.951186
0.818527
-0.580159
-0.837957
-0.141889
-0.066039
-0.780610
-0.206042
0.074506
0.207912
-0.727413
-1.799970
-1.290422
-1.121535
-2.572727
2.957298
0.179969
-1.267839
-2.718980
-0.096264
-0.134058
0.077405
1.661394
-1.243037
-1.030912
0.316338
-1.448337
-0.805430
0.311761
0.676257
0.202491
-0.586171
0.505785
-0.791082
-0.523540
-1.880539
-0.190808
-0.788138
0.344038
-0.088910
-0.981651
1.495972
-0.809280
-0.231166
0.208165
0.273313
-0.653876
-2.091867
-0.934230
0.207568
-0.756902
-0.368682
-0.151016
0.408631
-0.836803
-0.572726
0.413905
-0.262869
-0.653409
0.784287
-0.810761
0.296001
0.507471
-0.315970
-1.418119
-1.107576
0.853929
0.623604
-2.204059
-0.178994
0.419645
-1.507185
-0.641911
1.641319
4.127006
0.880351
-0.044870
0.555528
1.519898
1.156730
-0.915101
-0.541716
-1.107722
-0.187640
0.738961
1.762796
1.406209
0.372698
1.696579
-1.078835
-0.705057
-0.114750
-1.576522
2.124885
0.381325
1.008065
0.297700
-0.564688
1.441661
0.462052
-0.313592
0.193564
-0.812003
0.507201
0.075814
-0.679620
-1.148654
-1.220657
0.633858
0.438308
-1.412428
-0.190414
-0.036832
-3.788799
0.181287
-0.256037
1.712971
0.460802
-0.191987
-0.810610
1.811384
-0.604353
-1.145254
-1.015686
-2.183837
-1.369448
0.029678
-0.881980
0.028211
-0.487743
-0.661493
-0.102820
1.519511
0.613777
-1.268655
0.260898
-0.061514
-1.626570
-0.246297
-0.707432
-0.985791
-0.581647
0.818932
-0.463018
-0.982284
0.608171
0.141147
-2.290886
-1.413592
-0.973461
-1.532876
-0.492184
-1.480605
-0.315306
1.096959
0.286828
1.007929
0.936942
-0.491494
-0.232634
0.201505
0.036405
-2.933475
-0.913419
0.406823
-2.151503
-0.427297
-0.351842
-0.322356
-1.799811
-2.177829
-0.522858
-1.169509
-0.379475
0.668567
-1.665721
-0.724289
-1.250916
0.177551
-0.242556
-0.639113
-1.542897
-0.193381
-1.385351
-0.603353
-0.645786
-0.068761
-0.568757
-0.966968
-1.351393
0.555311
-1.587014
1.265506
0.177619
-0.552549
3.118915
-0.994726
-0.470801
-0.625443
-0.777296
-1.026551
0.705067
0.063526
-0.303207
0.125579
0.880715
0.955299
-0.320478
2.347672
0.973119
-1.526703
-0.498120
-0.208349
-4.271113
-0.591831
-1.152088
-1.106420
-0.394234
-1.220207
-0.995713
-1.001939
-1.850414
1.081448
0.419297
-2.507150
-1.951556
0.883488
-0.343302
-1.421370
0.180915
-0.464718
-1.067392
-0.848536
-0.744932
-0.325658
0.421719
-0.360938
-0.008841
-4.185880
0.073808
0.613995
0.009873
2.521109
-0.914135
-0.431618
0.527261
-0.676851
-1.259733
-0.602046
-0.589581
-1.136206
0.785437
1.397033
-0.723605
-0.803035
-1.390458
0.679968
0.810793
-0.078353
1.722152
-0.474837
-1.123637
-0.134040
-0.463593
-3.076855
-0.847633
-0.573356
0.482517
-0.350976
-1.148769
0.407242
-0.992165
-0.284555
-1.287378
-0.249874
-2.118715
-0.255281
1.007065
0.122864
-0.945951
0.739821
-0.615766
0.008226
-0.911201
-0.597805
-0.507827
-0.936696
-1.190377
-0.687718
-0.092214
-0.218141
2.533191
0.186482
-0.175449
-0.284475
-0.316895
-1.273344
0.741770
2.035749
0.457275
-0.662429
0.078593
-3.428191
-0.012792
-1.066843
-1.708828
-1.388257
0.266275
-1.029459
0.066180
-2.842184
-1.004427
1.750336
-1.238650
-0.345602
1.367389
-1.575676
0.517420
0.084050
-0.969161
0.454040
-0.444168
0.532991
-0.824651
-0.854898
0.215770
-0.124707
-0.082398
0.092542
0.429969
-3.436475
0.666396
0.375428
-0.017758
1.908098
0.899815
-1.588081
-1.284803
-0.331489
0.180458
1.875123
-1.489450
1.045377
0.469968
-0.070635
-0.709761
-0.038440
0.801232
-1.847294
0.262543
0.007413
0.148251
-1.394395
-0.262837
-1.390834
0.825945
-0.351144
0.598860
-0.904231
0.136865
0.440065
-0.531739
-0.189078
-0.457035
-0.156475
-1.094038
-0.365639
1.883541
-0.022312
-2.174575
0.283776
-0.927532
-0.851912
-0.504669
-0.502051
0.205393
-0.120889
-0.445679
-0.264492
0.056424
0.252608
0.412416
-0.962107
0.348852
1.336931
-2.596449
-0.047134
-0.965877
-1.146156
1.285329
0.489055
-0.051115
-0.788282
-0.297403
0.096934
-0.429446
-0.336717
0.043825
0.532580
0.050687
0.172203
-0.059692
0.209317
-0.558333
-2.006036
-0.551783
-2.314329
-1.198468
-0.820913
0.067106
0.814307
-0.106949
-0.808589
0.328001
-0.086343
-0.481492
0.613425
-0.834677
-1.461162
-0.284052
0.601342
-0.602238
0.061551
0.271757
-0.925730
-1.605187
0.189739
0.394924
0.021469
0.046119
0.023241
-0.695035
-0.401261
1.293840
-0.290780
-1.376862
-0.841281
0.889216
0.222092
0.641680
-1.257499
-2.212975
1.255277
-0.854632
-1.894155
1.198329
0.002632
0.473451
-0.508983
1.507961
-1.858085
0.735647
0.140542
-0.753724
-0.105554
-0.438147
-0.352703
-0.227583
-0.428767
0.380120
-0.238150
-1.020356
-0.093263
-0.158071
-0.243749
0.440317
0.793449
0.483676
1.809416
-1.189942
0.490972
-0.434452
-0.843736
0.237613
-1.349260
-1.094440
-0.008839
-0.366912
0.169522
-2.089364
-2.914531
-1.050120
-0.726966
0.399817
-1.717510
1.222627
-0.369650
-0.632695
-0.547893
-0.464400
2.102731
0.001125
-0.292609
0.962922
-2.255982
0.367462
-1.771871
-1.986576
-0.315564
0.274609
-0.972910
0.117823
-1.101171
-0.034930
0.091573
0.111326
0.480547
-0.771605
0.471561
-1.212301
-1.664940
-1.341793
-1.895342
0.120939
-0.933974
-0.865830
0.132243
0.198130
-2.067635
-0.111949
-0.496571
-0.263206
1.383343
0.097686
0.814396
0.469772
0.146618
-3.559839
-0.343247
1.025446
-2.492108
-2.324879
-0.007329
-2.207487
-0.591930
-0.182920
-1.196532
0.127388
0.565631
-1.323375
0.363752
0.220727
0.195750
-0.024279
1.863442
0.775390
0.510897
3.575070
-1.198615
-0.769198
-2.752233
-0.063844
0.097796
-0.573405
0.881959
0.308812
0.585605
-0.165453
-1.545350
-3.284260
0.261033
-1.984749
-0.621747
1.060581
0.309687
0.385707
-0.835500
0.028116
0.166881
-1.881222
-0.526006
-1.238192
-0.714113
0.138910
0.323203
-2.866380
-0.339198
-0.321303
0.254768
-1.145442
0.288470
0.269625
0.179570
-0.374545
-0.087225
1.151579
-0.445584
0.122667
-0.555094
0.077654
-0.329682
-0.354432
-1.201455
-1.363731
-0.102149
-0.461892
1.198498
0.269178
-1.155558
0.130935
-0.447748
-0.266931
-0.372986
0.061440
1.313207
0.217744
-0.528182
-0.417880
-0.862283
0.164089
0.020806
-0.808792
-0.809950
-1.287843
-1.587900
-0.256470
-0.212797
-0.072748
-1.030643
-0.253814
-0.281998
0.234062
-1.918925
0.447749
-0.827810
-2.109673
-0.036558
-1.077461
1.124115
-0.916422
-0.936388
-0.268633
-0.531578
-0.294623
-0.649812
-0.459698
-0.956326
-1.301233
-0.704110
-0.025585
0.288102
-0.130466
0.041755
2.279640
0.140334
-0.169936
0.077399
-0.785091
1.031351
-0.738797
0.040396
0.010692
-0.355820
-1.869813
0.246839
-0.086039
-2.340804
-0.471428
0.319435
-1.076265
-1.976192
-0.697864
-0.959914
1.297523
-1.542124
-0.235001
0.582263
-1.430790
-2.512763
0.290824
-0.941945
-0.796989
0.062134
-0.738057
-1.500515
-0.476149
1.791927
-1.145458
0.261341
0.255952
-0.578842
-0.983031
-0.326035
-0.032359
-0.027601
-0.633881
-0.576975
-0.733419
-1.141229
-0.434047
-0.068503
-0.848677
-0.772140
-1.218503
-0.115100
-0.674285
-0.449694
-0.168852
-1.158737
-0.497599
-1.922832
-2.177655
0.148236
-0.191208
-0.947986
-0.546176
-1.286517
0.647831
-0.197161
-0.397580
-0.613723
-1.136071
0.100175
-0.347283
-0.395547
0.075338
-0.069719
1.380941
-0.638200
0.447819
-0.185479
-0.382938
1.526227
0.147541
0.030806
-3.482876
-0.348835
-0.429107
0.328645
0.315371
-4.096426
-1.159014
-0.349832
-0.518677
-0.487392
-1.073511
-1.607457
-0.467342
-1.382485
-0.095664
-1.548024
-0.495429
0.164519
0.393983
-0.919165
-0.334346
0.069203
-0.669053
-0.203843
-0.865760
-2.156690
1.177816
-1.043481
0.091738
0.680778
-0.091549
0.170553
-0.139825
1.065602
-1.259988
0.340916
-0.193350
0.351916
0.271537
0.240359
-0.656414
-0.609971
-0.595129
-0.996837
-0.014148
-0.801313
1.707321
-0.571409
-0.121836
-0.109680
-0.530764
-1.802074
0.329067
-0.112787
-0.998498
-0.557676
-1.670618
-2.733508
-2.360117
-0.379398
-0.766033
0.102546
-0.375338
-0.126983
-1.585035
-1.068320
-0.588484
-0.379858
-0.263242
-1.835010
-0.693291
-0.197423
-0.187262
-0.285688
-0.674262
1.339730
-0.961713
-0.013094
0.161184
-1.315126
-1.263744
-1.996956
-0.118600
-0.304422
-1.885986
-0.601224
-1.038926
-0.016028
-0.536416
-1.777616
0.996966
0.927485
-0.041612
-0.638161
-0.376502
-0.468825
0.021726
-1.913456
-0.134392
-0.141172
-1.685627
1.501769
-0.807886
-0.438897
-0.394872
-0.620046
-2.250643
-0.197575
0.160471
-0.047339
-0.902293
-1.570859
0.083776
-0.384543
-0.068325
0.116537
0.449323
-1.845867
-0.667573
-1.352241
-0.197008
0.202078
1.410178
-0.615308
0.572962
-0.561087
0.115550
0.157260
-0.625041
0.360654
-0.659781
1.047727
-1.068671
-0.575756
-0.050320
-0.937368
-0.719384
-0.437326
-0.623273
-1.115086
-0.498669
0.435181
-0.643608
-0.221922
0.303349
-1.060193
0.025405
-0.314916
0.126445
-0.128927
0.153689
-0.323885
-0.592049
-0.798887
-0.933877
-0.614809
-0.867201
0.518805
-1.626483
-1.019106
-0.491868
0.523510
-0.139695
0.636373
-0.531407
-0.575063
-0.212348
0.566734
-0.914670
-0.287371
0.110313
-0.953163
-2.234689
-0.360178
-1.684576
-1.809502
0.966703
-1.060417
-0.078851
1.611293
-0.597973
0.032181
0.013951
0.274990
-0.495760
0.238414
-0.575505
1.122542
1.328529
-0.233214
0.467685
-1.445479
-0.953783
0.784126
-1.390618
1.401236
0.309461
0.066797
-0.326260
-1.783448
-0.470381
-1.199018
-0.943353
-0.183410
0.353912
-0.760399
-0.821394
0.341359
-0.599909
-0.470664
0.311800
-0.146703
-0.927475
-0.212586
-0.673863
-0.321137
-0.410658
-1.078697
-1.121254
-0.038476
-0.493522
0.241701
-1.021954
-0.017593
-2.005880
0.142149
-0.459758
-0.690862
-2.384598
-1.184528
-0.423221
-0.215159
-0.439560
0.070680
-0.556459
0.595259
-0.682853
-1.367304
-1.556085
0.202911
0.666284
0.139009
-1.914924
0.016165
-0.454804
-0.624164
0.113973
-0.227940
-1.409904
0.992050
-0.118627
-0.018887
-0.213964
-0.775420
-0.113568
0.757480
-0.019333
0.396215
0.401391
0.716816
-0.719086
-0.634578
-1.406192
0.065187
-0.443786
-0.747580
-0.868454
-3.186206
0.124522
-1.862049
-0.316005
2.078067
-0.262120
-1.128307
-1.032551
-0.202509
0.126444
-0.665624
0.322032
-0.534218
0.565515
-2.235770
-0.679037
1.030652
1.476327
-0.049814
-0.637470
-1.293144
-0.026228
-2.019625
-0.795336
0.075252
0.232494
-0.034279
-0.563863
-1.165908
2.742415
-0.458699
3.483403
0.695558
-0.693351
0.569104
-0.761881
-0.581904
0.019889
-0.280801
-0.622510
-1.024126
-0.225432
0.190634
2.382216
1.487118
-2.050908
-2.084668
1.292518
-0.449522
-0.560942
0.999999
-0.857788
0.144331
0.012014
-0.929014
-0.162720
0.082726
0.317459
-0.758520
-1.614274
0.079028
-0.077365
0.170328
-0.272314
2.161596
0.071037
-0.462664
-1.053117
-0.884466
-0.481233
1.135736
-0.306676
-0.205834
0.002855
-0.659436
-0.568660
-0.014004
-0.270723
-0.375460
-2.641952
-1.540303
-0.124120
0.130147
0.425156
-0.181851
0.447188
-2.224323
-0.145329
0.363949
-1.838765
-0.306972
0.202673
-1.293330
0.277618
0.690944
-0.645605
1.162586
0.771206
-0.488938
0.696187
-2.304673
1.596524
-0.250503
1.076471
0.293286
-0.296136
-0.040289
0.422864
0.965082
-0.351803
-0.200679
-0.175034
-0.625108
0.613050
1.471764
1.740031
0.177268
-0.113163
-1.284734
0.818961
-0.583815
-1.213606
0.026515
1.005539
0.218187
0.594581
-0.527145
1.331372
1.082231
0.845864
-0.610036
1.449316
-0.229107
-1.650575
1.290446
0.246209
0.532411
0.130712
1.183100
1.093987
-0.100998
0.216779
-1.476548
-0.900544
0.170446
0.355744
0.338750
-1.877523
-1.257427
-0.612580
0.930686
-0.263231
1.006313
1.380774
-0.478026
0.553402
-2.587286
1.571060
0.894452
0.962294
-0.763095
-1.812303
0.961127
-0.266608
-2.614924
-1.161870
-0.343772
1.720822
-1.027712
0.670187
1.676901
0.786515
-0.555118
-0.175539
0.229724
1.412078
0.511730
-0.019311
1.138022
0.475479
-1.577894
0.290164
-1.539263
-1.263381
-0.743373
0.482896
0.289764
-0.935396
-4.817639
-0.562998
1.954789
1.667619
0.084707
1.333863
0.331170
1.241556
-0.691466
-2.880526
-0.349034
1.203057
-1.113512
-0.862143
0.653451
-0.649896
0.089922
-0.349765
0.559814
-3.487253
0.192881
0.070598
-0.348528
-0.597684
0.569780
-2.057230
0.002135
1.975445
-1.681715
0.054378
-1.306573
-1.577591
-0.411829
-0.986344
-1.191033
0.887582
-0.679407
-0.298985
0.533519
-0.237208
-0.218452
2.116832
0.974621
-0.077346
-0.485796
-0.371457
1.524732
1.318857
-0.423242
0.196198
-0.183927
1.706104
-1.760615
-0.212615
-0.310219
1.348987
-1.666850
-0.693038
1.200446
0.204680
-1.498159
-0.938297
-3.168377
0.307527
-0.297808
-0.866367
-1.326044
-3.468613
-3.277426
0.679570
-0.940727
-0.369953
1.333508
-1.071631
-0.225917
-0.571434
0.209892
1.788321
0.341883
-0.140344
-0.538461
-0.309203
-1.891374
-0.797811
0.138986
-0.713279
-0.869322
-0.065058
-0.542563
0.846955
-1.160297
1.103584
1.948886
-0.458108
0.610326
-1.033053
-1.050668
1.193712
-0.205036
0.376946
-0.063283
0.633299
1.157333
0.498720
-2.244904
-0.479598
-0.581351
1.767096
0.609968
0.707068
0.305673
-0.641890
-2.136559
-1.879035
0.872923
-0.596578
-0.241509
-0.342632
-1.607721
2.150543
1.475644
-1.415789
-1.630414
0.371041
-0.455876
1.325243
-0.626837
1.213653
0.987589
0.799952
-0.502800
0.641213
2.082409
-0.499920
1.598605
0.864402
0.696915
-2.024370
-1.342547
0.915564
1.707232
-2.543348
0.172366
-0.270627
-0.350808
-0.165261
-2.122655
1.779465
0.951376
2.026531
1.740949
0.921208
-0.103412
0.768898
-1.366318
0.216660
0.762622
-0.450644
1.246426
-0.332744
-0.061533
0.415009
-0.174602
-1.084064
-0.013409
0.299036
-0.512269
-1.048029
-0.513908
0.355752
-0.022288
-0.592005
-0.141977
-0.683698
0.009044
-0.085522
-0.716105
0.113052
-0.724807
-1.021567
0.031766
-1.709483
-1.001172
0.152336
-0.971174
-1.021625
0.182083
0.167406
-0.600896
-0.911184
-0.492031
-0.086785
-0.019324
-0.382384
-0.601087
-0.030186
-0.492372
-0.114285
-1.681407
-0.423031
-1.082091
-1.760229
-0.802688
-0.779745
-0.802557
-1.404724
-0.163888
-0.285652
0.352844
-1.174568
0.191417
-0.267084
-1.135342
0.078443
-0.418680
-1.320653
-0.096630
-0.828678
0.029268
0.095279
-0.832746
-1.051821
-0.398724
-0.024278
-0.393233
1.841710
-0.493521
-0.312448
-1.164294
0.845341
0.040160
0.060525
-0.046526
-2.234028
-1.936402
-0.488125
-1.497208
-0.333355
-0.159066
0.135309
-0.155270
1.792726
-0.268106
0.041788
-0.750435
-0.233323
0.189522
-0.360794
-0.533068
-0.343533
-1.872982
1.482567
-1.044878
-0.024341
0.480277
-0.372230
-2.609992
-0.495986
-0.953801
0.923384
0.291675
-0.329571
-0.450758
-0.126909
-1.387191
-2.328145
-0.139707
-0.469814
-0.281611
-1.296493
0.082457
-0.460998
0.347924
-0.677850
0.114501
-0.264682
0.164764
-0.152472
0.414875
1.017081
-0.871064
0.931413
-0.133457
-0.700389
-0.191770
-1.373479
-0.877333
0.386348
-1.094301
-2.303404
-0.143034
-0.438251
-1.895901
-0.235335
0.998733
-0.515118
0.245474
-0.136998
-0.234415
2.569540
0.004460
-0.228918
0.018319
-0.050150
-0.154410
1.786307
-0.708689
-0.076219
-0.565247
0.224399
0.744119
0.106025
0.599205
-1.721873
-0.224820
-0.006657
-1.073990
-0.166955
-2.507963
-1.905458
0.094632
-0.781822
-0.629059
-1.250837
0.861845
-1.022805
-0.985510
0.169261
0.436886
-1.120765
1.504985
-1.465546
-0.130480
-0.594954
-0.675845
-0.501024
-0.081115
-0.880048
-1.200811
-0.551924
-0.671385
-1.633727
-0.094365
-2.598995
0.359708
-0.619910
1.681263
-0.251081
0.182212
-0.411576
0.138881
-0.389934
-1.134952
-1.042752
0.167745
-2.399773
-1.162740
-0.353389
-0.712644
-0.308967
0.487943
-0.112971
-1.739206
-0.168835
1.424228
-0.268906
-0.405667
0.705223
-1.865799
-1.034021
-0.814036
1.154979
-0.574470
-0.472935
-1.343982
-1.518767
0.121292
-1.332987
-0.831971
0.317132
-0.433636
-0.044856
-0.826570
0.154634
0.014547
-0.476726
-0.506608
-0.620808
-1.065194
-0.471457
0.138905
-0.820393
-0.530281
0.154632
0.526250
-0.187582
-0.549534
1.894484
-0.616123
0.075886
0.329164
-0.962928
0.685019
-0.783636
-0.682529
-1.667717
-0.640263
-0.495227
-0.419058
-0.577924
-2.107035
-0.276067
-0.230712
-0.985627
0.033142
-0.708217
-0.786407
-0.191958
-0.292491
-0.098278
-0.272703
-0.590276
-0.229392
-0.068587
-0.929529
-0.214333
-0.251180
-0.470143
-0.639055
-0.657336
-1.744524
-1.058143
0.958746
-0.685097
-0.757130
-0.040058
-2.027728
0.456999
-0.737174
-0.150682
-0.667797
-0.299840
-0.672219
-0.620951
-1.587928
-1.578038
-0.356714
-0.622540
-1.491703
-0.263551
-0.239710
-0.249972
-1.953826
-0.026132
-2.723864
-1.453455
-0.829683
0.056591
0.869529
-0.650264
-0.083206
-0.552918
-0.963610
0.318218
-0.286921
-0.237282
-0.681581
-1.313884
-1.596570
-1.593736
-0.084035
-1.825834
-1.176918
-0.961869
-1.013009
-0.682674
-0.464576
-1.015425
-1.019746
-0.155057
0.378069
-1.426830
-0.166608
-0.290540
0.085194
-2.072287
-0.049300
-0.298775
-1.070409
-1.028714
-1.443797
-0.802334
-1.137364
-0.014903
-0.554947
-0.007968
-0.066196
-1.331198
0.075593
0.176690
-0.361584
-0.151449
0.104386
0.703589
-0.885324
-0.614462
-1.315290
-1.793348
0.660100
-0.672331
-1.095661
-0.637904
-2.448479
-0.266447
3.314389
-0.130662
-0.216193
-0.354124
-0.519374
-0.568210
0.235398
-1.431027
0.021041
0.046155
-1.057765
-0.258449
-0.385602
-0.286028
-0.083856
-0.547840
0.505045
-0.455757
-0.331741
-0.306553
-0.361461
-1.627269
-0.528471
-1.527116
-0.388956
-0.924509
-0.706639
1.120493
-0.815446
-0.496937
-0.863205
-3.842617
-0.459388
-0.015909
-1.213651
-0.973437
1.181606
-1.292630
-0.554667
-0.420883
-0.619392
-1.417328
-0.594899
-0.788769
-0.198701
-0.001398
-0.656266
-0.948146
-0.770476
0.170863
-1.136999
-0.190718
-2.502928
0.130205
-0.446771
1.801602
0.004300
-0.260817
-0.654391
-0.060517
0.146856
-1.505419
-0.005686
-0.555422
0.475385
-0.011950
-3.740509
1.106472
3.265951
-0.178378
-0.609359
-0.150039
-1.168412
-1.606987
-1.584662
-0.096921
-0.196693
-0.061305
-0.708079
-0.832357
0.425153
-1.040966
1.051289
-0.066165
-0.828546
-0.962840
0.199765
-0.148351
-1.496567
-0.726492
-0.146735
-0.629072
0.222252
-0.570225
-0.994430
-0.206967
2.896973
-1.661815
0.881333
0.063296
-0.714659
-0.562763
-0.856658
-0.630375
-0.597587
-0.475223
-0.932882
0.176090
-0.563748
-1.132468
-0.987386
4.277765
2.670793
-2.948152
-0.730903
0.814586
-1.522041
-0.012154
-0.360309
-0.641753
-1.132227
-0.506204
-0.346531
-0.317780
-0.404350
-0.134829
-0.004923
-0.120691
0.005614
-0.604363
-1.047296
-0.705187
-0.561021
1.412480
-0.874903
-1.221510
-0.644630
-0.439897
-0.071211
-2.120514
0.397474
-0.707983
-0.248500
-0.086324
-2.134933
-1.843110
-2.026623
-2.564869
0.197227
-0.335153
-0.296252
0.289116
0.471608
0.071459
-0.564115
-1.210512
-1.414859
-0.327759
0.445982
0.359593
0.961569
0.741527
-0.457156
0.515484
0.764749
0.375549
0.223571
0.021909
1.476679
-0.552552
0.170183
-2.361090
2.784743
0.720584
-0.230485
1.053969
-0.424795
1.424557
-0.186771
-1.853081
-0.860238
0.063205
-0.360101
0.945185
1.139981
0.302309
0.132744
-0.982347
0.428375
-0.269322
-2.092091
0.818300
0.241218
-2.279964
-2.403723
0.450067
-1.933340
-2.175700
0.659353
-1.056264
0.910014
-0.724912
1.011415
-1.672654
-1.333073
1.915907
-0.135044
1.161400
-1.767440
-1.479022
0.017835
0.281130
0.055886
0.365973
0.027561
1.518440
-1.419230
0.830825
-0.762512
-0.968670
1.017264
0.323085
2.036150
-1.569816
-0.952247
1.035667
-1.035986
2.031487
0.392846
-0.880163
2.424544
-1.844725
2.908972
-1.472127
-2.955187
0.651592
0.141518
1.018432
0.723915
1.342216
0.128528
0.313863
-1.570919
-0.579927
0.076561
1.007346
0.467493
-0.157741
2.488735
-0.677130
-0.630833
0.664753
-1.014071
1.107063
-4.305556
-0.042407
-1.002082
-0.795931
0.360752
0.218638
-0.322662
0.737468
1.957904
1.275720
1.454009
-0.142766
0.516714
1.109918
0.875814
0.874180
0.748909
1.569615
0.183828
-0.538106
0.104992
1.834173
0.027864
-2.813984
0.239887
-0.418967
0.271814
0.310366
3.133196
0.355524
-0.042772
2.412585
-0.607400
-0.507272
0.915454
0.568055
-0.140298
-1.395925
-0.534841
-0.857066
0.678637
-0.338688
-0.217068
-2.139237
0.797022
1.051542
-0.974142
-0.091496
-0.700970
-2.329292
-0.632520
0.636102
2.836654
1.439294
0.476007
-0.226719
0.430927
-0.890621
0.086972
1.505589
-1.663521
1.241015
-2.896181
-1.408656
1.662546
2.481602
2.129636
0.380396
1.158281
0.261394
-0.360712
0.791820
-0.282241
-0.621073
0.059287
-1.152652
0.694752
-0.458285
0.198702
1.818306
2.122575
-1.767135
-0.816632
-2.059760
-0.299653
0.847442
0.900214
-0.992433
1.998448
-0.848222
-0.703826
0.337341
-0.365394
-0.413862
0.758093
0.485126
0.686362
0.205204
-0.516066
-0.249947
1.045742
-0.649409
0.609047
-1.928795
1.667710
0.470654
-1.124224
0.336827
2.359568
0.413132
0.296352
1.920737
-2.033557
1.344809
-3.077551
-2.532877
0.205914
-0.191628
-3.582862
-1.312418
-0.799503
0.901217
0.774593
0.613284
0.900951
0.376854
0.132604
-1.447157
0.436615
0.275876
1.044028
0.480864
-2.789550
0.762144
-0.118685
-1.693027
-0.465554
2.508740
0.941601
-0.130257
-0.482345
-0.489674
0.628702
-0.020241
1.157160
1.373004
0.206946
-2.417547
0.836289
-1.562643
-0.138166
0.263933
1.360033
-0.229960
-3.103285
0.934419
-1.148020
0.896749
-0.843455
-0.078219
-1.093700
0.257727
-0.474708
-0.826150
-0.742959
0.143118
-0.448126
-0.626855
-0.899019
-0.559297
-0.817418
-1.576950
-0.801085
-1.231699
-1.351288
-0.324179
1.005917
-0.722343
0.108764
-0.221342
0.700240
-1.006396
-0.770182
-0.395467
-1.154297
-0.668829
-1.273040
-0.770857
-1.685833
-1.098074
0.208828
-0.479696
-1.921908
-0.971772
0.343687
0.173493
0.538776
-0.200600
-0.085087
-1.370924
-1.307850
0.926489
-0.538847
0.316575
-0.809862
-0.184232
-0.417743
-0.654645
-0.235340
-0.742934
-1.313064
-0.980438
-1.655206
-1.959292
-0.557384
-0.808683
-0.610075
-0.489342
0.436561
0.201137
0.151879
-0.979766
-0.512285
-0.560692
1.858593
-0.716459
0.492068
-0.469182
-0.093186
-1.218513
-0.404604
-1.636859
-0.549886
-0.581749
-1.963874
-0.062614
0.496049
-0.211163
-0.229278
-0.625040
-0.018469
-0.388572
-0.798830
0.116038
-3.297654
-0.771040
-0.372925
-1.087629
1.415600
-0.637454
-0.650591
-1.073172
-0.179978
-0.040019
-0.314313
-0.738636
0.215865
0.040482
-0.468083
1.576056
-0.270160
-1.129455
-0.992567
-1.339275
-0.064404
-2.486300
0.003534
0.231800
-0.238352
0.296864
-0.656253
-0.408879
0.100549
-0.962713
-0.664022
-0.808127
-0.230532
-0.724306
-0.049970
-2.675870
-0.409168
-1.541016
-0.176163
-2.133138
0.040296
-0.522518
0.084578
-0.826315
0.131334
1.629629
0.011633
-0.462001
-1.145155
1.312251
-0.676975
-1.183558
-0.574237
0.724028
1.398253
-1.799214
-0.383812
-0.347793
-0.391358
-0.531122
-0.022057
-1.792824
-0.062471
-0.297978
-0.920965
-0.134521
-2.799617
-0.239403
-0.963598
-1.715552
-0.056973
-0.615880
2.647008
0.050624
-0.529345
-0.539204
-0.673806
-0.683851
0.481745
-0.659264
3.204420
0.245596
-1.434646
-0.585647
-1.923951
1.765421
-1.914318
-2.067888
-1.134365
-0.013170
-0.319672
0.513208
-0.861771
1.444788
-3.221698
-1.971142
0.664554
0.644419
-0.361173
0.140867
3.040024
-0.759363
-0.197500
-0.171625
-0.369150
-0.407508
-0.504607
-0.698237
0.072269
-1.969127
-1.111390
-2.954613
-2.011513
-0.402790
1.608150
-0.281746
-1.184322
-0.682951
-1.437611
0.462736
-0.578043
-0.126242
-0.095924
-2.208990
-0.115590
-1.016437
-2.148093
0.987319
-0.518968
-0.424096
-0.924041
-0.131544
-0.317281
1.143626
-1.286749
-0.077712
-0.858824
-0.374084
-1.452636
0.602338
-0.813537
-0.475842
0.004099
0.052980
-0.725667
0.487117
-0.629346
-0.802754
-0.691841
0.947070
0.948449
-0.130778
0.481198
-0.152710
-0.312709
-0.432920
-0.264938
-0.731084
-0.720952
-3.030367
-1.414750
-1.213700
0.571835
-0.994423
-0.690903
-0.143546
0.602555
-0.267218
-0.005525
-1.965462
-1.243045
-0.012559
-0.870269
-0.602805
-0.503542
1.718032
-0.560243
-0.731943
-0.907947
-0.696159
-0.793830
0.013204
0.279764
-0.633964
-0.668596
-1.643178
-1.282270
-0.415856
1.089719
-0.729084
-0.078402
-0.632906
0.407771
-0.720812
-0.934062
0.193534
-0.488637
-0.784056
-1.853976
-0.385473
-2.382543
-0.491854
-0.469693
-0.772317
-2.616496
-0.736390
1.405112
-0.256731
-0.764112
-0.689107
-0.126464
-1.002483
0.392036
-0.196292
-1.334415
-1.028899
-0.893549
-0.228514
-0.322920
-0.534747
-0.567345
-0.314810
-1.420554
-0.933268
2.181351
-2.092534
-0.344300
1.739142
-0.436983
-0.167389
-0.800703
-0.480907
-0.396682
0.102822
-0.989082
-0.032782
-1.267788
-0.553226
-0.635488
-0.579053
1.074012
-3.200367
-0.607376
-1.209006
-0.271002
-0.000534
-0.463419
-0.466258
-2.766411
-0.572005
-0.294830
-0.636325
-0.681516
1.119010
-0.111794
0.170609
-1.908038
-1.279039
-0.164973
-1.797479
-1.292211
-0.823529
-1.478799
-0.256435
-1.842202
-0.041423
0.387122
-0.727810
-1.263428
-0.572528
0.450500
0.266701
-0.523845
-0.646754
-0.980859
0.423177
-0.036513
-2.009957
-0.178087
0.195172
-0.718514
-0.959761
-0.959918
-0.320190
0.045397
-0.360344
0.238409
-0.742980
-0.115134
-0.605109
-0.667013
-1.510755
-0.444733
-1.037752
-0.476136
-1.004773
-0.706973
-0.656198
-0.393891
-0.563948
-1.349851
-0.177832
-0.291098
-0.029008
-0.115069
-0.237564
-0.171974
-0.896199
-0.742445
-0.331717
-0.926804
-0.685041
-0.425289
-0.383637
-0.552531
-0.489526
-0.755241
-1.784634
-0.193571
-0.135303
-0.382184
-0.036624
1.565167
-0.615004
-0.570569
0.676366
-0.147885
0.032106
3.470925
-0.835339
1.022216
-1.493214
-0.721591
-0.803807
-0.295713
1.980673
-0.850199
-0.174931
-2.476008
-0.052745
0.456693
-1.545502
2.317968
-1.288711
-0.711667
-0.683909
-0.706399
-0.734658
-0.581814
0.139861
-0.602009
-2.325973
-1.512962
-2.727432
-0.468732
-0.337946
-1.503044
-0.255228
-3.172353
-0.978224
0.038546
-0.709526
-0.049920
-0.603025
-2.081052
-1.662266
0.795926
2.302350
-1.961825
-0.784835
-0.941623
0.001900
-0.738966
-0.662769
-1.163027
-0.417551
-1.388107
-0.187787
0.853641
-1.569431
-0.203878
-0.640826
-3.602627
-2.102106
-0.250205
-1.165767
1.531362
-0.297796
-0.684125
-1.104358
-0.673933
0.529745
-0.327030
-0.527824
-0.716805
-1.465215
-0.193588
-0.066488
0.255416
0.062871
-0.352007
-0.056967
-0.221402
-1.824631
-0.840227
-0.148063
-1.646486
-0.325795
-0.339995
2.155673
0.010317
-0.138308
-0.385494
-1.141846
1.021800
-1.599901
1.335196
-2.103621
-0.218898
-1.203795
-0.600018
0.022763
-2.761534
-0.852352
0.008984
-3.347837
0.337287
-0.019119
0.507021
-0.145585
0.041779
-0.306602
-0.466571
-0.618909
-0.165889
1.974328
2.149846
0.041387
0.396513
-0.756612
-0.033188
0.139514
-1.173213
0.245850
-1.940293
0.289850
0.592771
0.686133
-2.443855
-0.984462
-1.126171
0.363612
1.208843
-0.001962
-1.409971
-0.281426
-1.446236
-0.619612
-0.137780
0.383181
0.474935
-0.093026
0.092458
-0.585563
-1.110232
0.372812
-1.899476
0.491350
-0.101628
1.252824
0.490421
-0.148127
0.814283
0.256987
-1.082252
-0.403214
-0.025756
0.559686
-1.493285
-1.128610
0.242787
-1.925165
-0.468233
0.723035
0.689932
-0.112752
-1.193994
-0.410145
-0.075357
-0.474357
-0.258489
-0.698542
-0.686192
-1.337816
-0.363999
0.373030
-1.440124
-0.620701
-0.313931
0.937889
-1.148370
0.434839
0.552966
1.322033
0.345035
-0.475576
0.306446
-0.291996
-0.180598
-0.943366
-0.186992
0.279386
-1.799403
-0.957255
0.044491
-1.075044
1.446579
-0.259791
-1.712358
-1.748860
-2.726933
-0.080045
-0.069368
1.524917
-1.896465
-0.378479
-0.541499
-1.556870
-0.241388
1.942375
1.082517
0.172779
0.239727
-2.614662
-0.248197
0.132616
-1.671089
-0.383253
-0.442227
1.374700
-0.132448
-0.474900
-0.476827
0.476174
1.834437
0.661544
-1.351928
2.700381
-1.294946
-2.132142
-0.094460
-1.268613
-0.648262
-3.542661
1.855363
0.439646
0.663236
-1.192425
-0.974395
-0.627670
-0.960221
-2.006647
-2.122672
-2.571172
-0.113462
-0.173837
0.648632
0.068886
0.332646
0.614373
-0.208999
0.087107
-0.569908
-2.272779
0.242074
0.604850
0.551127
-0.587792
1.120370
-0.241139
0.550815
-0.602700
0.014583
0.552976
-0.217325
0.270149
-3.351698
0.030911
-0.447549
-0.346191
-0.657862
-1.398944
-1.726957
-1.188185
-1.101772
-0.341418
-1.338155
-1.958386
-0.678421
-0.599625
0.286243
0.665880
-0.636417
1.219592
-0.496539
0.397396
0.067500
-3.821229
0.484424
-2.140436
-0.224542
-2.467626
1.392071
1.724235
0.515499
1.167081
0.130587
0.443940
-0.103756
-0.048405
-0.526841
-1.010357
-1.446707
-1.575613
-0.483984
-0.609665
-1.047357
0.962445
1.293059
-0.440312
0.873581
-0.085094
-1.693659
0.102834
-0.449066
-1.379110
0.553706
-1.359614
-3.303297
3.068968
-0.527189
-1.274871
-0.008721
-1.980494
-0.519150
-0.187914
-1.595885
-0.932927
1.373708
0.265179
1.784139
-1.464805
0.188183
-0.030773
-0.090066
-0.204441
-0.444226
-0.080755
-0.212057
-2.189202
-0.000902
1.264118
-3.525023
0.688096
-0.201893
2.827163
-0.808822
1.552601
0.225394
-0.647244
-1.391552
-2.006691
-1.785758
-1.468780
-0.398403
0.070496
-0.488417
-0.302620
1.085791
-0.052111
1.644942
0.100597
-1.093055
0.462523
0.314889
0.149128
0.255102
-0.909359
0.103996
-0.071468
0.259857
-0.202813
-0.017786
0.260478
-0.017043
-0.029788
-0.097694
0.139300
0.426410
1.697985
-1.152283
-0.154450
-0.755808
-0.483204
-2.240197
-0.556647
-0.370181
0.039030
-0.623285
-0.616922
-1.131674
0.452524
-0.399367
-0.132249
0.812405
0.053197
-0.648219
-0.226933
-0.542056
-0.784949
0.398879
0.366487
0.327317
-1.020625
-0.227853
-1.253639
-0.474592
0.080560
0.627815
-1.174922
1.769430
-0.234495
0.642287
-0.634347
-0.461188
4.000822
-0.393243
-2.507235
-0.042711
-0.634075
-0.605905
0.227599
-0.363155
-0.095743
-0.216969
-0.514737
0.489791
-0.384856
-1.173577
-1.244904
-0.716020
-0.150798
-3.073996
0.013985
0.299934
0.364294
-0.481502
-1.863115
1.425885
0.728385
-2.590149
0.121476
-0.296707
-0.195915
0.190962
-0.199542
-0.242489
0.459928
2.980861
-0.093896
-0.054865
-0.277310
-0.333608
0.296614
1.404920
-0.658922
-0.810851
0.106321
-0.164607
-0.666251
-0.659539
-0.107606
0.732185
-0.744223
0.353839
-0.433833
1.200023
0.083479
-0.705395
-0.313589
0.248063
0.452077
-0.379164
1.609337
-0.184657
-0.159530
0.353129
-0.183255
1.857997
0.363456
0.023375
1.045556
-0.184235
-1.438679
-0.253384
-2.065394
0.373741
1.323746
-0.386717
-0.965103
0.113419
-0.489615
-1.265803
-2.115153
-0.530258
-0.262825
0.015457
-0.401738
-1.412676
3.121257
0.209162
0.280873
-0.387308
-0.848400
0.266079
-0.521640
0.026471
-0.167683
0.461057
-0.070770
-0.237461
-0.259724
0.067602
0.279387
-2.143990
0.032870
-0.781816
0.530829
-0.133361
0.472261
-1.118853
0.216499
-0.768081
0.873070
0.123277
0.160956
-0.116444
-0.624540
-2.277433
1.612987
0.966062
0.185621
-0.714888
0.620145
-0.573604
-0.202874
0.837634
0.415781
-0.786446
0.050779
-0.415089
1.295287
0.083155
-0.270888
-2.361627
0.281591
-0.382770
-1.162559
-1.147826
-0.593727
-0.993145
-0.891979
-0.025754
0.040361
-0.109844
-0.640191
-0.499877
2.081946
-1.045962
-1.164634
-0.356909
0.184902
-0.919440
-0.717365
0.067040
0.013817
2.987035
-0.478436
-1.385964
-0.366580
-0.230906
-0.782192
-1.276123
-0.520812
-0.497002
0.832792
-0.607704
0.445166
1.286147
-0.549078
-0.408345
0.544435
-1.153468
0.019028
-0.297217
-0.003754
0.559413
2.770197
-0.413705
0.236013
0.321424
-0.593128
-0.768594
0.365333
-0.066547
-1.388839
-0.679068
-0.687819
-0.458115
0.172970
-0.267084
-1.792557
1.168032
0.046678
0.402484
-0.618091
0.347212
-4.091554
-1.367731
1.148205
-0.123480
0.017946
-0.061638
-0.188283
-0.831033
0.487348
-0.208716
1.694047
-2.100356
-0.473765
-0.377737
0.052404
0.198231
-1.312193
0.310398
-0.152004
-0.015095
-1.909931
2.375414
0.162071
0.471818
0.097485
-0.385455
-0.452386
-1.621445
-0.792065
-0.784857
-0.651643
-0.934141
-0.675794
-0.530328
-1.198252
0.778270
0.263683
-0.776219
-1.017847
-1.609277
0.023437
-1.283724
-0.277749
-0.401981
-0.486933
-1.664851
-0.981246
-0.364682
-0.563945
-0.792394
-0.380389
-1.790230
-0.543376
0.216525
-0.528307
0.679368
-0.151497
-0.831686
-1.058151
-1.139397
-0.162750
-0.768140
-1.004146
-1.933420
-1.224192
-0.688319
-0.512450
0.071949
-0.880782
-1.358223
-0.903264
-0.406063
0.086031
-0.131176
-0.089631
-0.226397
0.427166
2.940791
-0.879334
-0.089459
-0.205885
-2.098454
-1.667124
-0.395481
-1.430117
-0.607567
-1.230914
-0.914741
-0.437543
-2.830271
-0.638551
-0.380413
0.065779
-0.362182
0.394646
-0.057350
-0.128730
-2.425953
-0.135859
-0.067358
-0.907740
0.260350
-0.697104
-2.248213
-0.742112
-2.267643
0.061015
-0.150983
-1.406631
-2.079747
-0.041330
-1.140172
-0.278746
0.088071
-0.634062
0.357349
0.982650
0.801372
-0.789988
0.265490
0.046382
-0.471387
0.224007
-0.176320
0.387379
0.371128
-0.360124
-1.363304
1.204504
-0.480406
-0.754496
-0.456456
1.293258
-0.401832
-1.308100
0.148828
-1.231326
-0.156775
-0.012453
-1.113239
-0.475138
0.011628
-1.551991
-0.276682
-0.138264
-2.034864
-0.641549
-0.168060
-1.861978
-0.158618
0.643667
-0.973757
-1.082414
0.308553
-0.804365
0.067568
0.288164
-0.902302
-0.532176
-0.385927
0.180902
-1.136782
-0.600300
-0.663890
0.184020
-0.745890
1.977154
0.311588
-0.446245
-1.840025
0.094087
0.357419
0.761205
-0.462081
-0.567089
-0.543389
-0.142716
-1.784846
2.865166
-2.719555
-0.141251
-0.605366
-1.005802
1.407392
2.356305
-0.119184
-0.355508
0.670704
-1.151258
-0.208919
-1.067180
0.942684
-1.631604
0.051967
-2.194069
-0.812263
2.059479
0.527066
0.596777
2.498883
2.245483
0.155258
0.203424
0.228927
0.153650
-1.454065
-0.738498
-0.594956
-1.311518
-1.797002
-0.152372
-0.390076
0.927024
-0.976386
-0.286066
-1.169430
-0.533628
0.934664
0.048955
0.074563
-0.891207
-1.167006
-1.574008
0.042651
-3.314465
0.744890
1.578243
-0.378365
-0.550744
-0.335220
-1.510398
-0.793986
1.281682
-0.547492
-0.093107
-0.262089
-0.308253
0.033295
0.012008
0.099213
-0.393733
-1.005763
-0.761516
0.160682
-0.953891
-1.529077
-1.849728
-1.564414
-0.135658
-0.438908
-1.316718
-1.018745
-1.225326
0.224247
-0.172327
-0.936783
0.894957
-0.519325
-1.867067
-0.184563
-0.821567
0.035149
0.299404
-1.519212
-0.873465
-0.394605
-0.918291
-1.991730
-0.008462
-0.731329
-0.301809
-0.189011
-1.615804
-0.190312
-0.549446
-0.522404
-0.472988
-3.491896
-0.126575
0.039902
-0.675395
-0.272611
-1.396676
-2.194856
-0.541347
-1.556611
-0.477160
-0.060957
-0.694183
1.998416
-0.556840
-0.523141
-0.202917
-0.740173
-0.591357
0.698405
-0.388587
-1.119400
-0.650725
-0.497571
-0.129731
-1.391908
-0.382579
-0.529807
-0.370148
0.450281
0.105713
-0.034492
0.858489
0.324589
-0.805471
0.008265
-0.392413
-0.289209
-0.944707
-1.208176
0.684829
-0.510857
-0.631015
0.375555
-2.155347
-0.912667
-0.396847
-0.204492
-0.226086
-0.697035
-0.211257
0.632504
-0.378639
-0.263834
-0.895609
-0.696564
0.054568
-1.028121
-0.955335
0.710661
-0.158762
-2.598173
-1.447204
0.274694
-1.062324
-0.745374
0.196991
-1.834411
-0.145752
-0.969733
0.071403
0.129559
0.316992
-0.334705
-0.481148
-0.639446
0.362145
-1.865458
-0.417718
0.091797
-0.510768
-0.399453
-0.439422
1.174056
-0.889247
0.686876
-0.063966
-0.572551
-0.753149
2.439199
-0.577202
-2.330550
-0.585536
-0.303244
-0.490857
-0.426128
-0.905619
-0.766303
-0.630758
0.464183
0.242831
-0.446902
-0.915327
0.074177
-0.615372
0.084071
-0.118211
-0.535026
-1.767436
-0.207104
0.751140
-0.389385
-1.627247
-0.770707
-2.450849
0.075031
-0.954726
-0.325890
-0.608466
0.021056
-0.422078
-0.597737
-1.236014
-0.162805
-0.010787
0.104021
-1.083375
-0.133077
-0.604905
-0.442720
0.101936
-0.100312
-1.526537
-0.202464
-0.505291
-0.733538
0.283809
-0.711364
-1.566542
-0.486017
0.061389
-0.046975
0.263179
-1.843528
-0.466743
-0.682911
2.243793
0.058562
-0.196540
0.004168
0.208036
2.757686
0.487424
-0.516910
-0.664508
0.141353
-0.599148
-0.934796
-0.060096
0.870980
-0.284865
-0.969810
-0.861564
-1.027632
-1.052499
1.286357
-0.157015
-0.218732
0.330977
-0.382182
-1.544971
-2.068892
-0.833946
-2.047733
-0.409102
-0.312560
0.291386
-1.877859
0.101197
-3.409255
0.635075
0.135194
-0.342594
0.277283
-0.133341
-0.208543
-0.753751
-1.322504
0.246689
-1.121965
-0.276284
0.602336
-0.378061
-0.741773
-0.338497
-1.870893
-0.357069
-0.637681
-0.080588
-0.661124
-1.021976
-1.281404
-3.412087
-0.987292
-2.784608
-0.073395
-1.967498
-1.323667
-1.480448
-0.309599
-1.102843
-0.512938
-0.715129
-0.699268
0.259493
-0.906321
-0.246039
-0.262054
0.032740
-0.148663
-0.133342
-1.209783
0.175108
-0.072044
-1.946323
0.065776
-0.037162
-0.823449
-0.134253
-0.785008
-2.546380
0.366529
0.271364
-0.509782
-0.047083
0.782915
0.824051
-0.468975
-0.734656
0.095456
-0.403024
-0.466865
0.417858
0.554395
-0.103391
-0.146033
1.138374
-1.825844
-0.108754
0.000231
0.445061
0.296349
-0.295291
-0.743916
-0.210078
0.356947
-0.307423
-2.515474
0.312157
-0.261547
-1.540639
0.213095
0.073602
0.786891
-0.069477
-0.107138
0.055727
0.139654
-0.603510
-0.041978
-0.222981
-0.144508
0.101198
-0.438854
0.188026
-0.916366
0.034070
1.944491
0.926427
-0.468809
-0.234153
0.040118
1.076379
-0.388359
-0.330396
-0.963866
-0.183500
-0.622074
-0.191619
-0.608703
-0.883709
0.765732
-0.590250
-0.185089
1.000055
-1.126634
-0.445893
-0.732071
0.087496
-0.708886
-0.495742
-0.750844
-1.528595
-0.089426
-0.105662
-0.409855
0.058597
-1.080124
-0.373480
-0.441893
-0.004839
-0.704163
-0.048298
-2.827694
-0.321818
-0.856379
0.023465
0.272076
-0.166261
-0.423243
-0.996644
-0.948700
-1.228721
0.492221
-0.364554
-1.070526
-0.376831
0.073029
-0.137567
-0.058038
-0.422892
0.862953
0.121736
-0.023831
-0.157641
0.116727
-0.973922
-1.587392
-0.088582
-0.005764
3.192384
0.249714
0.043019
0.170657
-0.313486
-0.783688
0.572647
-0.495350
-0.852842
-0.034606
-0.552427
-0.126370
0.073839
-0.229342
-0.248675
0.294676
0.122467
0.085224
-1.357192
0.580215
0.165995
-0.266904
0.095564
0.483338
-2.132727
-0.403442
-0.150665
-0.794011
-0.644170
0.016839
-0.466341
0.409439
0.277565
0.531223
1.150156
-0.384466
-0.238104
-1.449832
3.037062
-0.060655
-0.583310
0.693743
-1.610149
0.665210
0.833416
0.146016
-0.314549
-0.925886
0.854590
0.035101
-0.436607
-0.001373
0.160769
0.558300
-0.806346
-0.455717
0.506539
-0.792625
0.098363
-0.372804
-0.077505
-0.693042
-1.564590
0.416866
-0.035807
-0.504859
-0.224643
-2.359812
0.777533
-0.194979
-0.466196
-0.380219
-1.176805
2.003164
-0.987008
0.907277
-0.057727
-1.958983
-0.032654
-0.120685
-1.284408
-0.553217
0.082196
-0.202864
-0.481902
0.073470
-0.706967
-1.326357
-0.684276
-2.144076
-1.964941
-0.204705
3.862868
-1.472474
-0.193379
-0.508296
-0.907075
-0.382929
0.328670
-0.171432
0.181360
0.191175
-0.284842
0.493384
0.584196
-0.331715
-0.389529
-1.035348
-0.205971
-1.168577
0.002861
-0.405877
0.006855
-0.695520
-0.194297
-0.440970
0.550195
-1.028664
-1.052709
-0.592384
1.234085
-0.046387
-1.422409
-0.408878
-0.417955
0.230517
-1.329837
0.604618
-0.989034
-0.442004
0.511901
-0.569965
-1.105919
0.252072
0.060756
0.119452
-0.391570
0.004617
-0.549527
-0.097063
-0.009957
-0.550749
-0.783125
-1.109430
-0.097477
-0.717308
-0.683251
-0.197832
0.243032
0.471503
1.146197
-0.048542
-0.640914
-0.010956
-1.243358
-0.212273
0.370879
0.341158
0.407080
-0.958263
-0.439481
0.169705
0.299907
0.604073
-0.473539
1.107957
0.128384
-0.114818
1.024953
-1.265315
-0.773577
-0.266724
-0.535407
1.684202
0.130671
-0.722320
-2.013454
-0.684558
-1.758981
-1.846230
-1.137183
-0.978354
-0.797817
-0.627437
-0.702506
-0.701699
0.888117
-0.675954
-0.111503
-0.348378
-1.100303
-0.626635
-0.342963
-0.762177
-1.407135
-0.803857
-0.312341
1.030423
0.049594
-0.658705
0.164422
0.592115
-0.371296
-2.170832
-0.713352
-0.727807
0.677130
-1.976243
0.586879
-0.703681
0.025895
-1.372983
0.054090
-0.939134
-1.015879
-0.685772
-1.368717
0.539242
1.010857
-0.449954
-1.967618
0.675459
-0.982351
0.527824
0.012296
-0.991332
-0.202078
-1.131556
-0.718599
-2.946769
-0.651420
0.054971
0.015448
-0.760237
-2.333274
-0.232252
-1.465760
-0.975782
-0.452907
0.217470
-0.725055
-1.745486
0.566933
-0.535174
-0.341348
0.232125
-0.890129
-0.465377
-0.359730
0.470051
-1.373747
-0.288454
-1.489918
-0.538903
0.615445
0.141231
-0.481929
-1.023719
-0.680369
-0.730450
0.594378
-6.761736
-0.182549
-1.097746
-1.837632
0.074073
-1.408696
-1.186283
0.202531
-0.598758
1.235297
-0.127395
-0.526288
-1.021806
-1.763549
-0.291232
-0.619395
-0.291882
-0.865732
0.260165
-2.926200
-0.353373
-0.526635
-0.719006
-0.485840
-0.666320
1.056820
-0.097877
-1.895395
-0.388120
-0.932420
-0.264895
-0.606022
-0.748405
-2.854449
-0.124008
-0.434942
-0.263920
-0.767045
-1.586266
0.399243
-0.662640
-0.250110
-0.462540
-0.572028
-0.255766
-0.290231
-0.695446
-0.779804
-0.767901
0.727450
-0.904542
-0.106244
-0.732638
-0.330442
0.225422
0.100340
-1.415107
0.138925
-0.309109
0.162694
-1.716501
-0.939627
1.278166
-0.232038
-0.824386
0.651372
-0.601868
-2.307809
1.791137
-1.480353
-1.975456
-0.349764
-0.037840
-0.702736
-0.768231
1.270513
-0.448155
-0.131533
-0.932383
-0.751260
-0.801369
-1.950187
-1.434798
0.923869
0.233027
-0.664568
-0.580094
-0.283154
0.961824
-0.679625
-1.052210
-1.440388
-0.161733
-0.251383
-0.575778
-0.564273
-1.217265
-0.911096
0.941591
-0.534573
0.861621
-0.501980
-0.583625
-1.525837
-1.523038
-0.575154
-0.764617
-0.474530
-1.993413
-0.643511
0.164601
0.984630
0.644397
-0.574531
1.291729
-1.114979
-0.557185
-0.404554
0.739152
-1.900376
-0.318532
-0.812727
-1.445228
0.041615
0.066559
0.129950
-0.231729
0.120191
-0.464324
-0.772609
-0.003312
-0.765510
-1.400631
-1.002303
0.042414
1.320282
-0.779888
-0.782340
-1.538496
0.231740
-1.264741
-1.931308
-0.929903
-0.064658
-0.671053
-0.156760
-1.729537
-2.141383
-2.059477
-0.440946
-0.671138
-0.555332
-0.573267
-0.048246
0.698417
-0.760739
-0.355128
0.393294
0.814900
-1.204481
-0.309706
-0.351548
-0.327018
-0.425452
-0.410607
0.286258
-0.540842
-1.584010
1.180496
-0.015417
-0.014474
-0.012102
-0.012433
2.530376
-0.555147
0.352891
-0.013217
-0.565351
0.054041
0.113704
-1.200706
0.081444
-0.881135
0.743611
0.063796
-0.159454
-1.278718
0.843128
-0.206072
-0.786831
1.044575
0.359793
-1.633484
-0.884316
0.072783
-0.137181
-1.359561
0.487250
0.619363
1.023803
0.034712
0.367015
-1.056277
-0.456379
-1.044295
0.405553
-1.497693
0.120289
2.335826
-0.451901
-1.231579
-0.997508
1.535079
1.828846
0.269418
0.862493
0.145635
1.268331
-0.940910
0.279106
1.181725
0.262445
1.299901
1.330921
-0.479751
-1.380389
-0.764516
-0.086429
-0.141213
-0.052302
0.157039
-1.662779
-0.199495
-1.357429
-0.354308
2.144165
-0.657746
0.060979
-0.084260
-0.563682
0.693141
-0.976291
0.473422
0.480842
-2.759139
-0.941608
0.253662
-1.170112
-0.660112
0.378584
-2.409918
-0.104653
-0.912104
1.245491
2.172949
-0.538715
-2.382540
0.071055
-0.820641
-0.135198
0.152146
-0.053703
0.292221
-0.686352
-1.029572
0.597855
-0.396736
0.060978
-0.629102
-1.215222
0.534881
-0.390229
-0.453485
-0.359387
-0.924932
-0.474182
0.617699
-0.695950
-0.252566
2.172200
1.975272
-2.055785
0.306741
-0.253210
-0.846501
-2.287051
-0.576331
0.810360
0.413585
-0.896545
0.384244
-0.171585
-1.324822
-1.055868
-1.583001
-1.897064
0.061561
-0.415956
-0.399741
2.211029
0.610038
1.747051
0.742981
0.172274
0.323907
-2.827613
-0.319225
-0.123951
-0.506405
-0.156988
-1.466780
0.722013
-1.241901
-1.746242
0.382184
0.152152
-0.791403
-0.202327
-2.842971
-1.071411
0.387851
0.442494
-1.358157
0.447062
0.308477
-0.674379
-1.650599
-0.250323
-1.379549
-1.028423
0.986873
-1.504950
-0.303383
-0.392666
-0.627287
-0.171109
-0.667903
-0.927227
0.749965
-2.627495
-0.222564
-1.438439
-0.304533
-0.726727
-0.716315
-0.043119
-1.451204
-0.739314
0.066893
-0.033885
0.139006
1.310540
-1.571151
-0.197856
-0.971089
1.080896
-0.900556
-0.083982
-0.696279
-0.857079
-1.458053
0.887427
-0.589768
-0.643864
-0.776624
0.556539
0.225821
0.640278
0.365772
-0.466221
-2.952613
-1.141238
0.568508
-0.770158
-1.689584
1.838105
0.822495
1.103598
-1.321883
-0.321653
0.448802
0.443608
0.325357
-0.549107
0.660679
0.291012
-0.001406
1.076459
0.462918
0.979749
-0.103648
-1.854134
-1.461747
0.609954
0.979612
0.915016
-0.539168
-0.012832
-0.132688
0.413491
0.754017
0.030549
-0.514127
-2.716077
-0.279870
-0.664028
-0.554549
0.510226
0.605678
-0.356168
-2.206405
1.540369
0.784375
-0.337612
0.005269
0.141911
0.057917
-0.398290
0.251580
-0.866074
0.367455
0.130018
-0.212288
-0.417228
0.011318
-0.129216
-0.173814
-1.397262
0.170348
-1.188465
-0.161640
0.009695
-0.416046
-0.147052
-0.656075
-0.299479
0.842056
-0.780148
-0.670672
-0.205581
-0.416908
-0.664232
0.200331
0.195435
-1.087353
-1.449866
0.373463
-0.403356
-1.567283
-0.226863
-0.353731
-0.588312
-1.523811
0.407116
1.164305
0.319035
-0.540306
0.107397
-0.471155
-0.606209
-0.368913
-1.124901
-0.806830
-0.022214
0.074354
0.193586
0.908929
0.038531
-1.176994
0.796577
-0.582550
2.455288
-0.720824
-0.431827
-0.307066
-0.127799
-0.122242
-0.251386
2.414500
0.247090
-0.149803
-0.671665
0.470088
-0.020884
-1.468162
2.539674
0.354495
-0.328423
-0.892935
0.129946
-1.810945
0.033794
-1.749784
-0.313169
0.153592
-0.600201
-0.446544
-0.591524
-0.143156
-0.357974
-2.314637
-0.575921
-0.587207
-1.966259
-1.311325
0.147147
-1.886417
-0.877469
-0.326384
-0.574827
-0.822340
-0.841383
0.203078
-0.459318
0.608163
0.719026
-0.433240
-0.318461
-1.584065
-0.582195
-0.749787
-0.949022
-0.249851
-0.475235
-1.125020
-1.335409
-0.591604
-0.487454
-0.228433
-0.059026
-0.638380
-0.598034
0.079379
-0.061742
-0.544775
-1.102564
0.464007
-1.865270
-0.414913
-1.107805
-0.636012
-2.985604
-0.220115
-0.570202
-0.242782
-1.337401
-0.587104
0.179159
-2.504798
-0.144380
-1.676307
-0.760085
0.275847
0.184061
-0.982187
-1.133159
0.257487
-0.636097
-0.493158
-0.390594
-1.165796
-0.324281
-0.274542
0.309999
-0.403432
0.590708
-1.591341
-0.372364
-0.952266
-0.977098
0.095197
-0.328231
0.575510
-0.651605
-0.810665
-0.418813
-0.492824
0.074703
-1.342349
-1.522478
0.665760
-0.600608
-2.582925
-0.508342
0.436500
-1.049882
-0.620932
-1.424409
-0.189930
-0.106412
-0.561597
-0.409591
-0.437211
-1.694226
2.277642
-2.197146
-2.233636
-0.101450
-0.864180
-1.130345
-0.632023
0.043835
-0.854856
-0.879557
0.184148
-0.518634
0.258088
-0.720397
-0.546694
-0.739106
-0.571967
-1.481370
-1.060602
0.003521
-1.129977
-0.494214
-0.913679
-0.040072
-1.947568
-0.359330
-1.548889
0.171541
-0.403617
-0.042838
-1.468406
3.028363
0.778088
-2.052080
-0.797163
-0.105370
0.799716
-0.229942
0.042084
-1.207739
-0.972369
-0.836595
-0.811096
-0.275721
-0.798420
3.358864
-0.388836
-0.587336
-0.537860
-0.808829
-0.459941
-0.455841
-0.572226
-0.017013
-0.175388
-0.428466
-0.684533
-0.634927
-0.525604
-1.010654
0.885509
-0.522568
-0.527183
-0.756243
-1.599065
-3.001529
-1.477968
0.257311
-0.832922
-0.311110
0.143871
-0.097291
-3.959418
0.002076
0.019050
-0.055674
1.396051
-0.811452
-0.907805
-0.003751
-0.377502
1.414070
-0.831874
-0.315561
-0.607080
-1.038912
1.606343
0.107590
-0.930261
-0.578129
-0.561729
-0.898276
-0.848552
-0.720151
1.482253
-0.184460
-0.353038
-0.839074
-1.120798
-0.455944
-0.112659
-0.492967
-1.098457
-0.424759
1.677341
-0.073692
0.385922
-1.532514
0.138821
-0.252541
-1.034827
-0.768499
-0.581852
-0.398081
-0.427832
0.130564
-0.087762
-0.637272
0.895907
-0.446341
-1.365137
-0.929726
-0.898503
-0.978153
0.857682
-0.852051
-0.350332
-1.299738
-2.022830
-1.045938
0.266601
2.239438
-0.182237
0.570286
-0.557113
-0.504946
-0.450401
-0.011077
-0.863308
0.619236
-1.030518
-0.277266
-0.221438
0.017848
-0.863160
-0.251557
1.392351
0.123032
-0.310849
-0.981410
-0.959545
-1.849537
-1.102515
-0.666863
-1.328026
0.025018
-0.065547
-0.566959
0.128701
0.126570
-0.215851
-0.284376
0.551172
-1.033457
-0.556055
0.160011
-0.843450
-0.114231
-1.316014
-0.048182
0.115665
-0.108412
-0.717041
-0.857410
-3.283361
-0.179496
-0.704525
0.359573
-0.610047
-0.896506
-1.092286
-1.183126
-1.288754
-1.077823
-0.240432
-0.000756
-0.518029
-0.763581
0.188010
-0.626980
-0.594711
-0.558193
-0.705199
-0.608601
0.034828
-1.069708
-0.078080
-0.756174
0.887726
-1.589885
-0.560593
-1.007046
-0.052380
-0.527825
-0.704870
-0.615048
-0.934445
-0.702376
-0.502982
0.334651
-0.448722
-0.952139
-0.571910
-1.029497
-0.615780
0.174592
-0.419352
-0.780079
-0.669835
-0.440670
-0.036036
-0.550694
-0.972192
-0.992381
-0.544949
0.058195
-0.410662
0.149197
-2.474119
-0.092052
-1.416954
-1.788589
0.165526
-0.613947
-0.366488
-0.630341
-1.235595
-1.527726
-0.465963
-0.039323
-0.396596
3.128466
-2.159118
-0.019573
1.366136
-0.249297
-0.323080
-1.036640
-1.389635
-0.552089
-0.629387
-0.824065
0.080030
-0.432587
-0.301531
-0.642694
-0.789793
-0.837180
-1.695062
-1.681023
-0.768275
-1.904566
-0.277442
-0.793135
-1.900119
-0.645866
-0.274080
-0.211951
-0.037711
0.043508
-1.046407
0.318201
-1.619984
1.205666
-0.626450
-0.502371
-0.735552
-1.321869
-0.771961
-0.585000
-1.306209
-0.879535
-0.726258
-0.024382
0.370681
-0.719433
-0.631840
0.008385
-2.554980
1.390852
0.151253
2.638059
-3.131389
-0.730437
0.226707
-0.335423
-1.172947
-0.189651
-0.671390
0.218339
-1.201114
-0.261072
-0.419861
0.072915
-0.041343
0.173968
-1.207458
0.164662
0.229061
-2.071797
-1.043876
-0.466968
0.692855
-0.260769
-0.647417
-1.381903
-0.640603
-0.699768
-0.461223
-0.816096
0.910808
-0.918952
0.698716
-1.552498
0.370820
-0.737254
0.128578
-0.027497
0.548395
-0.548894
-0.163207
3.036624
-3.045211
-0.672210
-0.670549
0.153700
-0.584733
0.623155
-0.025015
0.206837
-0.371237
-0.900914
-1.410020
-0.333665
-0.244746
-0.771907
-0.052797
-1.057327
-0.922894
-0.934053
-2.040100
0.096417
-0.895956
-0.339046
-0.982253
-1.235957
0.221494
-0.410066
-0.919590
-0.856043
-1.114493
-0.781441
-1.606926
1.302579
-0.433187
-0.186780
-0.582953
-0.595144
-0.490708
-0.435181
-1.413178
-0.292416
-1.435997
-0.590721
-0.589876
-0.938850
-0.644681
-0.406502
-0.712364
-0.890676
-0.897882
0.088035
-0.725063
-0.431604
-1.389164
-0.919391
-0.449384
-1.395338
-0.683563
0.685989
-0.671034
-0.288434
-0.565597
-0.090237
-0.391060
1.503984
-0.855679
-0.430243
-2.493338
-0.048899
-0.086667
-0.402702
-1.268910
-1.669437
-0.422348
-1.078194
-0.734275
-2.666412
-2.530419
-0.174477
-1.521323
-0.453817
-0.105692
-0.207212
-0.660538
2.446031
-0.600266
-0.496526
-0.937503
-0.646343
-0.051870
0.465400
-2.023318
-0.500422
-2.050382
-1.900438
1.166925
-0.280440
-0.850284
-0.546329
-0.448157
0.126734
0.451010
-0.216146
-0.367909
-0.722070
-1.036743
2.979020
-1.425536
-0.934604
-0.253780
-0.482077
-0.587799
-0.793439
-0.086666
-0.282490
-0.427701
-0.822715
-0.772472
0.699636
-0.157575
0.024018
-0.704069
-0.370456
-0.973686
-0.726406
-0.501195
-1.591487
0.174034
-0.357680
0.037366
-0.725342
-1.013304
0.898440
-0.709179
0.127340
-1.858911
-0.228188
-0.463513
-1.474806
-0.562433
-0.177732
-0.659133
-0.830600
-0.013172
-0.666515
-0.510598
0.181454
-0.627991
-2.007265
-0.636974
0.149765
-1.010155
-0.318875
-0.367979
-0.608598
-0.493471
0.449649
-0.190036
0.012863
0.309264
-0.469409
-1.140544
-0.842660
-0.747004
-0.679501
-0.389386
-0.713805
1.409836
-1.283964
0.063413
0.097713
-0.826196
1.183877
1.164184
-1.067003
0.772001
-0.542755
-0.834826
-0.796787
-0.439038
-0.913643
-0.086538
-1.215088
-1.488781
-2.284105
-0.356384
-1.195095
-1.523149
-0.680946
1.082827
-0.637991
-0.121917
-0.201497
-0.542845
-0.357177
-1.410307
-0.547297
-0.644114
-1.541988
-1.813866
-0.508015
-0.738347
-0.393486
-0.266270
-0.499995
-1.602445
0.179373
-0.015958
-0.196000
0.879913
-1.090934
-1.754271
2.076338
0.849911
-2.511481
-0.430126
0.400864
-0.695403
-1.206461
-0.165556
-1.037940
-0.662617
-1.496423
-0.108598
-0.289531
-0.278122
-2.036437
-0.757373
-0.272212
0.219813
-0.913426
-0.556323
-0.501873
0.313893
0.231971
-0.531523
-0.960400
-0.980423
-0.439649
-0.418448
0.133350
-0.309759
-0.129217
-0.130736
-1.041584
2.021979
-2.740452
-2.836663
-3.169529
-0.539976
-1.060077
-0.317064
0.078993
0.121256
-0.758447
-0.604855
0.539238
-2.640454
-0.641142
-1.558828
-0.337713
-0.163990
0.220659
-0.243603
-0.067204
-0.123176
-0.707755
2.091369
-0.182418
-0.784420
3.408522
-0.653713
-1.170610
-0.973696
-0.581723
-0.739103
-0.348229
-0.278226
-0.618330
-1.303403
-0.166437
-0.576373
-0.483708
-0.854988
-0.903059
-0.580957
-0.295839
-1.849339
0.500129
0.118613
-0.666516
-1.549094
-0.699418
-0.572431
-0.945532
-1.141532
-0.207716
-2.983075
-1.220512
-1.209187
-1.301367
-1.469838
-0.753551
-0.482352
-0.556704
-1.261527
-0.007076
-0.589393
-0.552838
-0.918424
-0.266265
-0.106899
-1.046435
0.116460
-1.377973
-1.061861
-0.797707
-0.827178
-0.160948
-1.043755
-1.096956
-2.241365
-0.637445
-1.868360
-1.784027
-0.887152
-0.341993
0.044631
-3.079410
0.140324
-1.000070
-1.069863
-2.390896
2.749496
-0.973418
-2.057279
-0.015560
-0.186305
0.009332
0.050291
-1.862538
-0.439573
-0.511240
0.437514
-1.063119
-0.711450
2.966233
0.662785
-0.540948
-0.422839
1.546532
0.472545
-0.289346
-0.977339
-0.767448
1.426032
-0.441667
-0.558769
-1.258900
-0.259216
-1.024026
1.409969
-1.696025
-1.237810
-0.009985
-0.118966
-0.277675
0.272394
-1.022296
-0.607829
-0.436631
0.043663
-1.030109
-0.869224
-1.826756
-0.237941
-0.230091
-0.151226
-1.821512
-0.987345
-0.113514
-0.831844
-0.364122
-0.375705
-0.845589
-0.467067
-1.052158
-0.436254
1.662241
-0.457170
-0.502296
-0.728916
0.412698
-1.981962
-1.440398
0.183456
-0.699325
-0.742540
-1.884480
-0.255747
-0.047964
-0.755554
-0.590656
1.124746
0.636316
-0.786297
-0.376160
-0.436908
-0.742330
0.644624
-0.745637
0.250131
-0.924421
0.174913
-0.556339
-1.523131
-0.552994
-0.936631
-0.763736
-0.196173
0.208626
-0.681341
-0.364315
0.808928
-0.804348
-1.493320
0.016732
0.893805
0.084601
-1.054493
1.250524
-0.188312
-0.133126
-0.770119
-0.964417
-0.530178
-0.677661
0.305153
-1.968597
-1.513682
-1.413694
-0.675887
-1.648506
1.308606
-0.600775
-0.944761
-0.762772
0.192082
-0.086532
0.001328
-0.627853
-0.920466
-1.174683
-1.751546
-2.052243
-1.652328
-0.501618
-0.937363
-0.902208
0.125459
0.309979
-1.784622
-1.072937
-0.497676
0.176532
-0.027568
-1.640877
-1.399164
-0.627231
-1.141187
-1.099178
-0.759463
-0.184702
-3.248783
-1.592582
-0.386708
-1.266246
-1.110608
-1.096474
-0.740793
-0.355535
1.306714
0.673804
-0.309016
-0.062366
-0.637627
-0.475090
-1.292641
-0.449440
-0.734780
-1.728984
-0.943477
-0.586107
0.242689
-0.646928
-0.499300
-2.895205
-1.007341
-0.860976
-0.135625
-1.201002
1.960861
-2.845122
-2.029390
0.329568
-0.993317
-0.971917
0.188637
-0.201947
-2.446309
-0.819177
-0.872966
-0.451808
0.382612
-0.116275
-1.503400
0.281052
-0.279235
-1.248462
-0.287318
-0.323081
0.041135
-0.417910
-2.452427
-0.102361
-0.459425
-0.431373
-0.112267
-1.414723
0.813087
-0.502363
-0.715120
1.058596
-0.532403
-0.235820
-1.464777
-0.851768
-0.775330
-0.082422
-1.030780
-0.732745
-1.030777
-0.341001
-3.686394
-0.910487
0.220256
-0.224296
-1.597423
-1.158959
-0.005833
-0.308403
-0.986839
-0.343793
-1.928483
-0.954326
-0.585533
-0.905037
-1.619171
-0.610420
-0.708764
-0.748540
-0.520133
-0.791143
-0.425144
-0.908781
0.207455
-1.067347
-0.437957
0.230137
0.199904
-0.319916
-0.896694
-0.767981
-0.059859
0.289848
-0.471947
-0.122216
-0.719357
0.043968
0.232128
0.394003
-0.435108
-0.134049
-2.111385
-1.586517
-0.489757
0.025331
0.523569
-2.183445
-0.930544
-0.620849
-2.230811
0.260109
-0.338686
0.157503
0.472798
-1.145323
-0.154758
-0.142681
-1.656883
-0.652914
-0.468108
0.479598
-1.067454
-0.200649
-0.826044
-2.049687
2.995245
-0.139814
-0.708130
0.195281
-2.158117
-0.087317
-0.710315
-0.722004
0.148935
-0.486810
-0.151222
-0.561083
-0.622881
3.940499
-0.015436
0.187278
-0.210180
0.165768
-0.105470
-0.012831
0.416329
-0.940220
-1.233268
2.133483
0.013470
-0.198834
0.244967
0.194363
-0.698295
3.500348
-0.081766
2.292993
0.521652
-1.469854
-0.293875
0.176757
-0.706880
-0.664489
-0.047309
0.177484
-2.068211
-1.335645
-1.141008
-1.462567
0.534875
-0.626941
-0.865376
0.274074
0.727492
-0.288332
-0.661258
0.202441
-0.193691
0.846350
-0.049027
-0.415330
-0.048432
-0.270580
-1.258921
-0.101541
-0.604425
-1.198548
0.441840
0.461135
-1.336448
-0.320319
-0.806679
-1.513889
-0.276787
0.247060
-0.101187
-0.505205
0.920951
-1.002740
0.269494
-0.080028
-1.076678
1.267912
-1.112548
-0.432885
-0.723035
-0.294551
-0.862797
-1.032782
-0.098932
-1.203251
-0.856415
-1.870185
0.912404
1.110519
0.419398
-0.952705
-0.593036
0.147276
1.697324
-0.876250
-0.159224
0.398558
-0.089983
-0.073547
-1.237175
-0.817643
-1.201196
-1.734447
1.036814
-0.214598
-0.467455
-1.014892
0.011435
0.651816
-2.062644
-0.147119
-0.827389
-0.056611
0.085534
0.415720
-1.439567
-0.429731
-2.338169
-2.711692
0.066255
-1.005291
-2.097203
-1.066483
-0.275962
-0.890050
-0.258653
-0.588645
-0.409081
-0.111219
0.090348
-0.631497
0.046029
-0.043306
0.273889
-0.584674
-1.340105
-0.339973
-0.073211
-1.401319
0.320723
0.160636
-1.089153
-0.178223
-0.331746
1.149073
-0.884009
-0.497951
0.279162
-0.389308
0.298948
-2.835541
-1.816660
0.079462
-0.355301
-0.780516
-0.207830
-0.029163
0.068656
-0.148978
-0.694911
-2.082377
-2.414743
